{"learner":{"attributes":{"scikit_learn":"{\"_estimator_type\": \"regressor\"}"},"feature_names":[],"feature_types":[],"gradient_booster":{"model":{"cats":{"enc":[],"feature_segments":[],"sorted_idx":[]},"gbtree_model_param":{"num_parallel_tree":"1","num_trees":"100"},"iteration_indptr":[0,1,2,3,4,5,6,7,8,9,10,11,12,13,14,15,16,17,18,19,20,21,22,23,24,25,26,27,28,29,30,31,32,33,34,35,36,37,38,39,40,41,42,43,44,45,46,47,48,49,50,51,52,53,54,55,56,57,58,59,60,61,62,63,64,65,66,67,68,69,70,71,72,73,74,75,76,77,78,79,80,81,82,83,84,85,86,87,88,89,90,91,92,93,94,95,96,97,98,99,100],"tree_info":[0,0,0,0,0,0,0,0,0,0,0,0,0,0,0,0,0,0,0,0,0,0,0,0,0,0,0,0,0,0,0,0,0,0,0,0,0,0,0,0,0,0,0,0,0,0,0,0,0,0,0,0,0,0,0,0,0,0,0,0,0,0,0,0,0,0,0,0,0,0,0,0,0,0,0,0,0,0,0,0,0,0,0,0,0,0,0,0,0,0,0,0,0,0,0,0,0,0,0,0],"trees":[{"base_weights":[2.182444E-9,-6.7040515E-1,9.468281E-1,-1.0598038E0,-2.3626079E-1,6.132017E-1,1.6403838E0,-1.4442034E0,-8.9780706E-1,-4.0279594E-1,-3.0996475E-2,3.748726E-1,8.486787E-1,1.3494115E0,2.0273176E-1,-1.6363358E0,-8.9553005E-1,-9.4505984E-1,-3.2552314E-1,-4.5424044E-1,-1.9929644E-1,-1.4911601E-1,6.116128E-2,2.420891E-1,4.6674278E-1,7.506927E-1,1.01115786E-1,1.2381698E-1,1.5265231E-1,-1.7405933E-1,-1.3900048E-1,-1.0166365E-1,-2.1396779E-1,-1.1625683E0,-8.148378E-1,-4.1757765E-1,-2.856352E-3,-5.190658E-1,-3.0222815E-1,-2.465965E-1,-1.3478414E-2,-1.763444E-1,9.738095E-2,2.3363492E-2,2.7703834E-1,1.9603173E-1,4.0388066E-2,4.2517737E-1,6.439076E-2,6.469514E-2,8.096818E-2,-3.1135777E-2,1.967143E-3,-1.20178066E-1,-7.6849036E-2,-8.5431986E-2,-6.0159046E-2,-4.8606988E-2,-2.9362923E-2,-1.1333281E-2,1.083342E-2,-5.2821763E-2,-1.0101798E-2,-3.2446783E-2,4.8271727E-2,-2.6164016E-2,1.6253158E-2,-8.026388E-3,8.271692E-3,-2.1203866E-2,-7.276231E-3,1.2381052E-2,3.251654E-4,-1.344115E-4,1.2638653E-2,1.5594751E-2,3.1790257E-2,1.6260887E-2,2.5610212E-2,3.7717503E-2,5.326108E-2],"categories":[],"categories_nodes":[],"categories_segments":[],"categories_sizes":[],"default_left":[0,0,0,0,0,0,0,0,0,0,0,0,0,0,0,0,0,0,0,0,0,0,0,0,0,0,0,0,0,0,0,0,0,0,0,0,0,0,0,0,0,0,0,0,0,0,0,0,0,0,0,0,0,0,0,0,0,0,0,0,0,0,0,0,0,0,0,0,0,0,0,0,0,0,0,0,0,0,0,0,0],"id":0,"left_children":[1,3,5,7,9,11,13,15,17,19,21,23,25,27,-1,29,31,33,35,37,39,41,43,45,47,49,-1,-1,-1,-1,-1,-1,51,53,55,57,59,61,63,65,67,69,71,73,75,77,-1,79,-1,-1,-1,-1,-1,-1,-1,-1,-1,-1,-1,-1,-1,-1,-1,-1,-1,-1,-1,-1,-1,-1,-1,-1,-1,-1,-1,-1,-1,-1,-1,-1,-1],"loss_changes":[9.692761E2,1.5088498E2,1.4546307E2,2.8033264E1,1.4481415E1,2.3757767E1,2.0344604E1,1.3082275E1,8.724396E0,2.3592033E0,2.0882757E0,2.50976E0,2.6638641E0,4.7416687E-1,0E0,1.7440796E-1,2.919056E0,7.7766113E0,8.007865E-1,1.676014E0,4.2734742E-1,5.8095634E-1,8.747723E-1,5.914788E-1,6.5407944E-1,3.206787E-1,0E0,0E0,0E0,0E0,0E0,0E0,1.6540363E-1,8.226013E-1,1.136261E0,3.5555124E-2,9.826539E-2,4.4017792E-1,1.1691294E0,2.8256154E-1,7.730813E-2,2.655654E-1,2.1987572E-2,2.3689698E-1,2.9596448E-2,1.0291171E-1,0E0,3.4060478E-1,0E0,0E0,0E0,0E0,0E0,0E0,0E0,0E0,0E0,0E0,0E0,0E0,0E0,0E0,0E0,0E0,0E0,0E0,0E0,0E0,0E0,0E0,0E0,0E0,0E0,0E0,0E0,0E0,0E0,0E0,0E0,0E0,0E0],"parents":[2147483647,0,0,1,1,2,2,3,3,4,4,5,5,6,6,7,7,8,8,9,9,10,10,11,11,12,12,13,13,15,15,16,16,17,17,18,18,19,19,20,20,21,21,22,22,23,23,24,24,25,25,32,32,33,33,34,34,35,35,36,36,37,37,38,38,39,39,40,40,41,41,42,42,43,43,44,44,45,45,47,47],"right_children":[2,4,6,8,10,12,14,16,18,20,22,24,26,28,-1,30,32,34,36,38,40,42,44,46,48,50,-1,-1,-1,-1,-1,-1,52,54,56,58,60,62,64,66,68,70,72,74,76,78,-1,80,-1,-1,-1,-1,-1,-1,-1,-1,-1,-1,-1,-1,-1,-1,-1,-1,-1,-1,-1,-1,-1,-1,-1,-1,-1,-1,-1,-1,-1,-1,-1,-1,-1],"split_conditions":[2.3721802E-1,-4.9048477E-1,1.1482527E0,-1.3075751E0,-1.19579874E-1,6.4010453E-1,1.6963961E0,5.4084325E-1,1.4483316E0,-8.2889564E-2,3.7969943E-2,4.0520984E-1,9.49557E-1,1.4260535E0,2.0273176E-1,1.5883885E-1,1.3886778E0,-9.371098E-1,2.1131685E0,-1.7102763E-1,1.0969277E-1,5.913426E-1,3.7309006E-1,5.210019E-1,7.576584E-1,7.527468E-1,1.01115786E-1,1.2381698E-1,1.5265231E-1,-1.7405933E-1,-1.3900048E-1,-1.0166365E-1,2.1131685E0,9.270318E-1,-4.5559937E-1,1.7786134E0,2.1527777E0,1.8264303E0,1.0855256E0,1.4731033E0,2.0254034E-1,9.199271E-2,-2.1492763E-1,2.9205552E-1,4.6272862E-1,3.9760706E-1,4.0388066E-2,6.3806057E-1,6.439076E-2,6.469514E-2,8.096818E-2,-3.1135777E-2,1.967143E-3,-1.20178066E-1,-7.6849036E-2,-8.5431986E-2,-6.0159046E-2,-4.8606988E-2,-2.9362923E-2,-1.1333281E-2,1.083342E-2,-5.2821763E-2,-1.0101798E-2,-3.2446783E-2,4.8271727E-2,-2.6164016E-2,1.6253158E-2,-8.026388E-3,8.271692E-3,-2.1203866E-2,-7.276231E-3,1.2381052E-2,3.251654E-4,-1.344115E-4,1.2638653E-2,1.5594751E-2,3.1790257E-2,1.6260887E-2,2.5610212E-2,3.7717503E-2,5.326108E-2],"split_indices":[35,35,35,35,35,35,35,2,2,0,35,35,35,35,0,2,2,35,2,1,0,32,0,0,0,35,0,0,0,0,0,0,2,2,0,2,2,2,87,2,0,1,42,1,0,1,0,1,0,0,0,0,0,0,0,0,0,0,0,0,0,0,0,0,0,0,0,0,0,0,0,0,0,0,0,0,0,0,0,0,0],"split_type":[0,0,0,0,0,0,0,0,0,0,0,0,0,0,0,0,0,0,0,0,0,0,0,0,0,0,0,0,0,0,0,0,0,0,0,0,0,0,0,0,0,0,0,0,0,0,0,0,0,0,0,0,0,0,0,0,0,0,0,0,0,0,0,0,0,0,0,0,0,0,0,0,0,0,0,0,0,0,0,0,0],"sum_hessian":[1.525E3,8.93E2,6.32E2,4.7E2,4.23E2,4.28E2,2.04E2,1.37E2,3.33E2,2.33E2,1.9E2,2.14E2,2.14E2,1.19E2,8.5E1,1E2,3.7E1,3.07E2,2.6E1,1.85E2,4.8E1,8.3E1,1.07E2,8.9E1,1.25E2,1.37E2,7.7E1,7.8E1,4.1E1,6.6E1,3.4E1,3.1E1,6E0,1.12E2,1.95E2,2E1,6E0,1.28E2,5.7E1,3.8E1,1E1,7.5E1,8E0,9.2E1,1.5E1,7.1E1,1.8E1,1.04E2,2.1E1,5.4E1,8.3E1,4E0,2E0,1E2,1.2E1,1.62E2,3.3E1,1.1E1,9E0,3E0,3E0,1.25E2,3E0,5.6E1,1E0,3.7E1,1E0,6E0,4E0,5.5E1,2E1,6E0,2E0,7.5E1,1.7E1,5E0,1E1,4.8E1,2.3E1,7.5E1,2.9E1],"tree_param":{"num_deleted":"0","num_feature":"92","num_nodes":"81","size_leaf_vector":"1"}},{"base_weights":[5.6342957E-5,-6.3927805E-1,8.0703837E-1,-1.0003524E0,-2.9084513E-1,4.743988E-1,1.4079709E0,-1.0793285E0,-4.360955E-1,-4.5782214E-1,-1.1785548E-1,2.883443E-1,7.093413E-1,1.1382306E0,1.7872047E0,-1.3340305E0,-8.6593664E-1,-5.9373684E-2,-1.6760696E-1,-5.3213555E-1,-3.3028558E-1,-1.6472769E-1,9.7894154E-2,1.6250455E-1,3.948396E-1,5.761079E-2,7.745579E-2,1.0216316E-1,1.2587833E-1,1.529678E-1,1.9530341E-1,-1.431551E0,-1.0041747E-1,-9.643766E-1,-7.2194344E-1,-2.4093534E-1,1.1523091E-1,-5.733692E-1,-3.7763137E-1,-3.563184E-1,2.7945095E-1,-2.1895276E-1,-2.6466692E-2,5.5100698E-2,2.3441672E-2,1.2080278E-1,3.2224625E-2,3.520698E-1,5.6381166E-2,-1.4828672E-1,-1.0672152E-1,-9.9949166E-2,-6.990245E-2,-7.530402E-2,-4.8939735E-2,-2.7356395E-2,-1.0791388E-2,1.3937021E-2,9.3368645E-4,-6.2365025E-2,-4.6565756E-2,-3.9676428E-2,-1.9496074E-2,-3.9750777E-2,-2.1081556E-2,4.086576E-2,-5.4084533E-3,-2.4382072E-2,-9.590543E-3,-6.2966133E-3,5.731122E-3,3.5929304E-4,8.744282E-3,8.978392E-3,1.921525E-2,3.0638536E-2,4.386006E-2],"categories":[],"categories_nodes":[],"categories_segments":[],"categories_sizes":[],"default_left":[0,0,0,0,0,0,0,0,0,0,0,0,0,0,0,0,0,0,0,0,0,0,0,0,0,0,0,0,0,0,0,0,0,0,0,0,0,0,0,0,0,0,0,0,0,0,0,0,0,0,0,0,0,0,0,0,0,0,0,0,0,0,0,0,0,0,0,0,0,0,0,0,0,0,0,0,0],"id":1,"left_children":[1,3,5,7,9,11,13,15,17,19,21,23,25,27,29,31,33,-1,35,37,39,41,43,45,47,-1,-1,-1,-1,-1,-1,49,-1,51,53,55,57,59,61,63,65,67,69,71,-1,73,-1,75,-1,-1,-1,-1,-1,-1,-1,-1,-1,-1,-1,-1,-1,-1,-1,-1,-1,-1,-1,-1,-1,-1,-1,-1,-1,-1,-1,-1,-1],"loss_changes":[7.878273E2,1.0689935E2,1.3426047E2,1.8156525E1,1.2511147E1,1.8853943E1,2.2516449E1,1.8737427E1,2.1437054E0,1.9188156E0,2.1903484E0,3.2191677E0,1.2220688E0,7.240448E-1,1.1976318E0,3.8701477E0,2.1670685E0,0E0,4.633041E-1,6.626396E-1,1.4329205E0,1.3212113E0,2.1493217E-1,7.2048426E-1,7.554493E-1,0E0,0E0,0E0,0E0,0E0,0E0,7.545166E-1,0E0,3.9151764E-1,2.5336456E-1,4.426384E-2,1.147975E-2,2.890892E-1,3.448677E-2,4.0164566E-1,1.9448209E-1,3.6522818E-1,1.5955886E-1,5.1327802E-2,0E0,1.8636107E-1,0E0,2.925558E-1,0E0,0E0,0E0,0E0,0E0,0E0,0E0,0E0,0E0,0E0,0E0,0E0,0E0,0E0,0E0,0E0,0E0,0E0,0E0,0E0,0E0,0E0,0E0,0E0,0E0,0E0,0E0,0E0,0E0],"parents":[2147483647,0,0,1,1,2,2,3,3,4,4,5,5,6,6,7,7,8,8,9,9,10,10,11,11,12,12,13,13,14,14,15,15,16,16,18,18,19,19,20,20,21,21,22,22,23,23,24,24,31,31,33,33,34,34,35,35,36,36,37,37,38,38,39,39,40,40,41,41,42,42,43,43,45,45,47,47],"right_children":[2,4,6,8,10,12,14,16,18,20,22,24,26,28,30,32,34,-1,36,38,40,42,44,46,48,-1,-1,-1,-1,-1,-1,50,-1,52,54,56,58,60,62,64,66,68,70,72,-1,74,-1,76,-1,-1,-1,-1,-1,-1,-1,-1,-1,-1,-1,-1,-1,-1,-1,-1,-1,-1,-1,-1,-1,-1,-1,-1,-1,-1,-1,-1,-1],"split_conditions":[1.5610498E-1,-5.828019E-1,1.0695525E0,1.1487098E0,-2.0345151E-1,6.138341E-1,1.647767E0,-1.150843E0,1.7291259E0,-3.4112096E-1,2.0254034E-1,3.679845E-1,7.527468E-1,1.2779377E0,1.9278691E0,4.6996954E-1,-7.891371E-1,-5.9373684E-2,2.2495134E0,-3.2889295E-1,1.5697722E0,1.0761162E-1,3.7309006E-1,4.686889E-1,7.126678E-1,5.761079E-2,7.745579E-2,1.0216316E-1,1.2587833E-1,1.529678E-1,1.9530341E-1,-1.117044E0,-1.0041747E-1,-6.535602E-1,-4.0786356E-1,2.1131685E0,-1.1903787E0,-3.6703238E-1,-8.2889564E-2,-8.2889564E-2,1.7291259E0,7.323239E-2,2.3648554E-1,2.8994557E-1,2.3441672E-2,3.665647E-1,3.2224625E-2,5.976415E-1,5.6381166E-2,-1.4828672E-1,-1.0672152E-1,-9.9949166E-2,-6.990245E-2,-7.530402E-2,-4.8939735E-2,-2.7356395E-2,-1.0791388E-2,1.3937021E-2,9.3368645E-4,-6.2365025E-2,-4.6565756E-2,-3.9676428E-2,-1.9496074E-2,-3.9750777E-2,-2.1081556E-2,4.086576E-2,-5.4084533E-3,-2.4382072E-2,-9.590543E-3,-6.2966133E-3,5.731122E-3,3.5929304E-4,8.744282E-3,8.978392E-3,1.921525E-2,3.0638536E-2,4.386006E-2],"split_indices":[35,35,35,2,35,35,35,35,2,35,0,35,35,35,35,2,35,0,2,0,2,1,0,0,0,0,0,0,0,0,0,0,0,0,0,2,0,1,0,0,2,0,1,0,0,1,0,1,0,0,0,0,0,0,0,0,0,0,0,0,0,0,0,0,0,0,0,0,0,0,0,0,0,0,0,0,0],"split_type":[0,0,0,0,0,0,0,0,0,0,0,0,0,0,0,0,0,0,0,0,0,0,0,0,0,0,0,0,0,0,0,0,0,0,0,0,0,0,0,0,0,0,0,0,0,0,0,0,0,0,0,0,0,0,0,0,0,0,0,0,0,0,0,0,0,0,0,0,0,0,0,0,0,0,0,0,0],"sum_hessian":[1.525E3,8.51E2,6.74E2,4.17E2,4.34E2,4.35E2,2.39E2,3.65E2,5.2E1,2.2E2,2.14E2,2.44E2,1.91E2,1.42E2,9.7E1,1.64E2,2.01E2,3.2E1,2E1,1.37E2,8.3E1,1.76E2,3.8E1,1.13E2,1.31E2,6.6E1,1.25E2,7.7E1,6.5E1,4.2E1,5.5E1,1.24E2,4E1,1.16E2,8.5E1,1.6E1,4E0,1.06E2,3.1E1,8E1,3E0,1.26E2,5E1,3E1,8E0,9.1E1,2.2E1,1.07E2,2.4E1,1.06E2,1.8E1,1E2,1.6E1,7.3E1,1.2E1,1.2E1,4E0,3E0,1E0,6.9E1,3.7E1,2.7E1,4E0,6.1E1,1.9E1,2E0,1E0,1.04E2,2.2E1,3.5E1,1.5E1,1.2E1,1.8E1,6.5E1,2.6E1,7.3E1,3.4E1],"tree_param":{"num_deleted":"0","num_feature":"92","num_nodes":"77","size_leaf_vector":"1"}},{"base_weights":[3.4350847E-5,-5.450685E-1,7.6989526E-1,-9.0206873E-1,-2.3108286E-1,4.807121E-1,1.2994215E0,-1.1765764E0,-7.6404697E-1,-4.129154E-1,-7.382188E-2,2.9525325E-1,6.585467E-1,1.0960306E0,1.694141E-1,-1.323098E0,-6.894783E-1,-8.1235445E-1,-2.5901797E-1,-4.8014015E-1,-2.9755908E-1,-1.6216683E-1,4.9562987E-2,2.521675E-1,4.7570005E-2,5.268049E-1,7.23938E-1,9.857269E-2,1.273872E-1,-1.4454232E-1,-1.1413896E-1,-7.9412185E-2,-1.7240731E-1,-9.486289E-1,-7.0149165E-1,-3.3597696E-1,-2.132633E-3,-5.170503E-1,-3.4171736E-1,-3.214376E-1,2.6037017E-1,-1.8797182E-1,3.7512586E-2,1.4397094E-2,2.1352969E-1,2.0171982E-1,3.756048E-2,4.8298892E-1,6.527125E-2,6.885766E-1,8.8647835E-2,-2.2803871E-2,8.06905E-3,-9.7435765E-2,-5.8875978E-2,-7.375232E-2,-5.167048E-2,-3.726618E-2,-2.1461057E-2,-9.673931E-3,9.30072E-3,-5.2181173E-2,-6.171985E-4,-3.6543597E-2,-2.0480298E-2,-3.6597736E-2,-2.0702945E-2,3.8141377E-2,-5.1380307E-3,-2.2423351E-2,-8.003241E-3,-1.8526197E-3,1.0987684E-2,-7.9455983E-4,1.0420929E-2,1.1929981E-2,2.5855547E-2,1.5779005E-2,2.6895925E-2,4.342663E-2,6.1823912E-2,6.1098713E-2,7.950519E-2],"categories":[],"categories_nodes":[],"categories_segments":[],"categories_sizes":[],"default_left":[0,0,0,0,0,0,0,0,0,0,0,0,0,0,0,0,0,0,0,0,0,0,0,0,0,0,0,0,0,0,0,0,0,0,0,0,0,0,0,0,0,0,0,0,0,0,0,0,0,0,0,0,0,0,0,0,0,0,0,0,0,0,0,0,0,0,0,0,0,0,0,0,0,0,0,0,0,0,0,0,0,0,0],"id":2,"left_children":[1,3,5,7,9,11,13,15,17,19,21,23,25,27,-1,29,31,33,35,37,39,41,43,45,-1,47,49,-1,-1,-1,-1,-1,51,53,55,57,59,61,63,65,67,69,71,73,75,77,-1,79,-1,81,-1,-1,-1,-1,-1,-1,-1,-1,-1,-1,-1,-1,-1,-1,-1,-1,-1,-1,-1,-1,-1,-1,-1,-1,-1,-1,-1,-1,-1,-1,-1,-1,-1],"loss_changes":[6.408107E2,1.00002625E2,9.630673E1,1.4938232E1,1.3609411E1,1.3360756E1,1.6046143E1,8.936859E0,6.64505E0,1.5709457E0,2.8094482E0,1.4583073E0,1.4191132E0,1.6868134E0,0E0,6.8411255E-1,1.7027664E0,3.2021332E0,5.13294E-1,5.2838516E-1,1.2027836E0,7.799599E-1,6.1965764E-1,9.579363E-1,0E0,8.747101E-2,1.7701721E-1,0E0,0E0,0E0,0E0,0E0,1.1696185E-1,4.6335602E-1,5.843506E-1,9.068966E-3,7.200349E-2,2.570572E-1,2.9074907E-2,3.3698463E-1,1.7053875E-1,5.026245E-1,7.5029284E-2,1.8142617E-1,4.9767077E-2,3.1201887E-1,0E0,1.1372471E-1,0E0,4.808159E-1,0E0,0E0,0E0,0E0,0E0,0E0,0E0,0E0,0E0,0E0,0E0,0E0,0E0,0E0,0E0,0E0,0E0,0E0,0E0,0E0,0E0,0E0,0E0,0E0,0E0,0E0,0E0,0E0,0E0,0E0,0E0,0E0,0E0],"parents":[2147483647,0,0,1,1,2,2,3,3,4,4,5,5,6,6,7,7,8,8,9,9,10,10,11,11,12,12,13,13,15,15,16,16,17,17,18,18,19,19,20,20,21,21,22,22,23,23,25,25,26,26,32,32,33,33,34,34,35,35,36,36,37,37,38,38,39,39,40,40,41,41,42,42,43,43,44,44,45,45,47,47,49,49],"right_children":[2,4,6,8,10,12,14,16,18,20,22,24,26,28,-1,30,32,34,36,38,40,42,44,46,-1,48,50,-1,-1,-1,-1,-1,52,54,56,58,60,62,64,66,68,70,72,74,76,78,-1,80,-1,82,-1,-1,-1,-1,-1,-1,-1,-1,-1,-1,-1,-1,-1,-1,-1,-1,-1,-1,-1,-1,-1,-1,-1,-1,-1,-1,-1,-1,-1,-1,-1,-1,-1],"split_conditions":[2.3721802E-1,-5.828019E-1,1.1082656E0,-1.3075751E0,-2.0345151E-1,6.138341E-1,1.7649114E0,6.500739E-1,1.3886778E0,-3.4112096E-1,3.7969943E-2,6.6420984E-1,7.620461E-1,1.4260535E0,1.694141E-1,-6.0564913E-3,1.3886778E0,-9.371098E-1,2.1131685E0,-3.2889295E-1,1.5697722E0,1.2872519E-1,3.408214E-1,5.4595524E-1,4.7570005E-2,9.000821E-1,1.1382511E0,9.857269E-2,1.273872E-1,-1.4454232E-1,-1.1413896E-1,-7.9412185E-2,2.2495134E0,-7.1872205E-1,-5.069591E-1,1.8482875E0,2.1527777E0,1.7786134E0,-1.3061728E-1,-1.3061728E-1,1.7291259E0,5.0416786E-2,2.8994557E-1,2.9205552E-1,4.2098954E-1,4.7335255E-1,3.756048E-2,8.191798E-1,6.527125E-2,1.0090022E0,8.8647835E-2,-2.2803871E-2,8.06905E-3,-9.7435765E-2,-5.8875978E-2,-7.375232E-2,-5.167048E-2,-3.726618E-2,-2.1461057E-2,-9.673931E-3,9.30072E-3,-5.2181173E-2,-6.171985E-4,-3.6543597E-2,-2.0480298E-2,-3.6597736E-2,-2.0702945E-2,3.8141377E-2,-5.1380307E-3,-2.2423351E-2,-8.003241E-3,-1.8526197E-3,1.0987684E-2,-7.9455983E-4,1.0420929E-2,1.1929981E-2,2.5855547E-2,1.5779005E-2,2.6895925E-2,4.342663E-2,6.1823912E-2,6.1098713E-2,7.950519E-2],"split_indices":[35,35,35,35,35,35,35,2,2,35,35,0,35,35,0,2,2,35,2,0,2,0,0,1,0,0,0,0,0,0,0,0,2,0,0,2,2,2,0,0,2,1,0,1,0,0,0,1,0,1,0,0,0,0,0,0,0,0,0,0,0,0,0,0,0,0,0,0,0,0,0,0,0,0,0,0,0,0,0,0,0,0,0],"split_type":[0,0,0,0,0,0,0,0,0,0,0,0,0,0,0,0,0,0,0,0,0,0,0,0,0,0,0,0,0,0,0,0,0,0,0,0,0,0,0,0,0,0,0,0,0,0,0,0,0,0,0,0,0,0,0,0,0,0,0,0,0,0,0,0,0,0,0,0,0,0,0,0,0,0,0,0,0,0,0,0,0,0,0],"sum_hessian":[1.525E3,8.93E2,6.32E2,4.17E2,4.76E2,4.1E2,2.22E2,1.37E2,2.8E2,2.2E2,2.56E2,2.02E2,2.08E2,1.49E2,7.3E1,1.04E2,3.3E1,2.55E2,2.5E1,1.37E2,8.3E1,1.49E2,1.07E2,1.65E2,3.7E1,7.2E1,1.36E2,9.6E1,5.3E1,5.8E1,4.6E1,2.7E1,6E0,1.11E2,1.44E2,1.9E1,6E0,1.06E2,3.1E1,8E1,3E0,1.32E2,1.7E1,8.9E1,1.8E1,1.19E2,4.6E1,5.7E1,1.5E1,1.16E2,2E1,5E0,1E0,1.02E2,9E0,1.18E2,2.6E1,1.3E1,6E0,3E0,3E0,1.05E2,1E0,2.5E1,6E0,5.6E1,2.4E1,2E0,1E0,9.8E1,3.4E1,1E1,7E0,7.2E1,1.7E1,7E0,1.1E1,7.4E1,4.5E1,4.5E1,1.2E1,7.1E1,4.5E1],"tree_param":{"num_deleted":"0","num_feature":"92","num_nodes":"83","size_leaf_vector":"1"}},{"base_weights":[1.1039414E-4,-4.914584E-1,6.943638E-1,-7.8887975E-1,-1.8415508E-1,4.4953138E-1,1.2033333E0,-1.034227E0,-6.531359E-1,-3.0763915E-1,-2.0916058E-2,2.760473E-1,6.209246E-1,1.0127584E0,1.5270165E-1,-1.0900196E0,-6.726519E-1,-7.068265E-1,-2.931876E-1,-4.0827203E-1,-2.3715785E-1,-6.0156967E-2,1.3866332E-1,1.7719506E-1,3.4446514E-1,5.475381E-1,7.428017E-2,9.069183E-2,1.1488437E-1,-1.1819717E0,-7.374745E-1,-7.477512E-2,-2.377241E-1,-8.1295E-1,-5.5858123E-1,-3.7852588E-1,-3.3793397E-2,-4.1501552E-1,-4.739816E-2,-2.4437472E-1,4.1907784E-2,-1.081756E-1,3.894292E-2,8.545993E-2,2.3440368E-2,1.4908768E-1,3.32209E-2,3.1202933E-1,4.836149E-2,5.062943E-1,6.683365E-2,-1.1877128E-1,-2.8670663E-2,-7.724269E-2,-4.012368E-2,-2.7549444E-2,-4.3321378E-3,-8.4592186E-2,-5.7483714E-2,-5.740593E-2,-2.8947806E-2,-4.304992E-2,-2.4961753E-2,-1.2416656E-2,9.948771E-3,-4.391518E-2,-2.6085315E-2,-5.863385E-4,-6.5233856E-3,-2.7562022E-2,-7.0153587E-3,-1.3405526E-2,-1.6324429E-3,1.6507935E-3,1.1902395E-2,6.819083E-3,1.0627142E-2,1.2750979E-2,1.9232502E-2,2.819168E-2,4.3349054E-2,4.434925E-2,6.336834E-2],"categories":[],"categories_nodes":[],"categories_segments":[],"categories_sizes":[],"default_left":[0,0,0,0,0,0,0,0,0,0,0,0,0,0,0,0,0,0,0,0,0,0,0,0,0,0,0,0,0,0,0,0,0,0,0,0,0,0,0,0,0,0,0,0,0,0,0,0,0,0,0,0,0,0,0,0,0,0,0,0,0,0,0,0,0,0,0,0,0,0,0,0,0,0,0,0,0,0,0,0,0,0,0],"id":3,"left_children":[1,3,5,7,9,11,13,15,17,19,21,23,25,27,-1,29,31,33,35,37,39,41,43,45,47,49,-1,-1,-1,51,53,-1,55,57,59,61,63,65,67,69,-1,71,73,75,-1,77,-1,79,-1,81,-1,-1,-1,-1,-1,-1,-1,-1,-1,-1,-1,-1,-1,-1,-1,-1,-1,-1,-1,-1,-1,-1,-1,-1,-1,-1,-1,-1,-1,-1,-1,-1,-1],"loss_changes":[5.2112427E2,8.1565094E1,7.833859E1,1.4444702E1,8.882986E0,1.2584488E1,1.1099121E1,2.4945068E0,5.493889E0,1.6834526E0,1.2043914E0,1.3930626E0,1.5162735E0,8.5931396E-1,0E0,3.5694885E0,6.061487E-1,3.573372E0,8.7265825E-1,2.2854996E-1,8.1280804E-1,7.370433E-1,1.7352891E-1,3.4260464E-1,4.177904E-1,3.4916687E-1,0E0,0E0,0E0,2.0944214E-1,5.4395676E-2,0E0,2.4778455E-2,6.678238E-1,2.91996E-1,9.353399E-2,1.4484845E-1,2.5753784E-1,1.839913E-3,7.917633E-1,0E0,2.4502766E-1,8.966262E-2,2.097562E-3,0E0,4.824853E-2,0E0,2.6183033E-1,0E0,5.7499695E-1,0E0,0E0,0E0,0E0,0E0,0E0,0E0,0E0,0E0,0E0,0E0,0E0,0E0,0E0,0E0,0E0,0E0,0E0,0E0,0E0,0E0,0E0,0E0,0E0,0E0,0E0,0E0,0E0,0E0,0E0,0E0,0E0,0E0],"parents":[2147483647,0,0,1,1,2,2,3,3,4,4,5,5,6,6,7,7,8,8,9,9,10,10,11,11,12,12,13,13,15,15,16,16,17,17,18,18,19,19,20,20,21,21,22,22,23,23,24,24,25,25,29,29,30,30,32,32,33,33,34,34,35,35,36,36,37,37,38,38,39,39,41,41,42,42,43,43,45,45,47,47,49,49],"right_children":[2,4,6,8,10,12,14,16,18,20,22,24,26,28,-1,30,32,34,36,38,40,42,44,46,48,50,-1,-1,-1,52,54,-1,56,58,60,62,64,66,68,70,-1,72,74,76,-1,78,-1,80,-1,82,-1,-1,-1,-1,-1,-1,-1,-1,-1,-1,-1,-1,-1,-1,-1,-1,-1,-1,-1,-1,-1,-1,-1,-1,-1,-1,-1,-1,-1,-1,-1,-1,-1],"split_conditions":[2.3721802E-1,-5.1758444E-1,1.1482527E0,-1.1860723E0,-1.19579874E-1,6.4010453E-1,1.7649114E0,6.262606E-1,1.3386849E0,-3.4112096E-1,2.8994557E-1,4.0520984E-1,9.49557E-1,1.4260535E0,1.5270165E-1,-9.958337E-1,1.2218403E0,-7.555598E-1,1.9745284E0,1.8264303E0,1.1205493E0,1.875745E-1,4.2098954E-1,5.72896E-1,7.576584E-1,9.868711E-1,7.428017E-2,9.069183E-2,1.1488437E-1,-8.0447096E-1,-5.5638605E-1,-7.477512E-2,-1.4895296E0,9.59098E-1,-3.4872618E-1,1.6590626E0,2.1527777E0,-2.2161923E-1,-6.319725E-1,8.494449E-1,4.1907784E-2,1.2872519E-1,3.2429594E-1,3.408214E-1,2.3440368E-2,3.9760706E-1,3.32209E-2,6.8354917E-1,4.836149E-2,9.1161937E-1,6.683365E-2,-1.1877128E-1,-2.8670663E-2,-7.724269E-2,-4.012368E-2,-2.7549444E-2,-4.3321378E-3,-8.4592186E-2,-5.7483714E-2,-5.740593E-2,-2.8947806E-2,-4.304992E-2,-2.4961753E-2,-1.2416656E-2,9.948771E-3,-4.391518E-2,-2.6085315E-2,-5.863385E-4,-6.5233856E-3,-2.7562022E-2,-7.0153587E-3,-1.3405526E-2,-1.6324429E-3,1.6507935E-3,1.1902395E-2,6.819083E-3,1.0627142E-2,1.2750979E-2,1.9232502E-2,2.819168E-2,4.3349054E-2,4.434925E-2,6.336834E-2],"split_indices":[35,35,35,37,35,35,35,2,2,35,0,35,35,35,0,0,2,35,2,2,87,1,0,0,0,0,0,0,0,1,0,0,0,2,0,2,2,0,0,32,0,0,1,0,0,1,0,1,0,1,0,0,0,0,0,0,0,0,0,0,0,0,0,0,0,0,0,0,0,0,0,0,0,0,0,0,0,0,0,0,0,0,0],"split_type":[0,0,0,0,0,0,0,0,0,0,0,0,0,0,0,0,0,0,0,0,0,0,0,0,0,0,0,0,0,0,0,0,0,0,0,0,0,0,0,0,0,0,0,0,0,0,0,0,0,0,0,0,0,0,0,0,0,0,0,0,0,0,0,0,0,0,0,0,0,0,0,0,0,0,0,0,0,0,0,0,0,0,0],"sum_hessian":[1.525E3,8.93E2,6.32E2,4.53E2,4.4E2,4.28E2,2.04E2,1.59E2,2.94E2,2.5E2,1.9E2,2.14E2,2.14E2,1.31E2,7.3E1,1.36E2,2.3E1,2.55E2,3.9E1,1.01E2,1.49E2,1.53E2,3.7E1,8.9E1,1.25E2,1.37E2,7.7E1,7.8E1,5.3E1,1.06E2,3E1,1.9E1,4E0,1.46E2,1.09E2,2.9E1,1E1,9.9E1,2E0,1.48E2,1E0,1.03E2,5E1,2.5E1,1.2E1,7.7E1,1.2E1,1.04E2,2.1E1,1.06E2,3.1E1,1.05E2,1E0,2.6E1,4E0,3E0,1E0,1.26E2,2E1,1.02E2,7E0,1.9E1,1E1,6E0,4E0,8.4E1,1.5E1,1E0,1E0,1.25E2,2.3E1,8E1,2.3E1,4E1,1E1,1.6E1,9E0,5.4E1,2.3E1,8.6E1,1.8E1,7.4E1,3.2E1],"tree_param":{"num_deleted":"0","num_feature":"92","num_nodes":"83","size_leaf_vector":"1"}},{"base_weights":[1.5928956E-4,-4.5395482E-1,6.11225E-1,-7.4196076E-1,-2.047311E-1,3.6438295E-1,1.0324239E0,-8.0810374E-1,-3.3925352E-1,-3.427239E-1,-6.934595E-2,2.2774431E-1,5.1976186E-1,8.1113505E-1,1.2865729E0,-9.767847E-1,-6.2982094E-1,-4.4693547E-1,-1.23117864E-1,-4.106584E-1,-2.6029363E-1,-1.0511598E-1,1.05960906E-1,1.3164729E-1,2.9153967E-1,4.2233637E-1,5.674424E-1,7.4452244E-2,8.923324E-2,1.1329972E-1,1.4911866E-1,-1.0536877E0,-7.716585E-2,-6.760899E-1,-4.6023127E-2,-4.7650997E-2,-2.9540831E-2,-1.7900698E-1,9.15287E-2,-4.2971894E-1,-2.2747984E-2,-2.7016786E-1,3.9812397E-2,-1.555264E-1,-5.714625E-3,6.332602E-2,2.0371804E-2,9.336412E-2,2.2229184E-1,2.5863415E-1,4.2202994E-2,3.8355E-1,5.1385213E-2,5.437697E-1,7.179833E-2,-1.1666285E-1,-9.011602E-2,-7.139718E-2,-5.2841496E-2,-8.05516E-3,-2.0310467E-2,1.1478824E-2,-7.547252E-5,-4.3836918E-2,-8.4407125E-3,-3.0553225E-2,-1.5406847E-2,-1.7877951E-2,-5.3849136E-3,-4.304246E-3,5.256255E-3,2.531086E-3,7.379539E-3,7.093458E-3,1.70005E-2,1.752293E-2,2.80069E-2,2.229239E-2,3.2674626E-2,3.2428272E-2,4.592001E-2,4.9064554E-2,6.481423E-2],"categories":[],"categories_nodes":[],"categories_segments":[],"categories_sizes":[],"default_left":[0,0,0,0,0,0,0,0,0,0,0,0,0,0,0,0,0,0,0,0,0,0,0,0,0,0,0,0,0,0,0,0,0,0,0,0,0,0,0,0,0,0,0,0,0,0,0,0,0,0,0,0,0,0,0,0,0,0,0,0,0,0,0,0,0,0,0,0,0,0,0,0,0,0,0,0,0,0,0,0,0,0,0],"id":4,"left_children":[1,3,5,7,9,11,13,15,17,19,21,23,25,27,29,31,33,35,37,39,41,43,45,47,49,51,53,-1,-1,-1,-1,55,-1,57,-1,-1,-1,59,61,63,-1,65,-1,67,69,71,-1,73,75,77,-1,79,-1,81,-1,-1,-1,-1,-1,-1,-1,-1,-1,-1,-1,-1,-1,-1,-1,-1,-1,-1,-1,-1,-1,-1,-1,-1,-1,-1,-1,-1,-1],"loss_changes":[4.2373267E2,6.272554E1,6.730798E1,1.0540161E1,8.775539E0,8.6287E0,1.2454102E1,9.850189E0,1.3181353E0,1.197876E0,1.5098429E0,1.3164701E0,6.5224457E-1,4.4181824E-2,1.7670898E0,1.9790497E0,1.0384827E0,3.4006596E-2,2.6830882E-1,3.4217453E-1,8.0970716E-1,9.962733E-1,1.5798175E-1,2.915603E-1,4.5763683E-1,4.0733337E-2,5.860901E-2,0E0,0E0,0E0,0E0,1.1192322E0,0E0,3.6675262E-1,0E0,0E0,0E0,2.3972929E-2,1.0818981E-2,3.005333E-1,0E0,3.922453E-1,0E0,3.024621E-1,1.5018694E-1,1.0072008E-2,0E0,9.9677086E-2,2.1621466E-2,1.8984842E-1,0E0,7.975197E-2,0E0,3.0854416E-1,0E0,0E0,0E0,0E0,0E0,0E0,0E0,0E0,0E0,0E0,0E0,0E0,0E0,0E0,0E0,0E0,0E0,0E0,0E0,0E0,0E0,0E0,0E0,0E0,0E0,0E0,0E0,0E0,0E0],"parents":[2147483647,0,0,1,1,2,2,3,3,4,4,5,5,6,6,7,7,8,8,9,9,10,10,11,11,12,12,13,13,14,14,15,15,16,16,17,17,18,18,19,19,20,20,21,21,22,22,23,23,24,24,25,25,26,26,31,31,33,33,37,37,38,38,39,39,41,41,43,43,44,44,45,45,47,47,48,48,49,49,51,51,53,53],"right_children":[2,4,6,8,10,12,14,16,18,20,22,24,26,28,30,32,34,36,38,40,42,44,46,48,50,52,54,-1,-1,-1,-1,56,-1,58,-1,-1,-1,60,62,64,-1,66,-1,68,70,72,-1,74,76,78,-1,80,-1,82,-1,-1,-1,-1,-1,-1,-1,-1,-1,-1,-1,-1,-1,-1,-1,-1,-1,-1,-1,-1,-1,-1,-1,-1,-1,-1,-1,-1,-1],"split_conditions":[2.039533E-1,-6.0241807E-1,1.0695525E0,1.0592709E0,-2.0345151E-1,6.138341E-1,1.5435568E0,-1.1089332E0,1.7291259E0,-3.837995E-1,2.4228582E-1,3.679845E-1,7.527468E-1,1.2779377E0,1.9623952E0,3.6295432E-1,-5.903904E-1,1.50765E0,2.2495134E0,-2.4655941E-1,1.8301731E0,1.0761162E-1,4.0746492E-1,4.2098954E-1,7.126678E-1,8.285473E-1,1.1382511E0,7.4452244E-2,8.923324E-2,1.1329972E-1,1.4911866E-1,-1.4603226E0,-7.716585E-2,-6.2225693E-1,-4.6023127E-2,-4.7650997E-2,-2.9540831E-2,-8.112125E-1,-1.1903787E0,1.6590626E0,-2.2747984E-2,-1.3061728E-1,3.9812397E-2,8.743835E-2,2.3648554E-1,2.8994557E-1,2.0371804E-2,4.166342E-1,5.72896E-1,5.976415E-1,4.2202994E-2,7.620765E-1,5.1385213E-2,1.0335838E0,7.179833E-2,-1.1666285E-1,-9.011602E-2,-7.139718E-2,-5.2841496E-2,-8.05516E-3,-2.0310467E-2,1.1478824E-2,-7.547252E-5,-4.3836918E-2,-8.4407125E-3,-3.0553225E-2,-1.5406847E-2,-1.7877951E-2,-5.3849136E-3,-4.304246E-3,5.256255E-3,2.531086E-3,7.379539E-3,7.093458E-3,1.70005E-2,1.752293E-2,2.80069E-2,2.229239E-2,3.2674626E-2,3.2428272E-2,4.592001E-2,4.9064554E-2,6.481423E-2],"split_indices":[35,35,35,2,35,35,35,35,2,35,0,35,35,35,1,2,0,2,2,0,77,1,0,0,0,0,0,0,0,0,0,35,0,1,0,0,0,71,0,2,0,0,0,0,1,0,0,1,0,1,0,1,0,1,0,0,0,0,0,0,0,0,0,0,0,0,0,0,0,0,0,0,0,0,0,0,0,0,0,0,0,0,0],"split_type":[0,0,0,0,0,0,0,0,0,0,0,0,0,0,0,0,0,0,0,0,0,0,0,0,0,0,0,0,0,0,0,0,0,0,0,0,0,0,0,0,0,0,0,0,0,0,0,0,0,0,0,0,0,0,0,0,0,0,0,0,0,0,0,0,0,0,0,0,0,0,0,0,0,0,0,0,0,0,0,0,0,0,0],"sum_hessian":[1.525E3,8.75E2,6.5E2,4.05E2,4.7E2,4.11E2,2.39E2,3.47E2,5.8E1,2.32E2,2.38E2,2.2E2,1.91E2,1.3E2,1.09E2,1.76E2,1.71E2,3.8E1,2E1,1.25E2,1.07E2,1.98E2,4E1,8.9E1,1.31E2,6.6E1,1.25E2,7.7E1,5.3E1,6.6E1,4.3E1,1.25E2,5.1E1,1.32E2,3.9E1,3E1,8E0,1.6E1,4E0,1.12E2,1.3E1,1.06E2,1E0,1.31E2,6.7E1,2.9E1,1.1E1,6.4E1,2.5E1,1.07E2,2.4E1,5E1,1.6E1,1.12E2,1.3E1,6.8E1,5.7E1,1.02E2,3E1,4E0,1.2E1,3E0,1E0,1.09E2,3E0,8E1,2.6E1,1.06E2,2.5E1,4.1E1,2.6E1,7E0,2.2E1,5.1E1,1.3E1,1.6E1,9E0,7.3E1,3.4E1,3.1E1,1.9E1,7.8E1,3.4E1],"tree_param":{"num_deleted":"0","num_feature":"92","num_nodes":"83","size_leaf_vector":"1"}},{"base_weights":[3.3126646E-4,-3.995102E-1,5.6503576E-1,-6.327619E-1,-1.3946056E-1,3.6606207E-1,9.7866833E-1,-8.6800456E-1,-5.336714E-1,-2.2680922E-1,3.2070861E-3,2.4341968E-1,5.265017E-1,8.394072E-1,1.2863287E-1,-9.987448E-1,-5.5593324E-1,-5.6788486E-1,-2.5222158E-1,-2.848703E-1,-1.5524589E-1,-2.8096305E-2,1.13549404E-1,1.4477973E-1,2.9876697E-1,4.7580072E-1,6.2419873E-2,7.37129E-2,9.491129E-2,-1.0820454E0,-8.4312685E-2,-6.41417E-2,-2.0969518E-1,-6.9239265E-1,-4.79561E-1,-3.093757E-1,-3.368326E-2,-3.0336422E-1,2.6245952E-2,-1.7599373E-1,2.9062783E-2,-6.586991E-2,3.5445046E-2,7.024977E-2,1.9429453E-1,1.15247756E-1,2.4907036E-2,2.6729536E-1,4.392315E-2,4.4778663E-1,5.663246E-2,-1.0901963E-1,-3.0464722E-2,-2.9136557E-2,-1.4348198E-3,-7.234963E-2,-4.8733655E-2,-5.0005626E-2,-3.1243294E-2,-3.5033304E-2,-2.0678272E-2,-9.909125E-3,7.2849537E-3,-3.312712E-2,-1.889739E-2,3.3622023E-2,-1.1034957E-2,-1.9484699E-2,-6.3611693E-3,-4.529572E-3,8.119881E-3,-8.532093E-3,-1.3955613E-3,1.550029E-3,1.0112284E-2,5.486107E-3,9.15118E-3,1.2166437E-2,2.2879258E-2,9.2107905E-3,1.5768964E-2,2.3961306E-2,3.6880862E-2,3.8580853E-2,5.3265806E-2],"categories":[],"categories_nodes":[],"categories_segments":[],"categories_sizes":[],"default_left":[0,0,0,0,0,0,0,0,0,0,0,0,0,0,0,0,0,0,0,0,0,0,0,0,0,0,0,0,0,0,0,0,0,0,0,0,0,0,0,0,0,0,0,0,0,0,0,0,0,0,0,0,0,0,0,0,0,0,0,0,0,0,0,0,0,0,0,0,0,0,0,0,0,0,0,0,0,0,0,0,0,0,0,0,0],"id":5,"left_children":[1,3,5,7,9,11,13,15,17,19,21,23,25,27,-1,29,31,33,35,37,39,41,43,45,47,49,-1,-1,-1,51,-1,-1,53,55,57,59,61,63,65,67,69,71,73,75,77,79,-1,81,-1,83,-1,-1,-1,-1,-1,-1,-1,-1,-1,-1,-1,-1,-1,-1,-1,-1,-1,-1,-1,-1,-1,-1,-1,-1,-1,-1,-1,-1,-1,-1,-1,-1,-1,-1,-1],"loss_changes":[3.447848E2,5.4139114E1,5.1738937E1,1.0515945E1,5.284542E0,8.313141E0,7.703491E0,5.0752106E0,3.0729828E0,1.0485525E0,5.627527E-1,1.2943106E0,6.193733E-1,9.1613007E-1,0E0,3.321457E-1,1.1382008E0,2.9340591E0,4.6421313E-1,8.36504E-1,4.639957E-1,3.0715838E-1,1.1221528E-1,2.48487E-1,5.722151E-1,6.593704E-2,0E0,0E0,0E0,4.1732788E-2,0E0,0E0,1.553601E-1,4.191475E-1,4.5005035E-1,5.361533E-2,6.993161E-2,3.7154865E-1,4.181716E-1,2.1643257E-1,5.40758E-2,7.959217E-2,6.1309088E-2,3.159441E-3,2.23127E-3,5.6186557E-2,0E0,2.7694416E-1,0E0,3.2577324E-1,0E0,0E0,0E0,0E0,0E0,0E0,0E0,0E0,0E0,0E0,0E0,0E0,0E0,0E0,0E0,0E0,0E0,0E0,0E0,0E0,0E0,0E0,0E0,0E0,0E0,0E0,0E0,0E0,0E0,0E0,0E0,0E0,0E0,0E0,0E0],"parents":[2147483647,0,0,1,1,2,2,3,3,4,4,5,5,6,6,7,7,8,8,9,9,10,10,11,11,12,12,13,13,15,15,16,16,17,17,18,18,19,19,20,20,21,21,22,22,23,23,24,24,25,25,29,29,32,32,33,33,34,34,35,35,36,36,37,37,38,38,39,39,40,40,41,41,42,42,43,43,44,44,45,45,47,47,49,49],"right_children":[2,4,6,8,10,12,14,16,18,20,22,24,26,28,-1,30,32,34,36,38,40,42,44,46,48,50,-1,-1,-1,52,-1,-1,54,56,58,60,62,64,66,68,70,72,74,76,78,80,-1,82,-1,84,-1,-1,-1,-1,-1,-1,-1,-1,-1,-1,-1,-1,-1,-1,-1,-1,-1,-1,-1,-1,-1,-1,-1,-1,-1,-1,-1,-1,-1,-1,-1,-1,-1,-1,-1],"split_conditions":[2.3721802E-1,-4.9048477E-1,1.1482527E0,-1.3075751E0,-6.3694544E-2,7.0693374E-1,1.8530786E0,5.058368E-1,1.2888105E0,-2.418173E-1,2.8994557E-1,4.0520984E-1,9.9638915E-1,1.4260535E0,1.2863287E-1,-6.0564913E-3,1.2218403E0,-8.987623E-1,1.9745284E0,1.6590626E0,1.0969277E-1,1.9291653E-1,4.2098954E-1,5.210019E-1,8.1078535E-1,1.0090022E0,6.2419873E-2,7.37129E-2,9.491129E-2,-1.0736595E0,-8.4312685E-2,-6.41417E-2,1.9009317E0,-7.721762E-1,-4.0786356E-1,1.6590626E0,2.1527777E0,-1.7920667E-1,1.7291259E0,1.1946087E-2,2.0254034E-1,1.2872519E-1,3.2429594E-1,3.408214E-1,5.020722E-1,3.9760706E-1,2.4907036E-2,7.01223E-1,4.392315E-2,9.652207E-1,5.663246E-2,-1.0901963E-1,-3.0464722E-2,-2.9136557E-2,-1.4348198E-3,-7.234963E-2,-4.8733655E-2,-5.0005626E-2,-3.1243294E-2,-3.5033304E-2,-2.0678272E-2,-9.909125E-3,7.2849537E-3,-3.312712E-2,-1.889739E-2,3.3622023E-2,-1.1034957E-2,-1.9484699E-2,-6.3611693E-3,-4.529572E-3,8.119881E-3,-8.532093E-3,-1.3955613E-3,1.550029E-3,1.0112284E-2,5.486107E-3,9.15118E-3,1.2166437E-2,2.2879258E-2,9.2107905E-3,1.5768964E-2,2.3961306E-2,3.6880862E-2,3.8580853E-2,5.3265806E-2],"split_indices":[35,35,35,35,35,35,35,2,2,35,0,35,35,35,0,2,2,35,2,2,0,1,0,0,0,1,0,0,0,0,0,0,2,0,0,2,2,0,2,1,0,0,1,0,0,1,0,1,0,0,0,0,0,0,0,0,0,0,0,0,0,0,0,0,0,0,0,0,0,0,0,0,0,0,0,0,0,0,0,0,0,0,0,0,0],"split_type":[0,0,0,0,0,0,0,0,0,0,0,0,0,0,0,0,0,0,0,0,0,0,0,0,0,0,0,0,0,0,0,0,0,0,0,0,0,0,0,0,0,0,0,0,0,0,0,0,0,0,0,0,0,0,0,0,0,0,0,0,0,0,0,0,0,0,0,0,0,0,0,0,0,0,0,0,0,0,0,0,0,0,0,0,0],"sum_hessian":[1.525E3,8.93E2,6.32E2,4.7E2,4.23E2,4.28E2,2.04E2,1.37E2,3.33E2,2.62E2,1.61E2,2.44E2,1.84E2,1.43E2,6.1E1,9.5E1,4.2E1,2.96E2,3.7E1,1.43E2,1.19E2,1.26E2,3.5E1,8.9E1,1.55E2,1.25E2,5.9E1,7.8E1,6.5E1,5.8E1,3.7E1,3.3E1,9E0,1.2E2,1.76E2,2.9E1,8E0,1.35E2,8E0,1.07E2,1.2E1,7.9E1,4.7E1,2.4E1,1.1E1,7.1E1,1.8E1,1.29E2,2.6E1,1E2,2.5E1,5.7E1,1E0,6E0,3E0,1.02E2,1.8E1,1.55E2,2.1E1,1.9E1,1E1,5E0,3E0,1.07E2,2.8E1,2E0,6E0,9.1E1,1.6E1,5E0,7E0,5.7E1,2.2E1,3.7E1,1E1,1.6E1,8E0,5E0,6E0,4.8E1,2.3E1,1.04E2,2.5E1,6.1E1,3.9E1],"tree_param":{"num_deleted":"0","num_feature":"92","num_nodes":"85","size_leaf_vector":"1"}},{"base_weights":[3.5276162E-4,-3.6020735E-1,5.095793E-1,-5.9790874E-1,-1.5115206E-1,3.378444E-1,8.9934874E-1,-7.835121E-1,-5.046305E-1,-2.4465752E-1,-1.7008986E-2,2.1970895E-1,4.830492E-1,7.689265E-1,1.1625162E0,-9.012015E-1,-5.0254256E-1,-5.4188716E-1,-2.18034E-1,-3.152539E-1,-1.7530362E-1,-4.863227E-2,9.405908E-2,1.3085605E-1,2.6956183E-1,4.522246E-1,6.5294676E-2,6.9414634E-1,8.8142864E-2,9.731372E-2,1.2808049E-1,-9.674475E-1,-7.4541524E-2,-5.851702E-2,-2.0897384E-1,-5.9374607E-1,-4.094343E-1,-2.6529148E-1,2.1437076E-3,-3.347938E-1,-2.0299816E-1,-1.8158416E-1,3.6140677E-2,-9.487067E-2,1.7872838E-2,5.126438E-2,1.6574578E-1,1.09088585E-1,2.5139501E-2,2.439981E-1,4.1417744E-2,3.9712533E-1,5.330307E-2,6.1921407E-2,7.861286E-2,-1.0426922E-1,-7.764037E-2,-2.8070299E-2,-1.3272081E-3,-6.342558E-2,-4.299411E-2,-4.501704E-2,-3.3210464E-2,-3.168669E-2,-1.8140705E-2,9.275407E-3,-5.265125E-3,-3.5367023E-2,-1.8411458E-2,-2.1751842E-2,-1.0722164E-2,-2.01939E-2,-1.8840194E-3,-1.1145002E-2,-2.6177894E-3,-4.1242712E-4,7.43168E-3,2.3295449E-3,5.7547777E-3,1.1876601E-2,2.0918181E-2,9.890336E-3,1.7618602E-2,2.2401607E-2,3.5420336E-2,3.4587957E-2,4.5533445E-2],"categories":[],"categories_nodes":[],"categories_segments":[],"categories_sizes":[],"default_left":[0,0,0,0,0,0,0,0,0,0,0,0,0,0,0,0,0,0,0,0,0,0,0,0,0,0,0,0,0,0,0,0,0,0,0,0,0,0,0,0,0,0,0,0,0,0,0,0,0,0,0,0,0,0,0,0,0,0,0,0,0,0,0,0,0,0,0,0,0,0,0,0,0,0,0,0,0,0,0,0,0,0,0,0,0,0,0],"id":6,"left_children":[1,3,5,7,9,11,13,15,17,19,21,23,25,27,29,31,33,35,37,39,41,43,45,47,49,51,-1,53,-1,-1,-1,55,-1,-1,57,59,61,63,65,67,69,71,-1,73,75,77,79,81,-1,83,-1,85,-1,-1,-1,-1,-1,-1,-1,-1,-1,-1,-1,-1,-1,-1,-1,-1,-1,-1,-1,-1,-1,-1,-1,-1,-1,-1,-1,-1,-1,-1,-1,-1,-1,-1,-1],"loss_changes":[2.803675E2,4.4334915E1,4.206729E1,6.8413696E0,5.978902E0,7.4587097E0,5.730423E0,4.110367E0,2.8822632E0,1.320549E0,6.965047E-1,1.0499716E0,7.3641586E-1,4.986725E-1,1.4248657E-1,2.695923E-1,9.2076206E-1,1.4603729E0,3.543402E-1,2.3473549E-1,5.510249E-1,4.7525948E-1,1.2648684E-1,2.0872033E-1,4.7566032E-1,5.4522324E-1,0E0,9.218216E-2,0E0,0E0,0E0,1.10450745E-1,0E0,0E0,1.5068722E-1,8.951874E-1,8.045387E-2,6.365681E-2,3.9638553E-2,2.6482105E-1,8.663356E-3,4.6990108E-1,0E0,1.00720644E-1,7.9769164E-2,3.7558526E-3,7.806182E-3,3.587997E-2,0E0,2.1793938E-1,0E0,1.5572166E-1,0E0,0E0,0E0,0E0,0E0,0E0,0E0,0E0,0E0,0E0,0E0,0E0,0E0,0E0,0E0,0E0,0E0,0E0,0E0,0E0,0E0,0E0,0E0,0E0,0E0,0E0,0E0,0E0,0E0,0E0,0E0,0E0,0E0,0E0,0E0],"parents":[2147483647,0,0,1,1,2,2,3,3,4,4,5,5,6,6,7,7,8,8,9,9,10,10,11,11,12,12,13,13,14,14,15,15,16,16,17,17,18,18,19,19,20,20,21,21,22,22,23,23,24,24,25,25,27,27,31,31,34,34,35,35,36,36,37,37,38,38,39,39,40,40,41,41,43,43,44,44,45,45,46,46,47,47,49,49,51,51],"right_children":[2,4,6,8,10,12,14,16,18,20,22,24,26,28,30,32,34,36,38,40,42,44,46,48,50,52,-1,54,-1,-1,-1,56,-1,-1,58,60,62,64,66,68,70,72,-1,74,76,78,80,82,-1,84,-1,86,-1,-1,-1,-1,-1,-1,-1,-1,-1,-1,-1,-1,-1,-1,-1,-1,-1,-1,-1,-1,-1,-1,-1,-1,-1,-1,-1,-1,-1,-1,-1,-1,-1,-1,-1],"split_conditions":[2.3721802E-1,-5.828019E-1,1.1849241E0,-1.3075751E0,-1.3484101E-1,7.0693374E-1,1.8344089E0,5.058368E-1,1.2768662E0,-3.4112096E-1,2.558308E-1,4.0520984E-1,1.2282892E0,1.5929635E0,2.0808227E0,1.3638435E-1,1.1239252E0,-6.871918E-1,2.1131685E0,-2.696159E-1,1.1205493E0,1.5139975E-1,3.928905E-1,5.72896E-1,8.550322E-1,1.0090022E0,6.5294676E-2,1.3933964E0,8.8142864E-2,9.731372E-2,1.2808049E-1,-1.531235E0,-7.4541524E-2,-5.851702E-2,1.9009317E0,-6.5596634E-1,-5.069591E-1,1.6590626E0,-1.1903787E0,-2.633955E-1,-8.2889564E-2,9.422644E-1,3.6140677E-2,1.2333104E-1,2.9205552E-1,2.8994557E-1,5.020722E-1,1.2858763E0,2.5139501E-2,7.298095E-1,4.1417744E-2,9.4277906E-1,5.330307E-2,6.1921407E-2,7.861286E-2,-1.0426922E-1,-7.764037E-2,-2.8070299E-2,-1.3272081E-3,-6.342558E-2,-4.299411E-2,-4.501704E-2,-3.3210464E-2,-3.168669E-2,-1.8140705E-2,9.275407E-3,-5.265125E-3,-3.5367023E-2,-1.8411458E-2,-2.1751842E-2,-1.0722164E-2,-2.01939E-2,-1.8840194E-3,-1.1145002E-2,-2.6177894E-3,-4.1242712E-4,7.43168E-3,2.3295449E-3,5.7547777E-3,1.1876601E-2,2.0918181E-2,9.890336E-3,1.7618602E-2,2.2401607E-2,3.5420336E-2,3.4587957E-2,4.5533445E-2],"split_indices":[35,35,35,35,35,35,1,2,2,35,0,35,0,0,35,2,2,0,2,0,87,1,0,0,0,1,0,1,0,0,0,35,0,0,2,1,0,2,0,1,0,32,0,0,1,0,0,50,0,1,0,0,0,0,0,0,0,0,0,0,0,0,0,0,0,0,0,0,0,0,0,0,0,0,0,0,0,0,0,0,0,0,0,0,0,0,0],"split_type":[0,0,0,0,0,0,0,0,0,0,0,0,0,0,0,0,0,0,0,0,0,0,0,0,0,0,0,0,0,0,0,0,0,0,0,0,0,0,0,0,0,0,0,0,0,0,0,0,0,0,0,0,0,0,0,0,0,0,0,0,0,0,0,0,0,0,0,0,0,0,0,0,0,0,0,0,0,0,0,0,0,0,0,0,0,0,0],"sum_hessian":[1.525E3,8.93E2,6.32E2,4.17E2,4.76E2,4.4E2,1.92E2,1.37E2,2.8E2,2.8E2,1.96E2,2.44E2,1.96E2,1.31E2,6.1E1,9.5E1,4.2E1,2.47E2,3.3E1,1.37E2,1.43E2,1.53E2,4.3E1,8.9E1,1.55E2,1.69E2,2.7E1,8.3E1,4.8E1,2.7E1,3.4E1,6.3E1,3.2E1,3.2E1,1E1,1.75E2,7.2E1,2.7E1,6E0,1.15E2,2.2E1,1.42E2,1E0,9E1,6.3E1,2.8E1,1.5E1,7.7E1,1.2E1,1.34E2,2.1E1,1.04E2,6.5E1,5E1,3.3E1,4.2E1,2.1E1,7E0,3E0,1.38E2,3.7E1,4.4E1,2.8E1,1.5E1,1.2E1,2E0,4E0,1.01E2,1.4E1,1.8E1,4E0,1.26E2,1.6E1,7.2E1,1.8E1,4.6E1,1.7E1,6E0,2.2E1,9E0,6E0,6.9E1,8E0,1.16E2,1.8E1,5.9E1,4.5E1],"tree_param":{"num_deleted":"0","num_feature":"92","num_nodes":"87","size_leaf_vector":"1"}},{"base_weights":[4.4317066E-4,-3.1191182E-1,4.7907594E-1,-5.1257086E-1,-9.756741E-2,3.3535868E-1,8.461643E-1,-6.876472E-1,-4.2203507E-1,-1.8098217E-1,1.4594888E-2,2.279851E-1,4.639218E-1,7.297291E-1,1.068083E-1,-7.2541815E-1,-4.2948174E-1,-4.4730312E-1,-1.3407056E-1,-1.9856647E-1,-2.3835706E-2,-3.2453388E-3,1.4582287E-1,1.6451164E-1,2.8360406E-1,4.359694E-1,6.309944E-2,6.484634E-2,8.0511495E-2,-7.9846984E-1,-5.1763237E-1,-4.3762933E-2,-1.2511753E-2,-5.6279784E-1,-3.8665473E-1,-1.74383E-1,7.818079E-2,-2.0241535E-1,3.4333643E-2,-6.1428316E-2,7.312528E-2,-1.8309414E-2,8.485868E-2,1.03060445E-2,1.8310366E-2,1.348905E-1,2.699705E-2,2.5905034E-1,3.9403684E-2,3.9705706E-1,5.339237E-2,-8.752571E-2,-6.647506E-2,-5.592103E-2,-1.957523E-2,-6.1199125E-2,-3.5327975E-2,-4.014739E-2,-2.0874474E-2,-2.0033084E-2,-8.645496E-3,9.8589435E-3,-1.726903E-4,-2.2230646E-2,-8.121054E-3,-6.979043E-3,-1.0532243E-3,8.613941E-3,2.2721926E-3,-3.429072E-3,3.7453559E-3,1.1155097E-2,5.5918237E-3,1.1450085E-2,1.9740358E-2,2.3313155E-2,3.588446E-2,3.6182534E-2,4.4932753E-2],"categories":[],"categories_nodes":[],"categories_segments":[],"categories_sizes":[],"default_left":[0,0,0,0,0,0,0,0,0,0,0,0,0,0,0,0,0,0,0,0,0,0,0,0,0,0,0,0,0,0,0,0,0,0,0,0,0,0,0,0,0,0,0,0,0,0,0,0,0,0,0,0,0,0,0,0,0,0,0,0,0,0,0,0,0,0,0,0,0,0,0,0,0,0,0,0,0,0,0],"id":7,"left_children":[1,3,5,7,9,11,13,15,17,19,21,23,25,27,-1,29,31,33,35,37,39,41,43,45,47,49,-1,-1,-1,51,53,-1,-1,55,57,59,61,63,-1,65,67,69,71,-1,-1,73,-1,75,-1,77,-1,-1,-1,-1,-1,-1,-1,-1,-1,-1,-1,-1,-1,-1,-1,-1,-1,-1,-1,-1,-1,-1,-1,-1,-1,-1,-1,-1,-1],"loss_changes":[2.282915E2,3.969137E1,3.1528656E1,7.270569E0,4.194126E0,5.8990974E0,3.5874023E0,1.2583771E0,2.2466125E0,7.0543766E-1,4.4997156E-1,7.9709244E-1,6.449089E-1,1.7630768E-1,0E0,1.6965866E0,2.2807121E-3,1.8207207E0,2.446554E-1,5.5129623E-1,1.02907404E-1,2.2717866E-1,1.7796248E-2,3.1969833E-1,2.395773E-1,4.4360733E-1,0E0,0E0,0E0,4.552307E-1,4.1247368E-1,0E0,0E0,7.9387283E-1,4.2767334E-1,3.5155892E-2,8.324295E-3,5.3645325E-1,0E0,7.7769235E-3,3.2903925E-3,1.313944E-1,1.3074428E-2,0E0,0E0,9.3387604E-2,0E0,1.9051647E-1,0E0,7.130051E-2,0E0,0E0,0E0,0E0,0E0,0E0,0E0,0E0,0E0,0E0,0E0,0E0,0E0,0E0,0E0,0E0,0E0,0E0,0E0,0E0,0E0,0E0,0E0,0E0,0E0,0E0,0E0,0E0,0E0],"parents":[2147483647,0,0,1,1,2,2,3,3,4,4,5,5,6,6,7,7,8,8,9,9,10,10,11,11,12,12,13,13,15,15,16,16,17,17,18,18,19,19,20,20,21,21,22,22,23,23,24,24,25,25,29,29,30,30,33,33,34,34,35,35,36,36,37,37,39,39,40,40,41,41,42,42,45,45,47,47,49,49],"right_children":[2,4,6,8,10,12,14,16,18,20,22,24,26,28,-1,30,32,34,36,38,40,42,44,46,48,50,-1,-1,-1,52,54,-1,-1,56,58,60,62,64,-1,66,68,70,72,-1,-1,74,-1,76,-1,78,-1,-1,-1,-1,-1,-1,-1,-1,-1,-1,-1,-1,-1,-1,-1,-1,-1,-1,-1,-1,-1,-1,-1,-1,-1,-1,-1,-1,-1],"split_conditions":[2.96808E-1,-4.8230898E-1,1.2512207E0,-1.1860723E0,-6.3694544E-2,7.527468E-1,1.8723313E0,-9.121558E-1,1.50765E0,2.2650361E-2,3.845218E-1,5.0883865E-1,1.3297039E0,1.5435568E0,1.068083E-1,3.6295432E-1,-4.2059404E-1,-9.4924915E-1,2.1527777E0,1.2606441E0,1.6618022E0,3.2429594E-1,5.020722E-1,6.1894685E-1,9.000821E-1,1.1362072E0,6.309944E-2,6.484634E-2,8.0511495E-2,-1.4603226E0,1.044022E0,-4.3762933E-2,-1.2511753E-2,8.5398805E-1,-4.1242218E-1,1.9745284E0,-1.1903787E0,-5.3003956E-2,3.4333643E-2,1.2872519E-1,7.878361E-1,2.4228582E-1,-1.0106604E0,1.03060445E-2,1.8310366E-2,5.170278E-1,2.699705E-2,7.834814E-1,3.9403684E-2,1.041083E0,5.339237E-2,-8.752571E-2,-6.647506E-2,-5.592103E-2,-1.957523E-2,-6.1199125E-2,-3.5327975E-2,-4.014739E-2,-2.0874474E-2,-2.0033084E-2,-8.645496E-3,9.8589435E-3,-1.726903E-4,-2.2230646E-2,-8.121054E-3,-6.979043E-3,-1.0532243E-3,8.613941E-3,2.2721926E-3,-3.429072E-3,3.7453559E-3,1.1155097E-2,5.5918237E-3,1.1450085E-2,1.9740358E-2,2.3313155E-2,3.588446E-2,3.6182534E-2,4.4932753E-2],"split_indices":[35,35,35,37,35,35,1,0,2,0,0,35,0,35,0,2,0,35,2,87,32,1,0,0,0,1,0,0,0,35,2,0,0,2,1,2,0,1,0,0,3,0,32,0,0,1,0,1,0,0,0,0,0,0,0,0,0,0,0,0,0,0,0,0,0,0,0,0,0,0,0,0,0,0,0,0,0,0,0],"split_type":[0,0,0,0,0,0,0,0,0,0,0,0,0,0,0,0,0,0,0,0,0,0,0,0,0,0,0,0,0,0,0,0,0,0,0,0,0,0,0,0,0,0,0,0,0,0,0,0,0,0,0,0,0,0,0,0,0,0,0,0,0,0,0,0,0,0,0,0,0,0,0,0,0,0,0,0,0,0,0],"sum_hessian":[1.525E3,9.23E2,6.02E2,4.76E2,4.47E2,4.34E2,1.68E2,1.6E2,3.16E2,2.56E2,1.91E2,2.38E2,1.96E2,1.13E2,5.5E1,1.38E2,2.2E1,2.9E2,2.6E1,2.3E2,2.6E1,1.69E2,2.2E1,1.13E2,1.25E2,1.71E2,2.5E1,5.9E1,5.4E1,1E2,3.8E1,2.1E1,1E0,9.7E1,1.93E2,2.2E1,4E0,2.29E2,1E0,1.9E1,7E0,1.45E2,2.4E1,1.2E1,1E1,9E1,2.3E1,1.05E2,2E1,1.26E2,4.5E1,6E1,4E1,3.3E1,5E0,7.7E1,2E1,1.77E2,1.6E1,1.6E1,6E0,3E0,1E0,1.96E2,3.3E1,1.6E1,3E0,5E0,2E0,1.13E2,3.2E1,1.1E1,1.3E1,7E1,2E1,8.6E1,1.9E1,8E1,4.6E1],"tree_param":{"num_deleted":"0","num_feature":"92","num_nodes":"79","size_leaf_vector":"1"}},{"base_weights":[5.2779505E-4,-3.0988714E-1,3.9233968E-1,-4.927254E-1,-1.4312604E-1,2.2471751E-1,6.7281365E-1,-5.3996515E-1,-2.3185103E-1,-2.3506282E-1,-6.2130578E-2,1.2196387E-1,3.185502E-1,5.4206556E-1,8.727437E-1,-6.6198313E-1,-4.2313963E-1,-2.9678798E-1,-7.415031E-2,-2.4693406E-1,5.61797E-2,-8.550223E-2,5.6280956E-2,9.937403E-2,2.4482412E-2,2.6429582E-1,3.671548E-1,4.863764E-2,6.097923E-2,7.952708E-2,1.13512434E-1,-7.348374E-1,-5.5415225E-1,-4.556754E-1,-2.8683648E-1,-3.138484E-2,-1.9367427E-2,-1.1528163E-1,7.229996E-2,-2.6915216E-1,-1.445472E-1,2.983523E-2,-5.5634227E-2,-1.13256864E-1,-4.330266E-3,3.5317443E-2,1.3572033E-2,8.1155404E-2,2.0471083E-1,2.4036783E-1,3.5756066E-2,3.4533325E-1,4.6435125E-2,-9.4249755E-2,-6.677887E-2,-5.9138697E-2,-4.296344E-2,-4.6995908E-2,-2.4284597E-2,-2.9696872E-2,-1.2900317E-2,-1.3164855E-2,-5.294473E-3,9.119523E-3,-1.6405583E-4,-2.9643087E-2,-1.6392699E-2,-1.6594796E-2,-7.6931873E-3,2.6628359E-3,-9.386494E-3,-1.3429703E-2,-7.019348E-3,-2.2295306E-3,3.7484528E-3,-4.1169362E-4,4.423312E-3,5.865342E-3,1.2368567E-2,2.4530457E-2,1.612947E-2,2.1383844E-2,3.114419E-2,2.946356E-2,4.0470786E-2],"categories":[],"categories_nodes":[],"categories_segments":[],"categories_sizes":[],"default_left":[0,0,0,0,0,0,0,0,0,0,0,0,0,0,0,0,0,0,0,0,0,0,0,0,0,0,0,0,0,0,0,0,0,0,0,0,0,0,0,0,0,0,0,0,0,0,0,0,0,0,0,0,0,0,0,0,0,0,0,0,0,0,0,0,0,0,0,0,0,0,0,0,0,0,0,0,0,0,0,0,0,0,0,0,0],"id":8,"left_children":[1,3,5,7,9,11,13,15,17,19,21,23,25,27,29,31,33,35,37,39,41,43,45,47,-1,49,51,-1,-1,-1,-1,53,55,57,59,-1,-1,61,63,65,67,-1,69,71,73,75,-1,77,79,81,-1,83,-1,-1,-1,-1,-1,-1,-1,-1,-1,-1,-1,-1,-1,-1,-1,-1,-1,-1,-1,-1,-1,-1,-1,-1,-1,-1,-1,-1,-1,-1,-1,-1,-1],"loss_changes":[1.857202E2,2.5907227E1,3.1583023E1,4.878212E0,3.313964E0,4.0492096E0,6.1143265E0,4.609291E0,6.3339186E-1,7.3647213E-1,6.662381E-1,5.418513E-1,4.8574257E-1,2.8801727E-1,1.0893478E0,8.968735E-1,6.5867615E-1,1.837802E-2,1.2880872E-1,4.1833782E-1,2.60303E-1,4.5008934E-1,6.1819836E-2,3.1730855E-1,0E0,1.5507126E-1,8.14352E-2,0E0,0E0,0E0,0E0,7.072525E-1,7.510185E-2,3.1754875E-1,2.0860672E-2,0E0,0E0,9.3541E-3,7.1352404E-3,4.2215347E-1,4.2220056E-2,0E0,2.4514167E-2,1.2557626E-1,3.9898362E-2,1.1784382E-2,0E0,1.3629776E-1,4.4943094E-3,1.0121584E-1,0E0,1.727438E-1,0E0,0E0,0E0,0E0,0E0,0E0,0E0,0E0,0E0,0E0,0E0,0E0,0E0,0E0,0E0,0E0,0E0,0E0,0E0,0E0,0E0,0E0,0E0,0E0,0E0,0E0,0E0,0E0,0E0,0E0,0E0,0E0,0E0],"parents":[2147483647,0,0,1,1,2,2,3,3,4,4,5,5,6,6,7,7,8,8,9,9,10,10,11,11,12,12,13,13,14,14,15,15,16,16,17,17,18,18,19,19,20,20,21,21,22,22,23,23,25,25,26,26,31,31,32,32,33,33,34,34,37,37,38,38,39,39,40,40,42,42,43,43,44,44,45,45,47,47,48,48,49,49,51,51],"right_children":[2,4,6,8,10,12,14,16,18,20,22,24,26,28,30,32,34,36,38,40,42,44,46,48,-1,50,52,-1,-1,-1,-1,54,56,58,60,-1,-1,62,64,66,68,-1,70,72,74,76,-1,78,80,82,-1,84,-1,-1,-1,-1,-1,-1,-1,-1,-1,-1,-1,-1,-1,-1,-1,-1,-1,-1,-1,-1,-1,-1,-1,-1,-1,-1,-1,-1,-1,-1,-1,-1,-1],"split_conditions":[1.5610498E-1,-6.0241807E-1,1.0308231E0,1.0288006E0,-2.418173E-1,5.391151E-1,1.647767E0,-1.1285733E0,1.7786134E0,1.6590626E0,2.0254034E-1,6.1894685E-1,7.527468E-1,1.2779377E0,2.2196033E0,1.5883885E-1,-5.66525E-1,1.5466769E0,2.2495134E0,-2.2161923E-1,1.7291259E0,1.0761162E-1,3.928905E-1,5.4595524E-1,2.4482412E-2,9.000821E-1,1.0953338E0,4.863764E-2,6.097923E-2,7.952708E-2,1.13512434E-1,-1.7687472E0,7.7006257E-1,-5.3868467E-1,-3.1458765E-1,-3.138484E-2,-1.9367427E-2,2.1131685E0,-1.1903787E0,-2.633955E-1,1.4458239E0,2.983523E-2,-3.8916498E-1,-2.8327456E-2,2.3648554E-1,2.4228582E-1,1.3572033E-2,4.409084E-1,-1.0272533E0,7.620765E-1,3.5756066E-2,9.3234575E-1,4.6435125E-2,-9.4249755E-2,-6.677887E-2,-5.9138697E-2,-4.296344E-2,-4.6995908E-2,-2.4284597E-2,-2.9696872E-2,-1.2900317E-2,-1.3164855E-2,-5.294473E-3,9.119523E-3,-1.6405583E-4,-2.9643087E-2,-1.6392699E-2,-1.6594796E-2,-7.6931873E-3,2.6628359E-3,-9.386494E-3,-1.3429703E-2,-7.019348E-3,-2.2295306E-3,3.7484528E-3,-4.1169362E-4,4.423312E-3,5.865342E-3,1.2368567E-2,2.4530457E-2,1.612947E-2,2.1383844E-2,3.114419E-2,2.946356E-2,4.0470786E-2],"split_indices":[35,35,35,2,35,35,35,35,2,2,0,0,35,35,35,2,0,2,2,0,2,1,0,1,0,0,0,0,0,0,0,35,2,1,0,0,0,2,0,1,32,0,0,0,1,0,0,0,32,1,0,1,0,0,0,0,0,0,0,0,0,0,0,0,0,0,0,0,0,0,0,0,0,0,0,0,0,0,0,0,0,0,0,0,0],"split_type":[0,0,0,0,0,0,0,0,0,0,0,0,0,0,0,0,0,0,0,0,0,0,0,0,0,0,0,0,0,0,0,0,0,0,0,0,0,0,0,0,0,0,0,0,0,0,0,0,0,0,0,0,0,0,0,0,0,0,0,0,0,0,0,0,0,0,0,0,0,0,0,0,0,0,0,0,0,0,0,0,0,0,0,0,0],"sum_hessian":[1.525E3,8.51E2,6.74E2,4.05E2,4.46E2,4.23E2,2.51E2,3.42E2,6.3E1,2.08E2,2.38E2,2.03E2,2.2E2,1.54E2,9.7E1,1.65E2,1.77E2,4.4E1,1.9E1,2E2,8E0,1.99E2,3.9E1,1.73E2,3E1,1.07E2,1.13E2,8.9E1,6.5E1,7.8E1,1.9E1,9.5E1,7E1,1.41E2,3.6E1,3.6E1,8E0,1.5E1,4E0,1.63E2,3.7E1,2E0,6E0,1.48E2,5.1E1,3.2E1,7E0,1.49E2,2.4E1,8.8E1,1.9E1,9.6E1,1.7E1,2E1,7.5E1,5.1E1,1.9E1,1.31E2,1E1,3.3E1,3E0,1.1E1,4E0,3E0,1E0,1.28E2,3.5E1,2.7E1,1E1,2E0,4E0,9.8E1,5E1,3.6E1,1.5E1,6E0,2.6E1,9.9E1,5E1,1E1,1.4E1,6.7E1,2.1E1,5.5E1,4.1E1],"tree_param":{"num_deleted":"0","num_feature":"92","num_nodes":"85","size_leaf_vector":"1"}},{"base_weights":[5.437328E-4,-2.5370988E-1,3.901454E-1,-4.445299E-1,-1.0394761E-1,2.758512E-1,6.969773E-1,-4.8991814E-1,-2.234738E-1,-1.8416269E-1,-4.695782E-3,1.8650389E-1,3.7968448E-1,6.048191E-1,8.931585E-1,-5.9486896E-1,-3.7214628E-1,-2.792775E-1,-6.721047E-2,-2.3425531E-1,-1.2837969E-1,-5.6862082E-2,3.5650115E-2,1.6525541E-1,3.0563056E-2,3.3883524E-1,5.3767413E-2,5.338336E-2,6.5774366E-2,4.037947E-2,9.158031E-2,-6.15688E-1,-3.779192E-2,-3.9847597E-1,-2.4389079E-1,-2.9830549E-2,-1.9099219E-2,-1.0490718E-1,6.686106E-2,-2.533268E-1,-1.589616E-1,-1.3793243E-1,1.5330969E-1,-6.961369E-2,4.457607E-2,1.756974E-2,1.2057147E-1,1.4272091E-1,2.6371694E-1,2.9489323E-1,3.6541976E-2,-6.824859E-2,-5.05871E-2,-4.079025E-2,-1.7187366E-2,-2.5331154E-2,-1.1932793E-2,-1.1958076E-2,-4.870915E-3,8.435559E-3,-1.5585311E-4,-1.756554E-2,-2.8528435E-2,-1.7489789E-2,-8.729844E-3,-1.6120074E-2,-3.9750566E-3,2.7846215E-2,-2.2945998E-3,-9.602803E-3,-2.6591E-3,1.1032749E-3,8.933018E-3,2.99646E-4,6.9665806E-3,9.535947E-3,1.7611226E-2,1.2231812E-2,1.9966122E-2,2.2586726E-2,3.4332436E-2,2.353946E-2,3.604284E-2],"categories":[],"categories_nodes":[],"categories_segments":[],"categories_sizes":[],"default_left":[0,0,0,0,0,0,0,0,0,0,0,0,0,0,0,0,0,0,0,0,0,0,0,0,0,0,0,0,0,0,0,0,0,0,0,0,0,0,0,0,0,0,0,0,0,0,0,0,0,0,0,0,0,0,0,0,0,0,0,0,0,0,0,0,0,0,0,0,0,0,0,0,0,0,0,0,0,0,0,0,0,0,0],"id":9,"left_children":[1,3,5,7,9,11,13,15,17,19,21,23,25,27,29,31,33,35,37,39,41,43,45,47,-1,49,-1,-1,-1,-1,-1,51,-1,53,55,-1,-1,57,59,61,63,65,67,69,71,73,75,77,79,81,-1,-1,-1,-1,-1,-1,-1,-1,-1,-1,-1,-1,-1,-1,-1,-1,-1,-1,-1,-1,-1,-1,-1,-1,-1,-1,-1,-1,-1,-1,-1,-1,-1],"loss_changes":[1.5126094E2,2.6359524E1,2.0954407E1,3.964058E0,4.1311502E0,4.020439E0,2.4067917E0,3.9316635E0,6.0035443E-1,7.718954E-1,4.924214E-1,5.5446434E-1,1.1279297E0,7.715988E-2,1.8427658E-1,5.622597E-1,4.4649887E-1,3.0380249E-2,1.08095296E-1,1.7512512E-1,3.9249158E-1,1.3503996E-1,2.0055573E-1,4.172125E-1,0E0,8.382225E-2,0E0,0E0,0E0,0E0,0E0,8.210983E-1,0E0,2.1185303E-1,4.9772263E-3,0E0,0E0,7.3693395E-3,6.116314E-3,2.4278641E-1,2.2419214E-2,2.9971862E-1,1.1668373E-1,1.0086039E-1,1.7028859E-2,8.3304405E-2,1.5412778E-2,1.7191195E-1,3.393984E-2,1.7640686E-1,0E0,0E0,0E0,0E0,0E0,0E0,0E0,0E0,0E0,0E0,0E0,0E0,0E0,0E0,0E0,0E0,0E0,0E0,0E0,0E0,0E0,0E0,0E0,0E0,0E0,0E0,0E0,0E0,0E0,0E0,0E0,0E0,0E0],"parents":[2147483647,0,0,1,1,2,2,3,3,4,4,5,5,6,6,7,7,8,8,9,9,10,10,11,11,12,12,13,13,14,14,15,15,16,16,17,17,18,18,19,19,20,20,21,21,22,22,23,23,25,25,31,31,33,33,34,34,37,37,38,38,39,39,40,40,41,41,42,42,43,43,44,44,45,45,46,46,47,47,48,48,49,49],"right_children":[2,4,6,8,10,12,14,16,18,20,22,24,26,28,30,32,34,36,38,40,42,44,46,48,-1,50,-1,-1,-1,-1,-1,52,-1,54,56,-1,-1,58,60,62,64,66,68,70,72,74,76,78,80,82,-1,-1,-1,-1,-1,-1,-1,-1,-1,-1,-1,-1,-1,-1,-1,-1,-1,-1,-1,-1,-1,-1,-1,-1,-1,-1,-1,-1,-1,-1,-1,-1,-1],"split_conditions":[2.96808E-1,-6.0241807E-1,1.29027E0,9.158619E-1,-1.4187135E-1,7.527468E-1,1.9878656E0,-1.0780115E0,1.7786134E0,-3.4112096E-1,4.4346564E-2,8.005126E-1,1.3297039E0,1.5435568E0,1.7512958E0,-9.6131843E-1,-5.5638605E-1,1.399496E0,2.2495134E0,-3.2889295E-1,1.5697722E0,5.913426E-1,3.845218E-1,7.114755E-1,3.0563056E-2,9.205232E-1,5.3767413E-2,5.338336E-2,6.5774366E-2,4.037947E-2,9.158031E-2,2.3169579E-1,-3.779192E-2,-4.9833268E-1,-3.1458765E-1,-2.9830549E-2,-1.9099219E-2,2.1131685E0,-1.1903787E0,-5.7488954E-1,-1.4018536E-1,-2.8327456E-2,1.7291259E0,5.0416786E-2,5.0243634E-1,3.2429594E-1,5.542759E-1,6.1894685E-1,8.3959305E-1,9.868711E-1,3.6541976E-2,-6.824859E-2,-5.05871E-2,-4.079025E-2,-1.7187366E-2,-2.5331154E-2,-1.1932793E-2,-1.1958076E-2,-4.870915E-3,8.435559E-3,-1.5585311E-4,-1.756554E-2,-2.8528435E-2,-1.7489789E-2,-8.729844E-3,-1.6120074E-2,-3.9750566E-3,2.7846215E-2,-2.2945998E-3,-9.602803E-3,-2.6591E-3,1.1032749E-3,8.933018E-3,2.99646E-4,6.9665806E-3,9.535947E-3,1.7611226E-2,1.2231812E-2,1.9966122E-2,2.2586726E-2,3.4332436E-2,2.353946E-2,3.604284E-2],"split_indices":[35,35,1,2,35,35,35,35,2,35,35,0,0,35,1,0,0,2,2,0,2,32,0,1,0,1,0,0,0,0,0,2,0,1,0,0,0,2,0,32,0,0,2,1,50,1,0,0,1,0,0,0,0,0,0,0,0,0,0,0,0,0,0,0,0,0,0,0,0,0,0,0,0,0,0,0,0,0,0,0,0,0,0],"split_type":[0,0,0,0,0,0,0,0,0,0,0,0,0,0,0,0,0,0,0,0,0,0,0,0,0,0,0,0,0,0,0,0,0,0,0,0,0,0,0,0,0,0,0,0,0,0,0,0,0,0,0,0,0,0,0,0,0,0,0,0,0,0,0,0,0,0,0,0,0,0,0,0,0,0,0,0,0,0,0,0,0,0,0],"sum_hessian":[1.525E3,9.23E2,6.02E2,4.05E2,5.18E2,4.4E2,1.62E2,3.35E2,7E1,2.86E2,2.32E2,2.38E2,2.02E2,1.13E2,4.9E1,1.75E2,1.6E2,5.1E1,1.9E1,1.49E2,1.37E2,1.01E2,1.31E2,2.04E2,3.4E1,1.63E2,3.9E1,5.3E1,6E1,3E0,4.6E1,1.58E2,1.7E1,1.31E2,2.9E1,4E1,1.1E1,1.5E1,4E0,1.17E2,3.2E1,1.33E2,4E0,9E1,1.1E1,1.09E2,2.2E1,1.68E2,3.6E1,6.6E1,9.7E1,9.5E1,6.3E1,1.25E2,6E0,2.6E1,3E0,1.1E1,4E0,3E0,1E0,3.6E1,8.1E1,2.5E1,7E0,1.07E2,2.6E1,2E0,2E0,5.5E1,3.5E1,7E0,4E0,8.6E1,2.3E1,1.7E1,5E0,1.26E2,4.2E1,2.7E1,9E0,3.7E1,2.9E1],"tree_param":{"num_deleted":"0","num_feature":"92","num_nodes":"83","size_leaf_vector":"1"}},{"base_weights":[6.0513755E-4,-2.2871122E-1,3.5199437E-1,-3.8391015E-1,-7.8628354E-2,2.4887735E-1,6.288202E-1,-5.235138E-1,-3.2192525E-1,-1.3987885E-1,1.1104822E-2,1.7051138E-1,3.450742E-1,5.4538244E-1,8.0648184E-1,-5.924264E-1,-2.9529807E-1,-3.4485602E-1,-1.5450822E-1,-1.9293582E-1,-1.0282273E-1,-4.989026E-3,9.484994E-2,1.5077004E-1,2.8093282E-2,3.0740243E-1,4.852509E-2,4.8143886E-2,5.9304755E-2,3.7351005E-2,8.2617134E-2,-6.670335E-1,-4.9354825E-2,-3.3504076E-2,-5.3992018E-2,-4.009281E-1,-2.7403152E-1,-1.8791547E-1,-1.8559268E-2,-2.0375183E-1,-2.4154782E-2,-1.0702442E-1,2.9732887E-2,-2.7323674E-2,3.895881E-2,6.702293E-2,1.39351515E-2,1.3323596E-1,2.6467744E-1,2.8417218E-1,3.4806293E-2,-8.455334E-2,-5.7675224E-2,-8.6236885E-3,5.361617E-3,-4.3680355E-2,-3.1072384E-2,-2.8657673E-2,-1.429405E-2,-2.0627094E-2,-1.1808807E-2,-5.3130966E-3,6.8294443E-3,-2.2232966E-2,-1.3732361E-2,-7.6518357E-3,8.862396E-3,-1.209523E-2,7.099243E-4,-4.3237866E-3,1.7519736E-3,2.1176E-3,8.098092E-3,4.6374607E-3,7.6162308E-3,1.15810875E-2,1.77619E-2,2.0809712E-2,3.1806137E-2,2.5394524E-2,3.3367794E-2],"categories":[],"categories_nodes":[],"categories_segments":[],"categories_sizes":[],"default_left":[0,0,0,0,0,0,0,0,0,0,0,0,0,0,0,0,0,0,0,0,0,0,0,0,0,0,0,0,0,0,0,0,0,0,0,0,0,0,0,0,0,0,0,0,0,0,0,0,0,0,0,0,0,0,0,0,0,0,0,0,0,0,0,0,0,0,0,0,0,0,0,0,0,0,0,0,0,0,0,0,0],"id":10,"left_children":[1,3,5,7,9,11,13,15,17,19,21,23,25,27,29,31,33,35,37,39,41,43,45,47,-1,49,-1,-1,-1,-1,-1,51,-1,-1,53,55,57,59,61,63,65,67,-1,69,71,73,-1,75,77,79,-1,-1,-1,-1,-1,-1,-1,-1,-1,-1,-1,-1,-1,-1,-1,-1,-1,-1,-1,-1,-1,-1,-1,-1,-1,-1,-1,-1,-1,-1,-1],"loss_changes":[1.2304452E2,2.1492271E1,1.7056404E1,3.7600708E0,2.5902646E0,3.265667E0,1.9764175E0,1.9953766E0,1.1636772E0,5.306659E-1,2.5924718E-1,4.9171162E-1,8.9113045E-1,6.1943054E-2,1.1766815E-1,4.4537354E-1,3.0797577E-1,9.9414825E-1,1.7817974E-1,2.0318937E-1,3.126005E-1,1.6007714E-1,2.904898E-2,3.8416004E-1,0E0,5.0330162E-2,0E0,0E0,0E0,0E0,0E0,4.3090248E-1,0E0,0E0,2.5442563E-2,3.594017E-1,1.6625118E-1,1.6656876E-2,3.0652672E-2,1.015172E-1,5.402534E-2,2.6471567E-1,0E0,7.783134E-2,3.9385058E-2,4.3098629E-4,0E0,1.2173128E-1,1.5365362E-2,7.388306E-2,0E0,0E0,0E0,0E0,0E0,0E0,0E0,0E0,0E0,0E0,0E0,0E0,0E0,0E0,0E0,0E0,0E0,0E0,0E0,0E0,0E0,0E0,0E0,0E0,0E0,0E0,0E0,0E0,0E0,0E0,0E0],"parents":[2147483647,0,0,1,1,2,2,3,3,4,4,5,5,6,6,7,7,8,8,9,9,10,10,11,11,12,12,13,13,14,14,15,15,16,16,17,17,18,18,19,19,20,20,21,21,22,22,23,23,25,25,31,31,34,34,35,35,36,36,37,37,38,38,39,39,40,40,41,41,43,43,44,44,45,45,47,47,48,48,49,49],"right_children":[2,4,6,8,10,12,14,16,18,20,22,24,26,28,30,32,34,36,38,40,42,44,46,48,-1,50,-1,-1,-1,-1,-1,52,-1,-1,54,56,58,60,62,64,66,68,-1,70,72,74,-1,76,78,80,-1,-1,-1,-1,-1,-1,-1,-1,-1,-1,-1,-1,-1,-1,-1,-1,-1,-1,-1,-1,-1,-1,-1,-1,-1,-1,-1,-1,-1,-1,-1],"split_conditions":[2.96808E-1,-5.1758444E-1,1.29027E0,-1.3075751E0,-6.3694544E-2,7.620461E-1,1.9878656E0,6.500739E-1,1.2403126E0,-3.248165E-1,3.310456E-1,8.005126E-1,1.3297039E0,1.5435568E0,1.7512958E0,-2.9954687E-2,1.6590626E0,-8.081977E-1,1.9745284E0,1.6131868E0,1.2606441E0,2.3648554E-1,5.020722E-1,7.620765E-1,2.8093282E-2,1.0935134E0,4.852509E-2,4.8143886E-2,5.9304755E-2,3.7351005E-2,8.2617134E-2,-1.7687472E0,-4.9354825E-2,-3.3504076E-2,-1.5255969E0,-8.218692E-1,-4.1242218E-1,1.7291259E0,2.3550131E0,-2.696159E-1,1.0640681E0,5.2865442E-2,2.9732887E-2,2.081661E-1,3.5409924E-1,3.845218E-1,1.39351515E-2,6.1894685E-1,8.3959305E-1,1.0532706E0,3.4806293E-2,-8.455334E-2,-5.7675224E-2,-8.6236885E-3,5.361617E-3,-4.3680355E-2,-3.1072384E-2,-2.8657673E-2,-1.429405E-2,-2.0627094E-2,-1.1808807E-2,-5.3130966E-3,6.8294443E-3,-2.2232966E-2,-1.3732361E-2,-7.6518357E-3,8.862396E-3,-1.209523E-2,7.099243E-4,-4.3237866E-3,1.7519736E-3,2.1176E-3,8.098092E-3,4.6374607E-3,7.6162308E-3,1.15810875E-2,1.77619E-2,2.0809712E-2,3.1806137E-2,2.5394524E-2,3.3367794E-2],"split_indices":[35,35,1,35,35,35,35,2,2,35,0,0,0,35,1,2,2,35,2,2,87,1,0,1,0,1,0,0,0,0,0,35,0,0,1,0,1,2,2,0,26,0,0,0,1,0,0,0,1,0,0,0,0,0,0,0,0,0,0,0,0,0,0,0,0,0,0,0,0,0,0,0,0,0,0,0,0,0,0,0,0],"split_type":[0,0,0,0,0,0,0,0,0,0,0,0,0,0,0,0,0,0,0,0,0,0,0,0,0,0,0,0,0,0,0,0,0,0,0,0,0,0,0,0,0,0,0,0,0,0,0,0,0,0,0,0,0,0,0,0,0,0,0,0,0,0,0,0,0,0,0,0,0,0,0,0,0,0,0,0,0,0,0,0,0],"sum_hessian":[1.525E3,9.23E2,6.02E2,4.53E2,4.7E2,4.4E2,1.62E2,1.37E2,3.16E2,2.79E2,1.91E2,2.44E2,1.96E2,1.13E2,4.9E1,1.04E2,3.3E1,2.77E2,3.9E1,1.13E2,1.66E2,1.61E2,3E1,2.09E2,3.5E1,1.57E2,3.9E1,5.3E1,6E1,3E0,4.6E1,5.6E1,4.8E1,2.8E1,5E0,1.52E2,1.25E2,3.1E1,8E0,1.06E2,7E0,1.65E2,1E0,1.07E2,5.4E1,2E1,1E1,1.83E2,2.6E1,1.05E2,5.2E1,1.6E1,4E1,4E0,1E0,1.06E2,4.6E1,1.13E2,1.2E1,2.3E1,8E0,6E0,2E0,8.1E1,2.5E1,5E0,2E0,1.47E2,1.8E1,7.9E1,2.8E1,3.9E1,1.5E1,8E0,1.2E1,1.34E2,4.9E1,1.5E1,1.1E1,6.9E1,3.6E1],"tree_param":{"num_deleted":"0","num_feature":"92","num_nodes":"81","size_leaf_vector":"1"}},{"base_weights":[6.232743E-4,-2.0622921E-1,3.1759024E-1,-3.6180827E-1,-8.4126465E-2,2.2456136E-1,5.673334E-1,-4.0531844E-1,-2.0227972E-1,-1.6523711E-1,-1.7983926E-2,1.5195493E-1,3.089376E-1,5.2249545E-1,8.618E-2,-5.0695455E-1,-3.149824E-1,-2.458055E-1,-6.669246E-2,-1.73417E-1,5.761972E-2,-5.8034074E-2,2.9484307E-2,1.0710461E-1,1.9132781E-1,2.755901E-1,4.3793898E-2,4.3418653E-2,5.691568E-2,-5.586128E-1,-4.379652E-2,-3.4398788E-1,-2.1770394E-1,-2.6731002E-1,-1.8966854E-2,-9.6282825E-2,5.9089415E-2,-1.910623E-1,-8.155556E-2,2.470329E-2,-3.1788748E-2,-7.12727E-2,2.1618564E-2,1.4542713E-2,9.9662185E-2,8.6603455E-2,1.7662456E-2,1.7450546E-1,2.6712982E-2,3.2502532E-2,2.5702208E-1,-7.659537E-2,-4.9579114E-2,-3.600295E-2,-1.9700019E-2,-2.2799306E-2,-1.1797042E-2,-2.7364021E-2,-8.536375E-3,-1.086583E-2,-3.9899824E-3,7.327379E-3,1.17594376E-4,-2.1138968E-2,-1.0239147E-2,-8.892319E-3,3.40411E-3,-7.695768E-3,2.1327375E-3,-3.0426444E-3,-9.84636E-3,-2.469908E-4,7.703077E-3,5.405463E-4,7.20516E-3,7.7404925E-3,1.498236E-2,6.9332197E-3,1.3683587E-2,1.61439E-2,2.8379967E-2,2.006072E-2,2.8449407E-2],"categories":[],"categories_nodes":[],"categories_segments":[],"categories_sizes":[],"default_left":[0,0,0,0,0,0,0,0,0,0,0,0,0,0,0,0,0,0,0,0,0,0,0,0,0,0,0,0,0,0,0,0,0,0,0,0,0,0,0,0,0,0,0,0,0,0,0,0,0,0,0,0,0,0,0,0,0,0,0,0,0,0,0,0,0,0,0,0,0,0,0,0,0,0,0,0,0,0,0,0,0,0,0],"id":11,"left_children":[1,3,5,7,9,11,13,15,17,19,21,23,25,27,-1,29,31,33,35,37,39,41,43,45,47,49,-1,-1,-1,51,-1,53,55,57,-1,59,61,63,65,-1,67,69,71,73,75,77,-1,79,-1,-1,81,-1,-1,-1,-1,-1,-1,-1,-1,-1,-1,-1,-1,-1,-1,-1,-1,-1,-1,-1,-1,-1,-1,-1,-1,-1,-1,-1,-1,-1,-1,-1,-1],"loss_changes":[1.0011829E2,1.752245E1,1.38822975E1,2.7361069E0,2.7813926E0,2.6547337E0,1.7018433E0,2.7600021E0,5.0884366E-1,4.3473864E-1,5.4732955E-1,4.0155458E-1,7.525883E-1,3.4624863E-1,0E0,2.8280258E-1,4.0760994E-1,3.0182362E-2,9.1293715E-2,3.491254E-1,1.6026916E-1,1.6604155E-1,1.369618E-1,1.4718091E-1,1.1405611E-1,6.6999435E-2,0E0,0E0,0E0,6.7531204E-1,0E0,2.3560333E-1,1.6202807E-2,2.962184E-2,0E0,8.92213E-3,4.0211678E-3,3.1721497E-1,3.5390615E-2,0E0,1.8435696E-2,1.4583075E-1,3.0890554E-2,5.7412557E-2,1.4081389E-2,6.8594694E-2,0E0,1.0556102E-1,0E0,0E0,1.3510704E-1,0E0,0E0,0E0,0E0,0E0,0E0,0E0,0E0,0E0,0E0,0E0,0E0,0E0,0E0,0E0,0E0,0E0,0E0,0E0,0E0,0E0,0E0,0E0,0E0,0E0,0E0,0E0,0E0,0E0,0E0,0E0,0E0],"parents":[2147483647,0,0,1,1,2,2,3,3,4,4,5,5,6,6,7,7,8,8,9,9,10,10,11,11,12,12,13,13,15,15,16,16,17,17,18,18,19,19,20,20,21,21,22,22,23,23,24,24,25,25,29,29,31,31,32,32,33,33,35,35,36,36,37,37,38,38,40,40,41,41,42,42,43,43,44,44,45,45,47,47,50,50],"right_children":[2,4,6,8,10,12,14,16,18,20,22,24,26,28,-1,30,32,34,36,38,40,42,44,46,48,50,-1,-1,-1,52,-1,54,56,58,-1,60,62,64,66,-1,68,70,72,74,76,78,-1,80,-1,-1,82,-1,-1,-1,-1,-1,-1,-1,-1,-1,-1,-1,-1,-1,-1,-1,-1,-1,-1,-1,-1,-1,-1,-1,-1,-1,-1,-1,-1,-1,-1,-1,-1],"split_conditions":[2.96808E-1,-6.0241807E-1,1.29027E0,8.291907E-1,-2.0345151E-1,7.527468E-1,2.2196033E0,-1.150843E0,1.6800524E0,1.6590626E0,4.4346564E-2,5.0883865E-1,1.3297039E0,1.5435568E0,8.618E-2,-2.9954687E-2,-6.2229115E-1,1.2403126E0,2.2495134E0,-1.6613023E-1,1.7291259E0,1.2333104E-1,3.845218E-1,6.0895276E-1,9.000821E-1,-6.011358E-1,4.3793898E-2,4.3418653E-2,5.691568E-2,-1.7687472E0,-4.379652E-2,-5.6867087E-1,-3.728514E-1,-4.2059404E-1,-1.8966854E-2,2.1131685E0,-1.1903787E0,-2.1749292E-1,7.323239E-2,2.470329E-2,1.8264303E0,-5.861253E-1,5.317166E-1,3.5409924E-1,5.542759E-1,5.005945E-1,1.7662456E-2,8.3959305E-1,2.6712982E-2,3.2502532E-2,9.652207E-1,-7.659537E-2,-4.9579114E-2,-3.600295E-2,-1.9700019E-2,-2.2799306E-2,-1.1797042E-2,-2.7364021E-2,-8.536375E-3,-1.086583E-2,-3.9899824E-3,7.327379E-3,1.17594376E-4,-2.1138968E-2,-1.0239147E-2,-8.892319E-3,3.40411E-3,-7.695768E-3,2.1327375E-3,-3.0426444E-3,-9.84636E-3,-2.469908E-4,7.703077E-3,5.405463E-4,7.20516E-3,7.7404925E-3,1.498236E-2,6.9332197E-3,1.3683587E-2,1.61439E-2,2.8379967E-2,2.006072E-2,2.8449407E-2],"split_indices":[35,35,1,2,35,35,35,35,2,2,35,35,0,35,0,2,0,2,2,0,2,0,0,0,0,32,0,0,0,35,0,1,0,0,0,2,0,1,0,0,2,32,52,1,0,1,0,1,0,0,0,0,0,0,0,0,0,0,0,0,0,0,0,0,0,0,0,0,0,0,0,0,0,0,0,0,0,0,0,0,0,0,0],"split_type":[0,0,0,0,0,0,0,0,0,0,0,0,0,0,0,0,0,0,0,0,0,0,0,0,0,0,0,0,0,0,0,0,0,0,0,0,0,0,0,0,0,0,0,0,0,0,0,0,0,0,0,0,0,0,0,0,0,0,0,0,0,0,0,0,0,0,0,0,0,0,0,0,0,0,0,0,0,0,0,0,0,0,0],"sum_hessian":[1.525E3,9.23E2,6.02E2,4.05E2,5.18E2,4.4E2,1.62E2,3.17E2,8.8E1,2.32E2,2.86E2,2.38E2,2.02E2,1.43E2,1.9E1,1.47E2,1.7E2,6.6E1,2.2E1,2.24E2,8E0,1.55E2,1.31E2,1.13E2,1.25E2,1.63E2,3.9E1,5.3E1,9E1,8E1,6.7E1,1.29E2,4.1E1,4.5E1,2.1E1,1.8E1,4E0,1.87E2,3.7E1,2E0,6E0,1.33E2,2.2E1,1.09E2,2.2E1,8.9E1,2.4E1,1.05E2,2E1,4E1,1.23E2,1.6E1,6.4E1,1.15E2,1.4E1,3.6E1,5E0,4.3E1,2E0,1.4E1,4E0,3E0,1E0,1.51E2,3.6E1,3.5E1,2E0,3E0,3E0,5.4E1,7.9E1,1.6E1,6E0,9.5E1,1.4E1,1.7E1,5E0,6.8E1,2.1E1,9.6E1,9E0,4.3E1,8E1],"tree_param":{"num_deleted":"0","num_feature":"92","num_nodes":"83","size_leaf_vector":"1"}},{"base_weights":[6.301502E-4,-1.8594745E-1,2.8652912E-1,-3.125474E-1,-6.352216E-2,2.0263657E-1,5.117443E-1,-4.1608852E-1,-2.5533E-1,-1.14855655E-1,7.835923E-3,1.419883E-1,2.8502002E-1,4.4164532E-1,6.6133523E-1,-4.3979353E-1,-2.4740295E-1,-2.7994126E-1,-1.3209286E-1,-1.343268E-1,-4.6110317E-2,-5.4270225E-3,7.945976E-2,1.2650156E-1,2.6357679E-2,2.5855872E-1,4.1936018E-2,4.2317125E-1,5.9145845E-2,5.822153E-2,8.231997E-2,-4.9052706E-1,-3.1512037E-1,-2.5241068E-2,-7.1120276E-3,-3.386313E-1,-2.3198138E-1,-1.6392969E-1,-1.49623975E-2,-5.489411E-2,-1.6299841E-1,-6.252825E-2,4.551578E-2,-2.3992008E-2,3.31518E-2,6.304702E-2,1.3733829E-2,2.2455618E-1,1.133843E-1,2.5956947E-1,4.993656E-3,3.5553746E-2,4.547435E-2,-5.5624016E-2,-4.0557906E-2,-3.4111284E-2,-1.3271446E-2,-3.636008E-2,-2.5025604E-2,-1.0180104E-2,-2.4245529E-2,-1.794479E-2,-1.1276651E-2,-5.0073536E-3,6.777826E-3,-6.5334737E-3,2.701108E-2,-1.8341983E-2,-1.2818766E-2,-6.664362E-3,7.5735287E-3,1.5201679E-3,7.278954E-3,-3.3280656E-3,3.4980997E-3,1.8673887E-3,6.727461E-3,4.842958E-3,7.6064914E-3,1.7768914E-2,2.7231226E-2,8.942343E-3,1.4457968E-2,3.054877E-2,2.4723459E-2],"categories":[],"categories_nodes":[],"categories_segments":[],"categories_sizes":[],"default_left":[0,0,0,0,0,0,0,0,0,0,0,0,0,0,0,0,0,0,0,0,0,0,0,0,0,0,0,0,0,0,0,0,0,0,0,0,0,0,0,0,0,0,0,0,0,0,0,0,0,0,0,0,0,0,0,0,0,0,0,0,0,0,0,0,0,0,0,0,0,0,0,0,0,0,0,0,0,0,0,0,0,0,0,0,0],"id":12,"left_children":[1,3,5,7,9,11,13,15,17,19,21,23,25,27,29,31,33,35,37,39,41,43,45,47,-1,49,-1,51,-1,-1,-1,53,55,-1,-1,57,59,61,63,65,67,69,71,73,75,77,-1,79,81,83,-1,-1,-1,-1,-1,-1,-1,-1,-1,-1,-1,-1,-1,-1,-1,-1,-1,-1,-1,-1,-1,-1,-1,-1,-1,-1,-1,-1,-1,-1,-1,-1,-1,-1,-1],"loss_changes":[8.14537E1,1.430125E1,1.128931E1,2.5834198E0,1.7262009E0,2.1629505E0,1.4171715E0,5.30983E-1,8.577633E-1,3.60569E-1,1.8851992E-1,4.4870758E-1,5.5276585E-1,6.522179E-2,1.6105461E-1,7.246132E-1,1.4696121E-3,6.11063E-1,1.877293E-1,4.7615218E-1,9.611334E-2,1.21119544E-1,2.0789519E-2,2.690804E-1,0E0,2.0355225E-2,0E0,6.253433E-2,0E0,0E0,0E0,3.158741E-1,1.5859985E-1,0E0,0E0,1.4732838E-1,1.6348028E-1,1.152277E-2,3.825532E-2,2.1445636E-1,8.7385654E-2,3.5204515E-2,7.1612727E-3,6.361106E-2,2.5915205E-2,1.2637079E-3,0E0,9.805918E-3,1.3955474E-1,1.3396263E-2,0E0,0E0,0E0,0E0,0E0,0E0,0E0,0E0,0E0,0E0,0E0,0E0,0E0,0E0,0E0,0E0,0E0,0E0,0E0,0E0,0E0,0E0,0E0,0E0,0E0,0E0,0E0,0E0,0E0,0E0,0E0,0E0,0E0,0E0,0E0],"parents":[2147483647,0,0,1,1,2,2,3,3,4,4,5,5,6,6,7,7,8,8,9,9,10,10,11,11,12,12,13,13,14,14,15,15,16,16,17,17,18,18,19,19,20,20,21,21,22,22,23,23,25,25,27,27,31,31,32,32,35,35,36,36,37,37,38,38,39,39,40,40,41,41,42,42,43,43,44,44,45,45,47,47,48,48,49,49],"right_children":[2,4,6,8,10,12,14,16,18,20,22,24,26,28,30,32,34,36,38,40,42,44,46,48,-1,50,-1,52,-1,-1,-1,54,56,-1,-1,58,60,62,64,66,68,70,72,74,76,78,-1,80,82,84,-1,-1,-1,-1,-1,-1,-1,-1,-1,-1,-1,-1,-1,-1,-1,-1,-1,-1,-1,-1,-1,-1,-1,-1,-1,-1,-1,-1,-1,-1,-1,-1,-1,-1,-1],"split_conditions":[2.96808E-1,-5.1758444E-1,1.29027E0,-1.1860723E0,-6.6758946E-2,7.8708017E-1,1.9878656E0,-9.121558E-1,1.1894631E0,-8.2889564E-2,3.310456E-1,9.000821E-1,1.3738687E0,3.811487E-1,2.3125563E0,3.086227E-1,-4.2059404E-1,-8.704337E-1,1.9009317E0,-7.284835E-1,1.5929317E-1,2.3648554E-1,5.542759E-1,-1.0106604E0,2.6357679E-2,2.1181064E0,4.1936018E-2,1.4886397E0,5.9145845E-2,5.822153E-2,8.231997E-2,-1.531235E0,9.765593E-1,-2.5241068E-2,-7.1120276E-3,7.228795E-1,-1.3633002E0,1.6131868E0,2.3550131E0,2.041823E0,-2.696159E-1,1.4731033E0,2.0783272E0,5.637905E-1,3.5409924E-1,4.2098954E-1,1.3733829E-2,8.3959305E-1,5.391151E-1,-7.062445E-1,4.993656E-3,3.5553746E-2,4.547435E-2,-5.5624016E-2,-4.0557906E-2,-3.4111284E-2,-1.3271446E-2,-3.636008E-2,-2.5025604E-2,-1.0180104E-2,-2.4245529E-2,-1.794479E-2,-1.1276651E-2,-5.0073536E-3,6.777826E-3,-6.5334737E-3,2.701108E-2,-1.8341983E-2,-1.2818766E-2,-6.664362E-3,7.5735287E-3,1.5201679E-3,7.278954E-3,-3.3280656E-3,3.4980997E-3,1.8673887E-3,6.727461E-3,4.842958E-3,7.6064914E-3,1.7768914E-2,2.7231226E-2,8.942343E-3,1.4457968E-2,3.054877E-2,2.4723459E-2],"split_indices":[35,35,1,37,35,35,35,0,2,0,0,0,0,32,1,2,0,35,2,32,0,1,0,32,0,77,0,1,0,0,0,35,2,0,0,2,32,2,2,33,0,2,32,32,1,0,0,1,35,32,0,0,0,0,0,0,0,0,0,0,0,0,0,0,0,0,0,0,0,0,0,0,0,0,0,0,0,0,0,0,0,0,0,0,0],"split_type":[0,0,0,0,0,0,0,0,0,0,0,0,0,0,0,0,0,0,0,0,0,0,0,0,0,0,0,0,0,0,0,0,0,0,0,0,0,0,0,0,0,0,0,0,0,0,0,0,0,0,0,0,0,0,0,0,0,0,0,0,0,0,0,0,0,0,0,0,0,0,0,0,0,0,0,0,0,0,0,0,0,0,0,0,0],"sum_hessian":[1.525E3,9.23E2,6.02E2,4.53E2,4.7E2,4.4E2,1.62E2,1.59E2,2.94E2,2.73E2,1.97E2,2.55E2,1.85E2,1.13E2,4.9E1,1.38E2,2.1E1,2.44E2,5E1,2.12E2,6.1E1,1.67E2,3E1,2.28E2,2.7E1,1.57E2,2.8E1,1.04E2,9E0,3.6E1,1.3E1,9.6E1,4.2E1,2E1,1E0,1.07E2,1.37E2,3.9E1,1.1E1,5.7E1,1.55E2,5.2E1,9E0,1.13E2,5.4E1,2.5E1,5E0,2.5E1,2.03E2,1.56E2,1E0,3.7E1,6.7E1,5.1E1,4.5E1,3.6E1,6E0,8.1E1,2.6E1,1.1E1,1.26E2,2.8E1,1.1E1,8E0,3E0,5.6E1,1E0,9.5E1,6E1,5.1E1,1E0,5E0,4E0,9.8E1,1.5E1,3.9E1,1.5E1,1.4E1,1.1E1,1.5E1,1E1,1.17E2,8.6E1,2.8E1,1.28E2],"tree_param":{"num_deleted":"0","num_feature":"92","num_nodes":"85","size_leaf_vector":"1"}},{"base_weights":[7.0636556E-4,-1.9232386E-1,2.257704E-1,-3.0810428E-1,-1.02771804E-1,1.2714373E-1,4.0255904E-1,-3.4435645E-1,-1.4249828E-1,-1.545435E-1,-4.7810543E-2,6.0619447E-2,1.8673411E-1,3.4025127E-1,5.661529E-1,-4.1396874E-1,-2.7795327E-1,-1.7424595E-1,-2.293978E-2,-1.6322504E-1,2.3284322E-2,-6.0924232E-2,2.3457192E-2,4.3859977E-2,1.4319845E-1,1.7124483E-1,2.6931966E-2,2.9893687E-1,4.1021302E-1,4.953287E-2,7.1136445E-2,-4.9022678E-1,-3.4609073E-1,-3.018656E-1,-1.8538174E-1,-1.8860903E-2,-1.166484E-2,-5.4737993E-2,5.1604245E-2,-1.7792007E-1,-8.971033E-2,-3.7769567E-2,2.1903584E-2,-2.2800434E-4,-7.896751E-2,-2.4602568E-2,3.8067214E-2,3.3380907E-2,1.1439529E-1,1.103666E-2,1.7340073E-2,1.4577828E-1,2.4882723E-1,2.6184136E-1,3.7821967E-2,3.5334274E-2,4.7058742E-2,-7.7804945E-2,-4.4123016E-2,-3.6234275E-2,-2.6046777E-2,-1.6680466E-2,-3.1957142E-2,-1.8910665E-2,-3.1229884E-3,-1.1190857E-3,-6.317171E-3,6.2694894E-3,3.6208238E-4,-8.563351E-3,-1.9211529E-2,-1.0435682E-2,-5.126326E-3,-7.140348E-3,3.0532184E-3,2.2710254E-3,-2.5241196E-3,-9.3643395E-3,-4.7405153E-3,-4.387795E-3,-4.0667335E-5,2.2999567E-3,6.2889024E-3,2.0933282E-3,6.009807E-3,8.045471E-3,1.3880295E-2,1.2899003E-2,1.7345393E-2,2.745297E-2,2.0148443E-2,6.531504E-3,2.6340341E-2],"categories":[],"categories_nodes":[],"categories_segments":[],"categories_sizes":[],"default_left":[0,0,0,0,0,0,0,0,0,0,0,0,0,0,0,0,0,0,0,0,0,0,0,0,0,0,0,0,0,0,0,0,0,0,0,0,0,0,0,0,0,0,0,0,0,0,0,0,0,0,0,0,0,0,0,0,0,0,0,0,0,0,0,0,0,0,0,0,0,0,0,0,0,0,0,0,0,0,0,0,0,0,0,0,0,0,0,0,0,0,0,0,0],"id":13,"left_children":[1,3,5,7,9,11,13,15,17,19,21,23,25,27,29,31,33,35,37,39,41,43,45,47,49,51,-1,53,55,-1,-1,57,59,61,63,-1,-1,65,67,69,71,73,-1,75,77,79,81,83,85,-1,-1,87,89,91,-1,-1,-1,-1,-1,-1,-1,-1,-1,-1,-1,-1,-1,-1,-1,-1,-1,-1,-1,-1,-1,-1,-1,-1,-1,-1,-1,-1,-1,-1,-1,-1,-1,-1,-1,-1,-1,-1,-1],"loss_changes":[6.633921E1,8.491138E0,1.2241253E1,2.1002083E0,1.3157396E0,1.7884307E0,2.3760414E0,1.2393227E0,2.4651933E-1,3.7277317E-1,2.1357948E-1,2.9265893E-1,2.5960732E-1,4.1210175E-1,3.4698677E-1,5.601883E-1,2.8272057E-1,2.1017432E-2,3.8380213E-2,2.3034716E-1,1.5168957E-1,2.1025258E-1,2.6214102E-2,1.2996653E-1,1.655984E-2,3.6678076E-1,0E0,2.53891E-1,6.0333252E-2,0E0,0E0,5.5925083E-1,1.4162064E-2,2.3365879E-1,1.3617158E-2,0E0,0E0,3.3329614E-3,2.43383E-3,2.3114395E-1,1.717493E-2,2.5152655E-2,0E0,2.6392393E-2,6.411511E-2,4.179622E-3,9.025753E-3,5.1619828E-2,7.886082E-3,0E0,0E0,5.0107718E-2,4.3108463E-3,8.8887215E-3,0E0,0E0,0E0,0E0,0E0,0E0,0E0,0E0,0E0,0E0,0E0,0E0,0E0,0E0,0E0,0E0,0E0,0E0,0E0,0E0,0E0,0E0,0E0,0E0,0E0,0E0,0E0,0E0,0E0,0E0,0E0,0E0,0E0,0E0,0E0,0E0,0E0,0E0,0E0],"parents":[2147483647,0,0,1,1,2,2,3,3,4,4,5,5,6,6,7,7,8,8,9,9,10,10,11,11,12,12,13,13,14,14,15,15,16,16,17,17,18,18,19,19,20,20,21,21,22,22,23,23,24,24,25,25,27,27,28,28,31,31,32,32,33,33,34,34,37,37,38,38,39,39,40,40,41,41,43,43,44,44,45,45,46,46,47,47,48,48,51,51,52,52,53,53],"right_children":[2,4,6,8,10,12,14,16,18,20,22,24,26,28,30,32,34,36,38,40,42,44,46,48,50,52,-1,54,56,-1,-1,58,60,62,64,-1,-1,66,68,70,72,74,-1,76,78,80,82,84,86,-1,-1,88,90,92,-1,-1,-1,-1,-1,-1,-1,-1,-1,-1,-1,-1,-1,-1,-1,-1,-1,-1,-1,-1,-1,-1,-1,-1,-1,-1,-1,-1,-1,-1,-1,-1,-1,-1,-1,-1,-1,-1,-1],"split_conditions":[1.0868129E-1,-7.028864E-1,1.0308231E0,9.158619E-1,-2.810463E-1,5.0883865E-1,1.7663603E0,-1.1980302E0,1.8482875E0,1.6131868E0,1.2872519E-1,5.72896E-1,1.0192665E0,1.4669005E0,2.2196033E0,-4.8856728E-2,-6.871918E-1,1.50765E0,2.2495134E0,-2.696159E-1,9.0364295E-1,-8.5470426E-1,5.637905E-1,5.005945E-1,7.0155686E-1,9.205232E-1,2.6931966E-2,1.361837E0,3.0760735E-1,4.953287E-2,7.1136445E-2,-2.0239499E0,7.7006257E-1,-1.3247468E0,1.322392E0,-1.8860903E-2,-1.166484E-2,-6.061059E-1,-1.1903787E0,-9.9244523E-1,1.4458239E0,1.9745284E0,2.1903584E-2,-1.108276E0,-3.8033888E-2,1.5929317E-1,5.0310016E-1,3.845218E-1,5.776868E-1,1.103666E-2,1.7340073E-2,7.795739E-1,-8.089983E-1,-1.7768569E0,3.7821967E-2,3.5334274E-2,4.7058742E-2,-7.7804945E-2,-4.4123016E-2,-3.6234275E-2,-2.6046777E-2,-1.6680466E-2,-3.1957142E-2,-1.8910665E-2,-3.1229884E-3,-1.1190857E-3,-6.317171E-3,6.2694894E-3,3.6208238E-4,-8.563351E-3,-1.9211529E-2,-1.0435682E-2,-5.126326E-3,-7.140348E-3,3.0532184E-3,2.2710254E-3,-2.5241196E-3,-9.3643395E-3,-4.7405153E-3,-4.387795E-3,-4.0667335E-5,2.2999567E-3,6.2889024E-3,2.0933282E-3,6.009807E-3,8.045471E-3,1.3880295E-2,1.2899003E-2,1.7345393E-2,2.745297E-2,2.0148443E-2,6.531504E-3,2.6340341E-2],"split_indices":[35,35,35,2,35,35,1,35,2,2,0,0,0,0,35,2,0,2,2,0,78,32,32,1,0,1,0,1,32,0,0,35,2,32,38,0,0,46,0,32,32,2,0,32,0,0,52,0,1,0,0,0,32,77,0,0,0,0,0,0,0,0,0,0,0,0,0,0,0,0,0,0,0,0,0,0,0,0,0,0,0,0,0,0,0,0,0,0,0,0,0,0,0],"split_type":[0,0,0,0,0,0,0,0,0,0,0,0,0,0,0,0,0,0,0,0,0,0,0,0,0,0,0,0,0,0,0,0,0,0,0,0,0,0,0,0,0,0,0,0,0,0,0,0,0,0,0,0,0,0,0,0,0,0,0,0,0,0,0,0,0,0,0,0,0,0,0,0,0,0,0,0,0,0,0,0,0,0,0,0,0,0,0,0,0,0,0,0,0],"sum_hessian":[1.525E3,8.21E2,7.04E2,3.57E2,4.64E2,4.53E2,2.51E2,2.92E2,6.5E1,2.38E2,2.26E2,2.15E2,2.38E2,1.84E2,6.7E1,1.4E2,1.52E2,5.1E1,1.4E1,2.27E2,1.1E1,1.91E2,3.5E1,1.8E2,3.5E1,2.03E2,3.5E1,1.19E2,6.5E1,4.8E1,1.9E1,6.3E1,7.7E1,1.19E2,3.3E1,3.9E1,1.2E1,1E1,4E0,1.88E2,3.9E1,9E0,2E0,4.4E1,1.47E2,8E0,2.7E1,1.58E2,2.2E1,1.9E1,1.6E1,1.55E2,4.8E1,8.4E1,3.5E1,3.7E1,2.8E1,7E0,5.6E1,6.2E1,1.5E1,1.5E1,1.04E2,3.2E1,1E0,2E0,8E0,3E0,1E0,2.6E1,1.62E2,2.7E1,1.2E1,6E0,3E0,2.3E1,2.1E1,9.9E1,4.8E1,4E0,4E0,1.8E1,9E0,1.09E2,4.9E1,1.1E1,1.1E1,1E2,5.5E1,2.8E1,2E1,1E0,8.3E1],"tree_param":{"num_deleted":"0","num_feature":"92","num_nodes":"93","size_leaf_vector":"1"}},{"base_weights":[7.110967E-4,-1.5124568E-1,2.3355912E-1,-2.4366477E-1,-3.8787004E-2,1.5970731E-1,4.048616E-1,-3.2135057E-1,-1.8810208E-1,-7.753842E-2,9.964967E-3,9.3867384E-2,2.0445074E-1,3.454628E-1,5.3127927E-1,-3.710488E-1,-1.591336E-1,-2.0010893E-1,-1.00683846E-1,-7.999034E-2,2.4565345E-2,-2.847862E-3,5.994251E-2,7.774332E-2,1.55221E-2,1.8115816E-1,3.160458E-1,3.3030295E-1,4.739244E-2,4.692691E-1,6.837906E-2,-3.8817057E-1,-2.0419113E-1,-2.0218271E-1,-5.2327223E-2,-2.0798297E-1,-5.7109274E-2,-1.0752891E-1,-1.5618596E-2,-9.027538E-2,-4.882161E-3,-2.8643308E-2,1.8578215E-2,4.2719714E-2,9.833303E-3,5.8515493E-2,1.27309E-1,1.5928508E-1,2.1084392E-1,1.793738E-2,3.2966703E-2,2.8227169E-2,3.6622975E-2,2.2384984E-2,4.820793E-1,-4.587932E-2,-3.4326654E-2,-2.1964394E-2,-9.905855E-3,-2.1955844E-2,-1.4273258E-2,-7.2757057E-3,6.0454416E-3,-1.0485277E-2,-2.1760082E-2,-8.228728E-3,3.2702044E-3,-1.1071544E-2,4.065782E-5,9.903759E-5,-2.1485046E-3,-1.0346739E-2,-2.1272178E-3,-2.4171462E-3,4.8773694E-3,-4.116382E-3,1.4621097E-3,8.825318E-4,5.825733E-3,1.7609092E-3,5.0251395E-3,4.4242716E-3,8.457359E-3,1.0454918E-2,1.5885802E-2,1.3034861E-2,2.0959202E-2,2.3443986E-2,1.8299235E-2,4.1086476E-2,5.9838142E-2],"categories":[],"categories_nodes":[],"categories_segments":[],"categories_sizes":[],"default_left":[0,0,0,0,0,0,0,0,0,0,0,0,0,0,0,0,0,0,0,0,0,0,0,0,0,0,0,0,0,0,0,0,0,0,0,0,0,0,0,0,0,0,0,0,0,0,0,0,0,0,0,0,0,0,0,0,0,0,0,0,0,0,0,0,0,0,0,0,0,0,0,0,0,0,0,0,0,0,0,0,0,0,0,0,0,0,0,0,0,0,0],"id":14,"left_children":[1,3,5,7,9,11,13,15,17,19,21,23,25,27,29,31,33,35,37,39,-1,41,43,45,-1,47,49,51,-1,53,-1,55,57,59,61,63,65,67,69,71,73,75,77,79,-1,81,83,85,87,-1,-1,-1,-1,-1,89,-1,-1,-1,-1,-1,-1,-1,-1,-1,-1,-1,-1,-1,-1,-1,-1,-1,-1,-1,-1,-1,-1,-1,-1,-1,-1,-1,-1,-1,-1,-1,-1,-1,-1,-1,-1],"loss_changes":[5.4029533E1,9.593985E0,7.5638885E0,2.1279888E0,7.904617E-1,1.2269268E0,1.1756039E0,1.6339493E0,2.9263783E-1,2.0428836E-1,1.192765E-1,1.5907633E-1,5.951786E-1,8.884144E-2,2.0872498E-1,3.7784195E-1,2.2391427E-1,2.8200436E-1,2.0447046E-2,1.7877698E-1,0E0,8.288372E-2,2.0924538E-2,1.25023E-1,0E0,1.0277271E-1,1.9055367E-2,9.679508E-2,0E0,2.7273178E-2,0E0,2.9917145E-1,5.860448E-3,5.8494806E-3,4.126425E-2,2.2217941E-1,3.661E-2,1.2082905E-2,4.1102112E-4,1.8349826E-1,3.1193463E-2,3.7436955E-2,3.1218736E-2,4.410621E-3,0E0,3.419423E-2,1.0677457E-2,1.546433E-1,1.3617039E-2,0E0,0E0,0E0,0E0,0E0,8.544254E-2,0E0,0E0,0E0,0E0,0E0,0E0,0E0,0E0,0E0,0E0,0E0,0E0,0E0,0E0,0E0,0E0,0E0,0E0,0E0,0E0,0E0,0E0,0E0,0E0,0E0,0E0,0E0,0E0,0E0,0E0,0E0,0E0,0E0,0E0,0E0,0E0],"parents":[2147483647,0,0,1,1,2,2,3,3,4,4,5,5,6,6,7,7,8,8,9,9,10,10,11,11,12,12,13,13,14,14,15,15,16,16,17,17,18,18,19,19,21,21,22,22,23,23,25,25,26,26,27,27,29,29,31,31,32,32,33,33,34,34,35,35,36,36,37,37,38,38,39,39,40,40,41,41,42,42,43,43,45,45,46,46,47,47,48,48,54,54],"right_children":[2,4,6,8,10,12,14,16,18,20,22,24,26,28,30,32,34,36,38,40,-1,42,44,46,-1,48,50,52,-1,54,-1,56,58,60,62,64,66,68,70,72,74,76,78,80,-1,82,84,86,88,-1,-1,-1,-1,-1,90,-1,-1,-1,-1,-1,-1,-1,-1,-1,-1,-1,-1,-1,-1,-1,-1,-1,-1,-1,-1,-1,-1,-1,-1,-1,-1,-1,-1,-1,-1,-1,-1,-1,-1,-1,-1],"split_conditions":[2.96808E-1,-4.3190348E-1,1.224812E0,-1.0780115E0,-5.4272756E-2,6.138341E-1,1.9278691E0,7.7006257E-1,-4.0119833E-1,1.2606441E0,5.7945246E-1,6.7825234E-1,1.2675242E0,3.811487E-1,2.3125563E0,-9.6131843E-1,1.3886778E0,1.5466769E0,-1.3061728E-1,2.2650361E-2,2.4565345E-2,1.6305758E-1,5.020722E-1,5.776868E-1,1.55221E-2,9.205232E-1,2.329631E-1,1.4886397E0,4.739244E-2,1.7512958E0,6.837906E-2,-3.946176E-1,-7.85947E-1,1.1019679E0,2.2495134E0,-1.307395E0,2.1527777E0,1.6590626E0,-8.2721317E-1,-3.9834768E-2,1.6618022E0,1.8569557E-1,3.5409924E-1,-1.1146245E0,9.833303E-3,5.1664877E-1,6.8354917E-1,9.4277906E-1,-5.4883695E-1,1.793738E-2,3.2966703E-2,2.8227169E-2,3.6622975E-2,2.2384984E-2,1.227184E-1,-4.587932E-2,-3.4326654E-2,-2.1964394E-2,-9.905855E-3,-2.1955844E-2,-1.4273258E-2,-7.2757057E-3,6.0454416E-3,-1.0485277E-2,-2.1760082E-2,-8.228728E-3,3.2702044E-3,-1.1071544E-2,4.065782E-5,9.903759E-5,-2.1485046E-3,-1.0346739E-2,-2.1272178E-3,-2.4171462E-3,4.8773694E-3,-4.116382E-3,1.4621097E-3,8.825318E-4,5.825733E-3,1.7609092E-3,5.0251395E-3,4.4242716E-3,8.457359E-3,1.0454918E-2,1.5885802E-2,1.3034861E-2,2.0959202E-2,2.3443986E-2,1.8299235E-2,4.1086476E-2,5.9838142E-2],"split_indices":[35,35,1,35,35,35,35,2,0,87,32,0,0,32,1,0,2,2,0,0,0,1,0,1,0,1,32,1,0,1,0,2,0,2,2,32,2,2,1,1,32,0,1,48,0,0,1,0,32,0,0,0,0,0,32,0,0,0,0,0,0,0,0,0,0,0,0,0,0,0,0,0,0,0,0,0,0,0,0,0,0,0,0,0,0,0,0,0,0,0,0],"split_type":[0,0,0,0,0,0,0,0,0,0,0,0,0,0,0,0,0,0,0,0,0,0,0,0,0,0,0,0,0,0,0,0,0,0,0,0,0,0,0,0,0,0,0,0,0,0,0,0,0,0,0,0,0,0,0,0,0,0,0,0,0,0,0,0,0,0,0,0,0,0,0,0,0,0,0,0,0,0,0,0,0,0,0,0,0,0,0,0,0,0,0],"sum_hessian":[1.525E3,9.23E2,6.02E2,5.06E2,4.17E2,4.22E2,1.8E2,2.09E2,2.97E2,2.32E2,1.85E2,1.72E2,2.5E2,1.25E2,5.5E1,1.59E2,5E1,2.6E2,3.7E1,2.31E2,1E0,1.48E2,3.7E1,1.38E2,3.4E1,2.09E2,4.1E1,1.15E2,1E1,4.2E1,1.3E1,1.43E2,1.6E1,3.5E1,1.5E1,2.46E2,1.4E1,3.4E1,3E0,2.03E2,2.8E1,6.7E1,8.1E1,2.7E1,1E1,1.01E2,3.7E1,1.24E2,8.5E1,5E0,3.6E1,5.3E1,6.2E1,3E0,3.9E1,5.2E1,9.1E1,1.3E1,3E0,2.5E1,1E1,1.3E1,2E0,2.2E1,2.24E2,1.1E1,3E0,3.3E1,1E0,1E0,2E0,1.7E2,3.3E1,2.1E1,7E0,5.2E1,1.5E1,6.6E1,1.5E1,7E0,2E1,6.7E1,3.4E1,2.4E1,1.3E1,8.1E1,4.3E1,4.2E1,4.3E1,2.7E1,1.2E1],"tree_param":{"num_deleted":"0","num_feature":"92","num_nodes":"91","size_leaf_vector":"1"}},{"base_weights":[8.501623E-4,-1.3629924E-1,2.1100803E-1,-2.4059816E-1,-5.4446325E-2,1.4877962E-1,3.780738E-1,-2.6790223E-1,-1.2418894E-1,-9.77737E-2,-8.4373995E-4,1.0452857E-1,2.0888437E-1,3.4657088E-1,5.859914E-1,-3.366105E-1,-2.0953868E-1,-1.5200657E-1,-3.4526598E-2,-1.12613685E-1,-3.5917364E-2,-1.3796667E-2,4.8077386E-2,9.311078E-2,2.0630455E-2,1.9182341E-1,3.338004E-2,3.240417E-1,4.510052E-1,2.4702208E-2,6.0993116E-2,-3.7886304E-1,-2.7773438E-2,-2.3186897E-1,-1.3524802E-1,-1.6678935E-1,-1.1661049E-2,-6.021856E-2,3.5457745E-2,-5.073424E-2,-1.3402908E-1,-4.4208273E-2,2.9618895E-2,-3.561235E-2,1.658654E-2,2.9253777E-2,8.1789255E-2,8.281954E-2,1.6818058E-1,1.938937E-1,8.638163E-3,2.7143547E-2,3.6456463E-1,4.7724377E-2,2.0706108E-2,-4.8214186E-2,-3.1564075E-2,-1.24781765E-2,-2.4499802E-2,-1.5155598E-2,-9.361559E-3,-1.6915543E-2,-3.7256435E-3,-4.6550445E-4,-6.385488E-3,-1.2878454E-4,5.4152505E-3,-5.9358836E-3,2.333708E-2,-1.3880915E-2,-4.318915E-3,-4.7739246E-3,6.6170096E-3,3.7979775E-3,-1.0273196E-3,-4.478199E-3,-4.9703225E-4,3.6871922E-4,4.3785674E-3,5.13969E-5,3.2110624E-3,6.3903155E-3,1.1193528E-2,6.7673433E-3,1.112795E-2,1.8076971E-2,9.399033E-3,1.834104E-2,2.2549046E-2,4.3822896E-2,3.1777274E-2],"categories":[],"categories_nodes":[],"categories_segments":[],"categories_sizes":[],"default_left":[0,0,0,0,0,0,0,0,0,0,0,0,0,0,0,0,0,0,0,0,0,0,0,0,0,0,0,0,0,0,0,0,0,0,0,0,0,0,0,0,0,0,0,0,0,0,0,0,0,0,0,0,0,0,0,0,0,0,0,0,0,0,0,0,0,0,0,0,0,0,0,0,0,0,0,0,0,0,0,0,0,0,0,0,0,0,0,0,0,0,0],"id":15,"left_children":[1,3,5,7,9,11,13,15,17,19,21,23,25,27,29,31,33,35,37,39,41,43,45,47,-1,49,-1,51,53,-1,-1,55,-1,57,59,61,-1,63,65,67,69,71,73,75,77,79,81,83,85,87,-1,-1,89,-1,-1,-1,-1,-1,-1,-1,-1,-1,-1,-1,-1,-1,-1,-1,-1,-1,-1,-1,-1,-1,-1,-1,-1,-1,-1,-1,-1,-1,-1,-1,-1,-1,-1,-1,-1,-1,-1],"loss_changes":[4.40127E1,7.875244E0,6.2126827E0,1.2571793E0,1.2052739E0,1.1510925E0,8.645649E-1,1.2447662E0,1.917932E-1,2.5940585E-1,1.4830884E-1,2.782774E-1,3.323698E-1,1.9266129E-1,1.1631012E-2,2.6543808E-1,2.6724768E-1,1.1945605E-2,3.809592E-2,2.993152E-1,3.2280654E-2,1.2321432E-1,2.8701723E-2,1.6530561E-1,0E0,1.9487858E-2,0E0,1.6111946E-1,4.8398495E-2,0E0,0E0,3.962965E-1,0E0,1.6204405E-1,1.568538E-2,5.957246E-3,0E0,2.733454E-3,4.19144E-3,1.6332039E-1,6.825662E-2,2.3035787E-2,2.7249046E-3,3.0122876E-2,2.7204938E-2,2.6929695E-3,2.0133033E-3,8.126724E-2,8.2271695E-3,1.2303352E-2,0E0,0E0,8.8238716E-2,0E0,0E0,0E0,0E0,0E0,0E0,0E0,0E0,0E0,0E0,0E0,0E0,0E0,0E0,0E0,0E0,0E0,0E0,0E0,0E0,0E0,0E0,0E0,0E0,0E0,0E0,0E0,0E0,0E0,0E0,0E0,0E0,0E0,0E0,0E0,0E0,0E0,0E0],"parents":[2147483647,0,0,1,1,2,2,3,3,4,4,5,5,6,6,7,7,8,8,9,9,10,10,11,11,12,12,13,13,14,14,15,15,16,16,17,17,18,18,19,19,20,20,21,21,22,22,23,23,25,25,27,27,28,28,31,31,33,33,34,34,35,35,37,37,38,38,39,39,40,40,41,41,42,42,43,43,44,44,45,45,46,46,47,47,48,48,49,49,52,52],"right_children":[2,4,6,8,10,12,14,16,18,20,22,24,26,28,30,32,34,36,38,40,42,44,46,48,-1,50,-1,52,54,-1,-1,56,-1,58,60,62,-1,64,66,68,70,72,74,76,78,80,82,84,86,88,-1,-1,90,-1,-1,-1,-1,-1,-1,-1,-1,-1,-1,-1,-1,-1,-1,-1,-1,-1,-1,-1,-1,-1,-1,-1,-1,-1,-1,-1,-1,-1,-1,-1,-1,-1,-1,-1,-1,-1,-1],"split_conditions":[2.96808E-1,-6.0241807E-1,1.29027E0,8.604934E-1,-1.4187135E-1,7.8708017E-1,2.2196033E0,-1.1649582E0,1.7786134E0,-1.3061728E-1,2.8994557E-1,9.133095E-1,1.439385E0,2.8412122E-1,-1.1365397E0,1.3638435E-1,-6.2229115E-1,1.3143401E0,2.1527777E0,-7.284835E-1,1.5929317E-1,1.6305758E-1,4.6272862E-1,7.834814E-1,2.0630455E-2,1.8521214E0,3.338004E-2,1.6071751E0,2.492254E0,2.4702208E-2,6.0993116E-2,-1.6476557E0,-2.7773438E-2,-1.307395E0,-4.4565138E-1,-4.2059404E-1,-1.1661049E-2,-1.4826427E0,2.3550131E0,1.8839314E0,1.4731033E0,1.4731033E0,-4.8762637E-1,1.2333104E-1,3.2429594E-1,1.9429183E-1,5.889913E-1,6.1894685E-1,5.72896E-1,3.3560234E-1,8.638163E-3,2.7143547E-2,-5.355455E-1,4.7724377E-2,2.0706108E-2,-4.8214186E-2,-3.1564075E-2,-1.24781765E-2,-2.4499802E-2,-1.5155598E-2,-9.361559E-3,-1.6915543E-2,-3.7256435E-3,-4.6550445E-4,-6.385488E-3,-1.2878454E-4,5.4152505E-3,-5.9358836E-3,2.333708E-2,-1.3880915E-2,-4.318915E-3,-4.7739246E-3,6.6170096E-3,3.7979775E-3,-1.0273196E-3,-4.478199E-3,-4.9703225E-4,3.6871922E-4,4.3785674E-3,5.13969E-5,3.2110624E-3,6.3903155E-3,1.1193528E-2,6.7673433E-3,1.112795E-2,1.8076971E-2,9.399033E-3,1.834104E-2,2.2549046E-2,4.3822896E-2,3.1777274E-2],"split_indices":[35,35,1,2,35,35,35,35,2,0,0,0,0,32,61,2,0,2,2,32,0,1,0,1,0,77,0,1,0,0,0,35,0,32,0,0,0,4,2,33,2,2,1,0,1,32,0,0,0,32,0,0,32,0,0,0,0,0,0,0,0,0,0,0,0,0,0,0,0,0,0,0,0,0,0,0,0,0,0,0,0,0,0,0,0,0,0,0,0,0,0],"split_type":[0,0,0,0,0,0,0,0,0,0,0,0,0,0,0,0,0,0,0,0,0,0,0,0,0,0,0,0,0,0,0,0,0,0,0,0,0,0,0,0,0,0,0,0,0,0,0,0,0,0,0,0,0,0,0,0,0,0,0,0,0,0,0,0,0,0,0,0,0,0,0,0,0,0,0,0,0,0,0,0,0,0,0,0,0,0,0,0,0,0,0],"sum_hessian":[1.525E3,9.23E2,6.02E2,4.05E2,5.18E2,4.4E2,1.62E2,3.27E2,7.8E1,2.86E2,2.32E2,2.55E2,1.85E2,1.43E2,1.9E1,1.48E2,1.79E2,5.9E1,1.9E1,2.3E2,5.6E1,1.84E2,4.8E1,2.31E2,2.4E1,1.65E2,2E1,1.21E2,2.2E1,2E0,1.7E1,8.3E1,6.5E1,1.36E2,4.3E1,3.9E1,2E1,1.4E1,5E0,6E1,1.7E2,5E1,6E0,1.07E2,7.7E1,3.2E1,1.6E1,2.05E2,2.6E1,1.61E2,4E0,5.6E1,6.5E1,1.9E1,3E0,2.9E1,5.4E1,1.6E1,1.2E2,2.9E1,1.4E1,3.8E1,1E0,1E0,1.3E1,2E0,3E0,5.9E1,1E0,1.61E2,9E0,4.9E1,1E0,5E0,1E0,8.2E1,2.5E1,5.3E1,2.4E1,3E0,2.9E1,1.2E1,4E0,1.36E2,6.9E1,2.1E1,5E0,1.26E2,3.5E1,2.2E1,4.3E1],"tree_param":{"num_deleted":"0","num_feature":"92","num_nodes":"91","size_leaf_vector":"1"}},{"base_weights":[9.1409375E-4,-1.2286247E-1,1.9058016E-1,-1.9750343E-1,-2.962541E-2,1.2989348E-1,3.31353E-1,-2.891384E-1,-1.6532196E-1,-6.0640268E-2,8.385333E-3,7.6284096E-2,1.6632587E-1,2.9196534E-1,4.7189173E-1,-3.537915E-1,-1.9507721E-1,-1.7799136E-1,-8.149713E-2,-6.2870555E-2,2.2170225E-2,-1.070711E-3,5.5700094E-2,6.292471E-2,1.2716037E-1,1.468091E-1,2.5994956E-1,2.7553847E-1,4.248193E-2,1.9153154E-2,4.904503E-2,-5.6468385E-1,-3.2801634E-1,-2.131398E-1,-3.8190503E-2,-2.1758366E-1,-1.396735E-1,-1.0142914E-1,2.0157308E-3,-7.387565E-2,-1.4316861E-2,-1.1626325E-2,3.0894242E-2,4.3583073E-2,9.892384E-3,4.570448E-2,1.0749153E-1,1.0789031E-2,1.551038E-2,1.2811577E-1,1.7227255E-1,2.1439774E-2,3.087744E-2,3.3766142E-1,2.4749367E-1,-6.232188E-2,-1.0673726E-2,-3.4193594E-2,-1.51903285E-2,-2.2562608E-2,-1.4063211E-2,-6.600495E-3,2.0897076E-3,-2.4210492E-2,-1.5481268E-2,-1.52943535E-2,-7.2206254E-3,-1.1346147E-2,-7.7060345E-3,-2.6840065E-3,4.20107E-3,-8.749727E-3,-1.7392535E-3,-2.6104923E-3,4.051902E-3,-1.6998757E-3,2.6397628E-3,5.1234416E-3,1.1020072E-3,2.110685E-3,4.6710256E-3,4.2208848E-3,1.46990735E-2,8.801581E-3,1.3459164E-2,1.1091825E-2,1.8642833E-2,1.9265762E-2,1.4632967E-2,2.7793571E-2,3.9509106E-2,1.8809691E-2,2.6517117E-2],"categories":[],"categories_nodes":[],"categories_segments":[],"categories_sizes":[],"default_left":[0,0,0,0,0,0,0,0,0,0,0,0,0,0,0,0,0,0,0,0,0,0,0,0,0,0,0,0,0,0,0,0,0,0,0,0,0,0,0,0,0,0,0,0,0,0,0,0,0,0,0,0,0,0,0,0,0,0,0,0,0,0,0,0,0,0,0,0,0,0,0,0,0,0,0,0,0,0,0,0,0,0,0,0,0,0,0,0,0,0,0,0,0],"id":16,"left_children":[1,3,5,7,9,11,13,15,17,19,21,23,25,27,29,31,33,35,37,39,-1,41,43,45,47,49,51,53,-1,-1,-1,55,57,59,61,63,65,67,69,71,73,75,77,79,-1,81,83,-1,-1,85,87,-1,-1,89,91,-1,-1,-1,-1,-1,-1,-1,-1,-1,-1,-1,-1,-1,-1,-1,-1,-1,-1,-1,-1,-1,-1,-1,-1,-1,-1,-1,-1,-1,-1,-1,-1,-1,-1,-1,-1,-1,-1],"loss_changes":[3.5848118E1,6.4245462E0,5.108412E0,1.4650078E0,4.8621443E-1,8.134804E-1,8.641472E-1,7.3372173E-1,3.911829E-1,1.5688151E-1,8.327799E-2,1.09582424E-1,4.2047262E-1,1.972084E-1,1.0377979E-1,2.3332977E-1,1.505518E-1,4.7176743E-1,8.676258E-2,1.19702876E-1,0E0,5.29951E-2,1.1924624E-2,1.0176283E-1,2.112329E-3,7.788849E-2,2.7209997E-2,1.4466286E-1,0E0,0E0,0E0,1.21120214E-1,1.2211037E-1,1.35371685E-2,1.2883729E-2,2.1033382E-1,1.4205146E-1,3.5715997E-3,1.3822523E-2,1.4004624E-1,2.8853316E-2,2.4553899E-2,1.5200917E-2,8.41558E-4,0E0,2.9909775E-2,8.210033E-3,0E0,0E0,1.0467577E-1,1.7289162E-2,0E0,0E0,2.05307E-2,4.8820496E-2,0E0,0E0,0E0,0E0,0E0,0E0,0E0,0E0,0E0,0E0,0E0,0E0,0E0,0E0,0E0,0E0,0E0,0E0,0E0,0E0,0E0,0E0,0E0,0E0,0E0,0E0,0E0,0E0,0E0,0E0,0E0,0E0,0E0,0E0,0E0,0E0,0E0,0E0],"parents":[2147483647,0,0,1,1,2,2,3,3,4,4,5,5,6,6,7,7,8,8,9,9,10,10,11,11,12,12,13,13,14,14,15,15,16,16,17,17,18,18,19,19,21,21,22,22,23,23,24,24,25,25,26,26,27,27,31,31,32,32,33,33,34,34,35,35,36,36,37,37,38,38,39,39,40,40,41,41,42,42,43,43,45,45,46,46,49,49,50,50,53,53,54,54],"right_children":[2,4,6,8,10,12,14,16,18,20,22,24,26,28,30,32,34,36,38,40,-1,42,44,46,48,50,52,54,-1,-1,-1,56,58,60,62,64,66,68,70,72,74,76,78,80,-1,82,84,-1,-1,86,88,-1,-1,90,92,-1,-1,-1,-1,-1,-1,-1,-1,-1,-1,-1,-1,-1,-1,-1,-1,-1,-1,-1,-1,-1,-1,-1,-1,-1,-1,-1,-1,-1,-1,-1,-1,-1,-1,-1,-1,-1,-1],"split_conditions":[2.96808E-1,-4.1770512E-1,1.224812E0,-1.3345866E0,-5.4272756E-2,6.138341E-1,2.0808227E0,2.8961706E-1,1.1894631E0,1.2606441E0,3.310456E-1,6.7825234E-1,1.2675242E0,3.9085764E-1,1.7512958E0,-9.221309E-1,1.3740623E0,-7.891371E-1,1.9745284E0,-2.8327456E-2,2.2170225E-2,2.769823E-1,5.542759E-1,5.776868E-1,8.550322E-1,9.205232E-1,6.768967E-1,-6.847253E-1,4.248193E-2,1.9153154E-2,4.904503E-2,-1.5364107E0,-2.7219152E-1,9.158619E-1,-1.4058508E0,-8.218692E-1,-3.6554813E-1,1.5466769E0,2.1527777E0,-5.3003956E-2,2.2386375E-1,5.637905E-1,-9.533056E-1,-5.589122E-1,9.892384E-3,2.2679524E0,6.8354917E-1,1.0789031E-2,1.551038E-2,1.0192665E0,-4.861814E-1,2.1439774E-2,3.087744E-2,1.6071751E0,1.3620726E0,-6.232188E-2,-1.0673726E-2,-3.4193594E-2,-1.51903285E-2,-2.2562608E-2,-1.4063211E-2,-6.600495E-3,2.0897076E-3,-2.4210492E-2,-1.5481268E-2,-1.52943535E-2,-7.2206254E-3,-1.1346147E-2,-7.7060345E-3,-2.6840065E-3,4.20107E-3,-8.749727E-3,-1.7392535E-3,-2.6104923E-3,4.051902E-3,-1.6998757E-3,2.6397628E-3,5.1234416E-3,1.1020072E-3,2.110685E-3,4.6710256E-3,4.2208848E-3,1.46990735E-2,8.801581E-3,1.3459164E-2,1.1091825E-2,1.8642833E-2,1.9265762E-2,1.4632967E-2,2.7793571E-2,3.9509106E-2,1.8809691E-2,2.6517117E-2],"split_indices":[35,35,1,35,35,35,35,2,2,87,0,0,0,32,1,33,2,35,2,0,0,1,0,1,0,1,32,32,0,0,0,0,47,2,0,0,0,2,2,1,0,32,32,71,0,43,1,0,0,0,32,0,0,1,35,0,0,0,0,0,0,0,0,0,0,0,0,0,0,0,0,0,0,0,0,0,0,0,0,0,0,0,0,0,0,0,0,0,0,0,0,0,0],"split_type":[0,0,0,0,0,0,0,0,0,0,0,0,0,0,0,0,0,0,0,0,0,0,0,0,0,0,0,0,0,0,0,0,0,0,0,0,0,0,0,0,0,0,0,0,0,0,0,0,0,0,0,0,0,0,0,0,0,0,0,0,0,0,0,0,0,0,0,0,0,0,0,0,0,0,0,0,0,0,0,0,0,0,0,0,0,0,0,0,0,0,0,0,0],"sum_hessian":[1.525E3,9.23E2,6.02E2,5.12E2,4.11E2,4.22E2,1.8E2,1.31E2,3.81E2,2.26E2,1.85E2,1.72E2,2.5E2,1.43E2,3.7E1,7.6E1,5.5E1,3.3E2,5.1E1,2.25E2,1E0,1.55E2,3E1,1.38E2,3.4E1,2.09E2,4.1E1,1.3E2,1.3E1,3E0,3.4E1,6E0,7E1,4.9E1,6E0,1.6E2,1.7E2,4.1E1,1E1,1.83E2,4.2E1,1.17E2,3.8E1,2.5E1,5E0,1.01E2,3.7E1,2.3E1,1.1E1,1.24E2,8.5E1,2.4E1,1.7E1,3.7E1,9.3E1,5E0,1E0,6.4E1,6E0,4E1,9E0,4E0,2E0,1.13E2,4.7E1,1.41E2,2.9E1,2.5E1,1.6E1,6E0,4E0,1.47E2,3.6E1,3.5E1,7E0,1.03E2,1.4E1,1.8E1,2E1,4E0,2.1E1,9.9E1,2E0,2.4E1,1.3E1,9.8E1,2.6E1,4.4E1,4.1E1,2.1E1,1.6E1,2.4E1,6.9E1],"tree_param":{"num_deleted":"0","num_feature":"92","num_nodes":"93","size_leaf_vector":"1"}},{"base_weights":[9.540403E-4,-1.2716193E-1,1.5033047E-1,-2.0516098E-1,-6.68376E-2,8.432435E-2,2.686497E-1,-2.3003522E-1,-9.1625914E-2,-1.0578722E-1,-3.4625653E-2,4.5392387E-2,1.2934345E-1,2.2803131E-1,3.8944745E-1,-2.598295E-1,-1.5529983E-1,-1.1258875E-1,-1.2846347E-2,-1.1800765E-1,-6.089491E-2,2.813813E-2,-4.3081634E-2,3.2351103E-2,9.9643946E-2,1.2003487E-1,1.9980725E-2,1.9955753E-1,2.6672336E-1,3.4384125E-1,5.2125152E-2,-2.801661E-1,-1.5826944E-1,-1.8951325E-2,-1.214292E-1,-1.212911E-1,-8.303688E-3,-3.1880636E-2,4.746811E-3,-1.3018543E-1,-5.1395036E-2,4.7416106E-2,-6.6762425E-2,2.1061713E-2,1.5034927E-2,-5.6510493E-2,7.894346E-3,2.182689E-2,9.32921E-2,7.7323923E-3,1.195725E-2,1.0729858E-1,1.8616494E-2,2.9582536E-2,1.8533164E-1,2.5000224E-2,3.458427E-2,2.9581934E-1,4.1683432E-1,-3.251618E-2,-2.3352059E-2,-7.856778E-3,-1.8487867E-2,-1.2384465E-2,-6.366909E-4,-3.3828288E-3,-1.2274069E-2,-4.0143318E-4,-4.072337E-3,-1.3601315E-2,-3.1542329E-3,1.8581247E-3,-6.4372704E-3,3.8877057E-4,6.7236456E-3,-7.5695175E-3,-3.227073E-3,6.1016697E-3,5.6140125E-4,-6.740996E-3,-2.1536897E-3,-1.8682681E-3,2.0540955E-3,1.9478789E-3,1.1499041E-2,5.350043E-3,1.0352126E-2,9.668953E-3,1.2689254E-2,1.6519843E-2,2.438814E-2,8.406079E-3,2.9980991E-2,4.555369E-2,1.771667E-2],"categories":[],"categories_nodes":[],"categories_segments":[],"categories_sizes":[],"default_left":[0,0,0,0,0,0,0,0,0,0,0,0,0,0,0,0,0,0,0,0,0,0,0,0,0,0,0,0,0,0,0,0,0,0,0,0,0,0,0,0,0,0,0,0,0,0,0,0,0,0,0,0,0,0,0,0,0,0,0,0,0,0,0,0,0,0,0,0,0,0,0,0,0,0,0,0,0,0,0,0,0,0,0,0,0,0,0,0,0,0,0,0,0,0,0],"id":17,"left_children":[1,3,5,7,9,11,13,15,17,19,21,23,25,27,29,31,33,35,37,39,41,43,45,47,49,51,-1,53,55,57,-1,59,61,-1,63,65,-1,67,-1,69,71,73,75,-1,77,79,81,83,85,-1,-1,87,-1,-1,89,-1,-1,91,93,-1,-1,-1,-1,-1,-1,-1,-1,-1,-1,-1,-1,-1,-1,-1,-1,-1,-1,-1,-1,-1,-1,-1,-1,-1,-1,-1,-1,-1,-1,-1,-1,-1,-1,-1,-1],"loss_changes":[2.9222954E1,3.8539953E0,5.4832497E0,9.8995113E-1,5.79746E-1,7.898464E-1,1.1476593E0,6.120682E-1,1.0754889E-1,1.0802078E-1,1.3707894E-1,1.7011636E-1,1.137588E-1,1.5720081E-1,1.9345856E-1,3.8525677E-1,7.664728E-2,3.3012033E-3,1.8733956E-2,1.2634492E-1,3.303489E-2,7.095623E-2,1.5515423E-1,1.2559357E-1,1.1660099E-2,1.3836813E-1,0E0,1.01296425E-1,1.6728878E-2,4.845047E-2,0E0,2.8507137E-1,6.39441E-2,0E0,1.199615E-2,6.657243E-4,0E0,2.7934927E-3,0E0,7.5041056E-2,2.5715612E-2,2.3268494E-3,1.1422008E-2,0E0,1.265316E-2,6.678188E-2,1.6517004E-2,3.5167627E-2,6.2655807E-3,0E0,0E0,2.099049E-2,0E0,0E0,7.994795E-2,0E0,0E0,2.6841164E-3,7.698178E-2,0E0,0E0,0E0,0E0,0E0,0E0,0E0,0E0,0E0,0E0,0E0,0E0,0E0,0E0,0E0,0E0,0E0,0E0,0E0,0E0,0E0,0E0,0E0,0E0,0E0,0E0,0E0,0E0,0E0,0E0,0E0,0E0,0E0,0E0,0E0,0E0],"parents":[2147483647,0,0,1,1,2,2,3,3,4,4,5,5,6,6,7,7,8,8,9,9,10,10,11,11,12,12,13,13,14,14,15,15,16,16,17,17,18,18,19,19,20,20,21,21,22,22,23,23,24,24,25,25,27,27,28,28,29,29,31,31,32,32,34,34,35,35,37,37,39,39,40,40,41,41,42,42,44,44,45,45,46,46,47,47,48,48,51,51,54,54,57,57,58,58],"right_children":[2,4,6,8,10,12,14,16,18,20,22,24,26,28,30,32,34,36,38,40,42,44,46,48,50,52,-1,54,56,58,-1,60,62,-1,64,66,-1,68,-1,70,72,74,76,-1,78,80,82,84,86,-1,-1,88,-1,-1,90,-1,-1,92,94,-1,-1,-1,-1,-1,-1,-1,-1,-1,-1,-1,-1,-1,-1,-1,-1,-1,-1,-1,-1,-1,-1,-1,-1,-1,-1,-1,-1,-1,-1,-1,-1,-1,-1,-1,-1],"split_conditions":[1.0868129E-1,-7.028864E-1,1.0308231E0,9.158619E-1,-3.248165E-1,5.5264574E-1,1.8530786E0,-9.121558E-1,1.8482875E0,6.1008555E-1,-1.0272533E0,5.72896E-1,1.0676228E0,1.3620726E0,2.3125563E0,-9.1227144E-1,9.3092227E-1,1.399496E0,2.3550131E0,-3.0641475E-1,-1.3669188E0,-1.5771054E-1,8.743835E-2,5.4595524E-1,7.126678E-1,1.0335838E0,1.9980725E-2,-1.0657284E0,3.9085764E-1,1.227184E-1,5.2125152E-2,-4.8856728E-2,-1.7694623E0,-1.8951325E-2,1.322392E0,-2.4184382E0,-8.303688E-3,-3.3394676E-1,4.746811E-3,1.4483316E0,-1.0118654E0,-3.205424E-1,-1.4018536E-1,2.1061713E-2,-1.661642E0,1.1946087E-2,5.637905E-1,2.2679524E0,5.776868E-1,7.7323923E-3,1.195725E-2,8.6577725E-1,1.8616494E-2,2.9582536E-2,4.140755E-1,2.5000224E-2,3.458427E-2,-1.999992E0,6.8965274E-1,-3.251618E-2,-2.3352059E-2,-7.856778E-3,-1.8487867E-2,-1.2384465E-2,-6.366909E-4,-3.3828288E-3,-1.2274069E-2,-4.0143318E-4,-4.072337E-3,-1.3601315E-2,-3.1542329E-3,1.8581247E-3,-6.4372704E-3,3.8877057E-4,6.7236456E-3,-7.5695175E-3,-3.227073E-3,6.1016697E-3,5.6140125E-4,-6.740996E-3,-2.1536897E-3,-1.8682681E-3,2.0540955E-3,1.9478789E-3,1.1499041E-2,5.350043E-3,1.0352126E-2,9.668953E-3,1.2689254E-2,1.6519843E-2,2.438814E-2,8.406079E-3,2.9980991E-2,4.555369E-2,1.771667E-2],"split_indices":[35,35,35,2,35,35,35,0,2,32,32,0,0,35,1,1,32,2,2,1,24,1,0,1,0,1,0,32,32,32,0,2,32,0,38,48,0,46,0,2,0,0,0,0,32,1,32,43,1,0,0,0,0,0,32,0,0,5,32,0,0,0,0,0,0,0,0,0,0,0,0,0,0,0,0,0,0,0,0,0,0,0,0,0,0,0,0,0,0,0,0,0,0,0,0],"split_type":[0,0,0,0,0,0,0,0,0,0,0,0,0,0,0,0,0,0,0,0,0,0,0,0,0,0,0,0,0,0,0,0,0,0,0,0,0,0,0,0,0,0,0,0,0,0,0,0,0,0,0,0,0,0,0,0,0,0,0,0,0,0,0,0,0,0,0,0,0,0,0,0,0,0,0,0,0,0,0,0,0,0,0,0,0,0,0,0,0,0,0,0,0,0,0],"sum_hessian":[1.525E3,8.21E2,7.04E2,3.57E2,4.64E2,4.53E2,2.51E2,2.92E2,6.5E1,2.09E2,2.55E2,2.44E2,2.09E2,1.9E2,6.1E1,2.07E2,8.5E1,5.1E1,1.4E1,1.63E2,4.6E1,3E1,2.25E2,1.98E2,4.6E1,1.87E2,2.2E1,1.13E2,7.7E1,4.8E1,1.3E1,1.71E2,3.6E1,4E1,4.5E1,3.7E1,1.4E1,1.1E1,3E0,1.37E2,2.6E1,2E0,4.4E1,1E0,2.9E1,1.78E2,4.7E1,1.7E2,2.8E1,2.4E1,2.2E1,1.59E2,2.8E1,1.2E1,1.01E2,6.7E1,1E1,3.2E1,1.6E1,8.4E1,8.7E1,1E1,2.6E1,4.4E1,1E0,1E0,3.6E1,3E0,8E0,1.29E2,8E0,4E0,2.2E1,1E0,1E0,3.4E1,1E1,4E0,2.5E1,1.35E2,4.3E1,1.5E1,3.2E1,1.67E2,3E0,7E0,2.1E1,1.07E2,5.2E1,7.8E1,2.3E1,1E0,3.1E1,1.3E1,3E0],"tree_param":{"num_deleted":"0","num_feature":"92","num_nodes":"95","size_leaf_vector":"1"}},{"base_weights":[1.0223164E-3,-9.991307E-2,1.5568778E-1,-1.769885E-1,-3.942649E-2,1.05856314E-1,2.7128458E-1,-2.9798248E-1,-1.6070043E-1,-8.261677E-2,-1.0274738E-2,9.081769E-2,1.970977E-1,2.3860022E-1,3.8800207E-1,-4.8043522E-1,-2.288876E-1,-1.7713901E-1,-7.3833406E-2,-8.861708E-2,6.0569856E-2,-1.980198E-2,3.7559062E-2,5.705774E-2,1.1205919E-1,1.6339779E-1,2.5464267E-2,2.2494404E-1,3.493402E-2,3.2334936E-1,4.757389E-2,-5.829645E-2,-2.2030132E-2,-2.3696817E-1,-6.101187E-3,-2.0352592E-1,-1.2923166E-1,-9.0343855E-2,-1.638839E-3,-9.863293E-2,-4.305874E-2,1.7597394E-2,2.4581307E-3,-3.7238635E-2,6.2924996E-3,2.1984892E-2,6.1378494E-2,4.3390412E-2,8.88913E-2,9.81478E-2,1.410634E-1,9.899451E-3,1.7640503E-2,2.7702105E-1,1.9814207E-1,1.6387923E-2,3.3764627E-2,-2.451075E-2,-1.1464632E-2,-2.1772884E-2,-1.2526341E-2,-1.46165E-2,-7.920392E-3,-9.792632E-3,-5.9435926E-3,-2.1699786E-3,4.3908E-3,-5.78798E-3,-1.1703725E-2,-5.062078E-3,-8.373509E-4,-3.3527717E-3,3.7829445E-3,-4.9703354E-3,-9.819373E-4,2.9467456E-3,-9.014387E-4,8.8491384E-4,2.7311346E-3,4.865249E-3,8.982599E-3,3.0290517E-3,9.247619E-3,6.7919875E-3,1.0326248E-2,8.3575165E-3,1.3382194E-2,1.555388E-2,9.402215E-3,2.2835357E-2,3.2922473E-2,1.565157E-2,2.1536581E-2],"categories":[],"categories_nodes":[],"categories_segments":[],"categories_sizes":[],"default_left":[0,0,0,0,0,0,0,0,0,0,0,0,0,0,0,0,0,0,0,0,0,0,0,0,0,0,0,0,0,0,0,0,0,0,0,0,0,0,0,0,0,0,0,0,0,0,0,0,0,0,0,0,0,0,0,0,0,0,0,0,0,0,0,0,0,0,0,0,0,0,0,0,0,0,0,0,0,0,0,0,0,0,0,0,0,0,0,0,0,0,0,0,0],"id":18,"left_children":[1,3,5,7,9,11,13,15,17,19,21,23,25,27,29,31,33,35,37,39,41,43,45,47,49,51,-1,53,-1,55,-1,-1,-1,57,-1,59,61,63,65,67,69,-1,71,73,75,77,79,81,83,85,87,-1,-1,89,91,-1,-1,-1,-1,-1,-1,-1,-1,-1,-1,-1,-1,-1,-1,-1,-1,-1,-1,-1,-1,-1,-1,-1,-1,-1,-1,-1,-1,-1,-1,-1,-1,-1,-1,-1,-1,-1,-1],"loss_changes":[2.3838276E1,4.3007374E0,3.4447794E0,7.522421E-1,6.526096E-1,5.6251764E-1,5.97908E-1,4.8254204E-1,5.0099087E-1,1.8493295E-1,1.4247397E-1,2.5535178E-1,7.2808504E-2,1.391859E-1,6.172228E-2,1.9162846E-1,3.4377217E-2,3.5546398E-1,7.017782E-2,8.747041E-2,5.992441E-2,1.18534446E-1,1.7940931E-2,5.8359385E-2,7.613301E-2,1.6045213E-2,0E0,1.2795591E-1,0E0,1.6653538E-3,0E0,0E0,0E0,5.7502985E-3,0E0,1.8725634E-1,8.1608295E-2,5.4288507E-3,1.1917347E-2,1.1623144E-1,9.5431805E-3,0E0,1.0178402E-2,5.2828595E-2,3.7512954E-2,2.0672306E-3,2.8701946E-3,6.278674E-2,5.64456E-3,6.8875074E-2,3.3041835E-2,0E0,0E0,3.1526566E-2,3.081894E-2,0E0,0E0,0E0,0E0,0E0,0E0,0E0,0E0,0E0,0E0,0E0,0E0,0E0,0E0,0E0,0E0,0E0,0E0,0E0,0E0,0E0,0E0,0E0,0E0,0E0,0E0,0E0,0E0,0E0,0E0,0E0,0E0,0E0,0E0,0E0,0E0,0E0,0E0],"parents":[2147483647,0,0,1,1,2,2,3,3,4,4,5,5,6,6,7,7,8,8,9,9,10,10,11,11,12,12,13,13,14,14,15,15,16,16,17,17,18,18,19,19,20,20,21,21,22,22,23,23,24,24,25,25,27,27,29,29,33,33,35,35,36,36,37,37,38,38,39,39,40,40,42,42,43,43,44,44,45,45,46,46,47,47,48,48,49,49,50,50,53,53,54,54],"right_children":[2,4,6,8,10,12,14,16,18,20,22,24,26,28,30,32,34,36,38,40,42,44,46,48,50,52,-1,54,-1,56,-1,-1,-1,58,-1,60,62,64,66,68,70,-1,72,74,76,78,80,82,84,86,88,-1,-1,90,92,-1,-1,-1,-1,-1,-1,-1,-1,-1,-1,-1,-1,-1,-1,-1,-1,-1,-1,-1,-1,-1,-1,-1,-1,-1,-1,-1,-1,-1,-1,-1,-1,-1,-1,-1,-1,-1,-1],"split_conditions":[2.96808E-1,-6.0241807E-1,1.224812E0,-1.3301378E0,-2.418173E-1,1.1813545E0,2.0808227E0,3.305397E-1,1.0592709E0,1.6590626E0,2.8994557E-1,5.5264574E-1,6.768967E-1,3.9085764E-1,2.3006663E0,4.74243E-2,1.7668391E0,-8.604864E-1,1.9745284E0,-2.2161923E-1,1.7291259E0,7.8831784E-2,4.0746492E-1,5.72896E-1,9.3234575E-1,2.9579522E-2,2.5464267E-2,-6.363604E-1,3.493402E-2,1.7512958E0,4.757389E-2,-5.829645E-2,-2.2030132E-2,1.6665097E-1,-6.101187E-3,-7.5953525E-1,-5.4950273E-1,1.6800524E0,2.3550131E0,-5.649252E-1,1.5740463E0,1.7597394E-2,1.8264303E0,3.3560234E-1,-9.0974104E-1,-5.571461E-1,1.6618022E0,5.776868E-1,7.0155686E-1,9.4277906E-1,-3.3323658E-1,9.899451E-3,1.7640503E-2,1.6071751E0,1.439385E0,1.6387923E-2,3.3764627E-2,-2.451075E-2,-1.1464632E-2,-2.1772884E-2,-1.2526341E-2,-1.46165E-2,-7.920392E-3,-9.792632E-3,-5.9435926E-3,-2.1699786E-3,4.3908E-3,-5.78798E-3,-1.1703725E-2,-5.062078E-3,-8.373509E-4,-3.3527717E-3,3.7829445E-3,-4.9703354E-3,-9.819373E-4,2.9467456E-3,-9.014387E-4,8.8491384E-4,2.7311346E-3,4.865249E-3,8.982599E-3,3.0290517E-3,9.247619E-3,6.7919875E-3,1.0326248E-2,8.3575165E-3,1.3382194E-2,1.555388E-2,9.402215E-3,2.2835357E-2,3.2922473E-2,1.565157E-2,2.1536581E-2],"split_indices":[35,35,1,88,35,0,35,66,2,2,0,35,32,32,35,5,48,0,2,0,2,1,0,0,1,32,0,32,0,1,0,0,0,47,0,1,0,2,2,32,32,0,2,32,32,41,32,1,0,0,32,0,0,1,0,0,0,0,0,0,0,0,0,0,0,0,0,0,0,0,0,0,0,0,0,0,0,0,0,0,0,0,0,0,0,0,0,0,0,0,0,0,0],"split_type":[0,0,0,0,0,0,0,0,0,0,0,0,0,0,0,0,0,0,0,0,0,0,0,0,0,0,0,0,0,0,0,0,0,0,0,0,0,0,0,0,0,0,0,0,0,0,0,0,0,0,0,0,0,0,0,0,0,0,0,0,0,0,0,0,0,0,0,0,0,0,0,0,0,0,0,0,0,0,0,0,0,0,0,0,0,0,0,0,0,0,0,0,0],"sum_hessian":[1.525E3,9.23E2,6.02E2,4.05E2,5.18E2,4.22E2,1.8E2,4.6E1,3.59E2,2.08E2,3.1E2,3.64E2,5.8E1,1.43E2,3.7E1,1.1E1,3.5E1,3.01E2,5.8E1,2E2,8E0,2.59E2,5.1E1,1.42E2,2.22E2,3.9E1,1.9E1,1.3E2,1.3E1,2.4E1,1.3E1,7E0,4E0,3.3E1,2E0,1.92E2,1.09E2,4.7E1,1.1E1,1.63E2,3.7E1,2E0,6E0,1.55E2,1.04E2,3.2E1,1.9E1,1.01E2,4.1E1,1.53E2,6.9E1,8E0,3.1E1,4.1E1,8.9E1,3E0,2.1E1,3E1,3E0,1.61E2,3.1E1,8E1,2.9E1,3.6E1,1.1E1,8E0,3E0,5.2E1,1.11E2,3E1,7E0,3E0,3E0,1.06E2,4.9E1,4.1E1,6.3E1,1E1,2.2E1,1.5E1,4E0,8.1E1,2E1,1.9E1,2.2E1,1.11E2,4.2E1,5.1E1,1.8E1,2.4E1,1.7E1,2.9E1,6E1],"tree_param":{"num_deleted":"0","num_feature":"92","num_nodes":"93","size_leaf_vector":"1"}},{"base_weights":[1.031574E-3,-9.627534E-2,1.3196832E-1,-1.6247956E-1,-4.354831E-2,8.705765E-2,2.4293888E-1,-1.8833435E-1,-9.542536E-2,-7.651041E-2,-1.4932549E-2,4.9071874E-2,1.2096703E-1,2.0552525E-1,3.2678992E-1,-2.2557378E-1,-1.3245647E-1,-1.09631315E-1,-2.1616252E-2,-8.210102E-2,4.0732615E-2,-2.3477493E-2,3.0589124E-2,3.9193828E-2,9.148297E-2,1.0447181E-1,1.8648969E-1,1.9616172E-1,3.001442E-2,2.8503558E-1,4.3169323E-2,-2.4806331E-1,-1.1535241E-1,-1.5672088E-1,-9.82636E-2,-1.2398533E-1,-8.4943315E-3,-3.8351793E-2,3.2913614E-2,-9.508721E-2,-4.9570173E-2,-4.963139E-3,1.6424235E-2,1.0768344E-2,-3.454918E-2,1.8396605E-2,5.953737E-2,2.782469E-2,7.98757E-2,7.7221743E-3,1.1951244E-2,1.375333E-1,9.4961904E-2,1.5385363E-1,2.3233572E-2,2.3858964E-2,1.7438701E-1,2.4098712E-1,3.4430566E-1,-4.5512296E-2,-2.3677224E-2,-4.712734E-3,-1.4710858E-2,-1.6491296E-2,-1.112669E-2,-1.1201902E-2,-6.203214E-3,-1.2699335E-2,-2.8512755E-3,-1.3746249E-3,-4.6049603E-3,4.06149E-3,1.05424224E-4,-5.5058E-3,-1.1676951E-2,-5.494935E-3,-1.0591944E-3,-2.5861931E-3,4.545509E-3,5.377796E-3,6.340571E-4,-4.951067E-3,-1.8630661E-3,2.1101153E-3,7.983387E-4,3.765611E-3,8.263991E-3,2.5506474E-3,1.2750595E-2,6.3568032E-3,1.0445596E-2,1.1027451E-2,1.5954096E-2,6.8711373E-3,1.0623566E-2,8.895741E-3,1.6291222E-2,1.3926479E-2,1.9296523E-2,1.3219628E-2,2.5361076E-2,1.51588265E-2,3.771183E-2],"categories":[],"categories_nodes":[],"categories_segments":[],"categories_sizes":[],"default_left":[0,0,0,0,0,0,0,0,0,0,0,0,0,0,0,0,0,0,0,0,0,0,0,0,0,0,0,0,0,0,0,0,0,0,0,0,0,0,0,0,0,0,0,0,0,0,0,0,0,0,0,0,0,0,0,0,0,0,0,0,0,0,0,0,0,0,0,0,0,0,0,0,0,0,0,0,0,0,0,0,0,0,0,0,0,0,0,0,0,0,0,0,0,0,0,0,0,0,0,0,0,0,0],"id":19,"left_children":[1,3,5,7,9,11,13,15,17,19,21,23,25,27,29,31,33,35,37,39,41,43,45,47,49,51,53,55,-1,57,-1,59,61,63,65,67,-1,69,71,73,75,77,-1,79,81,83,85,87,89,-1,-1,91,93,95,-1,-1,97,99,101,-1,-1,-1,-1,-1,-1,-1,-1,-1,-1,-1,-1,-1,-1,-1,-1,-1,-1,-1,-1,-1,-1,-1,-1,-1,-1,-1,-1,-1,-1,-1,-1,-1,-1,-1,-1,-1,-1,-1,-1,-1,-1,-1,-1],"loss_changes":[1.945555E1,3.0508232E0,3.223279E0,6.546936E-1,4.6009976E-1,5.9301853E-1,5.194874E-1,5.506811E-1,1.12968326E-1,1.5213346E-1,1.03019945E-1,8.899993E-2,2.4531603E-1,5.8071136E-2,1.2224102E-1,3.8286972E-1,7.918215E-2,2.2070408E-2,1.8601444E-2,8.695853E-2,6.289772E-2,8.454539E-2,1.3728701E-2,8.149323E-2,7.160157E-3,4.9192905E-2,3.6073446E-2,7.202768E-2,0E0,2.9289246E-2,0E0,2.1253586E-1,5.8064222E-2,5.854249E-3,1.7970175E-2,1.2461305E-2,0E0,2.208123E-3,1.1839722E-3,1.2723148E-1,1.2836918E-2,1.0658675E-2,0E0,1.0133042E-2,3.9089262E-2,7.0459675E-4,2.9542558E-3,2.9792592E-2,8.99294E-3,0E0,0E0,7.602632E-3,3.916323E-2,3.731668E-3,0E0,0E0,2.8589725E-2,4.9271584E-3,4.401028E-2,0E0,0E0,0E0,0E0,0E0,0E0,0E0,0E0,0E0,0E0,0E0,0E0,0E0,0E0,0E0,0E0,0E0,0E0,0E0,0E0,0E0,0E0,0E0,0E0,0E0,0E0,0E0,0E0,0E0,0E0,0E0,0E0,0E0,0E0,0E0,0E0,0E0,