{"learner":{"attributes":{"scikit_learn":"{\"_estimator_type\": \"regressor\"}"},"feature_names":[],"feature_types":[],"gradient_booster":{"model":{"cats":{"enc":[],"feature_segments":[],"sorted_idx":[]},"gbtree_model_param":{"num_parallel_tree":"1","num_trees":"100"},"iteration_indptr":[0,1,2,3,4,5,6,7,8,9,10,11,12,13,14,15,16,17,18,19,20,21,22,23,24,25,26,27,28,29,30,31,32,33,34,35,36,37,38,39,40,41,42,43,44,45,46,47,48,49,50,51,52,53,54,55,56,57,58,59,60,61,62,63,64,65,66,67,68,69,70,71,72,73,74,75,76,77,78,79,80,81,82,83,84,85,86,87,88,89,90,91,92,93,94,95,96,97,98,99,100],"tree_info":[0,0,0,0,0,0,0,0,0,0,0,0,0,0,0,0,0,0,0,0,0,0,0,0,0,0,0,0,0,0,0,0,0,0,0,0,0,0,0,0,0,0,0,0,0,0,0,0,0,0,0,0,0,0,0,0,0,0,0,0,0,0,0,0,0,0,0,0,0,0,0,0,0,0,0,0,0,0,0,0,0,0,0,0,0,0,0,0,0,0,0,0,0,0,0,0,0,0,0,0],"trees":[{"base_weights":[4.04631E-9,-6.705792E-1,9.4707394E-1,-1.1943524E0,-3.1027034E-1,5.985838E-1,1.6123887E0,-1.2991674E0,-6.0703003E-1,-5.568912E-1,-5.68434E-2,3.374203E-1,8.286772E-1,1.354373E0,1.9896643E-1,-1.6006703E0,-1.0639454E0,-7.432378E-2,-2.9549667E-1,-6.477937E-1,-4.2761335E-1,-1.51783E-1,3.8526844E-2,2.6141992E-1,4.500181E-1,6.5838054E-2,9.3851075E-2,1.223132E-1,1.4914766E-1,-1.6677221E0,-1.1384417E-1,-1.1231434E0,-8.025323E-1,-3.7998793E-1,1.7076401E-2,-6.9497085E-1,-1.5799685E-1,-4.5347E-1,-2.408995E-1,-1.9911443E-1,-4.9187418E-2,9.243174E-3,1.7690411E-1,2.1671635E-1,3.883067E-2,4.18793E-1,5.6284785E-2,-1.8559535E-1,-1.4737515E-1,-1.21362105E-1,-1.0019398E-1,-8.1243046E-2,-2.2804927E-2,-1.5715985E-2,-4.0217996E-2,4.9675056E-3,-5.6659104E-3,-7.1880214E-2,-4.4527944E-2,-2.2221586E-2,7.4159363E-3,-4.8069254E-2,-2.9388536E-2,-2.7526516E-2,-1.1024201E-2,-2.534166E-2,-3.9224396E-3,-9.353121E-3,3.148843E-3,1.3390821E-2,-3.093777E-3,1.1956808E-2,2.118112E-2,1.7721549E-2,3.3255022E-2,3.5012394E-2,4.7477134E-2],"categories":[],"categories_nodes":[],"categories_segments":[],"categories_sizes":[],"default_left":[0,0,0,0,0,0,0,0,0,0,0,0,0,0,0,0,0,0,0,0,0,0,0,0,0,0,0,0,0,0,0,0,0,0,0,0,0,0,0,0,0,0,0,0,0,0,0,0,0,0,0,0,0,0,0,0,0,0,0,0,0,0,0,0,0,0,0,0,0,0,0,0,0,0,0,0,0],"id":0,"left_children":[1,3,5,7,9,11,13,15,17,19,21,23,25,27,-1,29,31,-1,33,35,37,39,41,43,45,-1,-1,-1,-1,47,-1,49,51,53,55,57,59,61,63,65,67,69,71,73,-1,75,-1,-1,-1,-1,-1,-1,-1,-1,-1,-1,-1,-1,-1,-1,-1,-1,-1,-1,-1,-1,-1,-1,-1,-1,-1,-1,-1,-1,-1,-1,-1],"loss_changes":[9.6977954E2,1.6834518E2,1.4579944E2,2.1619324E1,3.3156044E1,2.4778763E1,1.842871E1,2.014032E1,2.1990757E0,2.8841934E0,2.3871589E0,1.5681801E0,3.5157318E0,5.508728E-1,0E0,2.2235107E0,1.8222504E0,0E0,5.082729E-1,3.4949265E0,4.4112778E-1,6.31197E-1,5.332545E-1,5.9652233E-1,3.9087296E-2,0E0,0E0,0E0,0E0,1.4270935E0,0E0,3.3026123E-1,1.9432068E-2,1.0968447E-2,1.4832934E-2,5.248947E-1,2.4011198E-1,2.8881454E-1,4.1496396E-2,7.714741E-1,1.567765E-1,5.551503E-1,2.070713E-2,3.5744095E-1,0E0,8.363056E-2,0E0,0E0,0E0,0E0,0E0,0E0,0E0,0E0,0E0,0E0,0E0,0E0,0E0,0E0,0E0,0E0,0E0,0E0,0E0,0E0,0E0,0E0,0E0,0E0,0E0,0E0,0E0,0E0,0E0,0E0,0E0],"parents":[2147483647,0,0,1,1,2,2,3,3,4,4,5,5,6,6,7,7,8,8,9,9,10,10,11,11,12,12,13,13,15,15,16,16,18,18,19,19,20,20,21,21,22,22,23,23,24,24,29,29,31,31,32,32,33,33,34,34,35,35,36,36,37,37,38,38,39,39,40,40,41,41,42,42,43,43,45,45],"right_children":[2,4,6,8,10,12,14,16,18,20,22,24,26,28,-1,30,32,-1,34,36,38,40,42,44,46,-1,-1,-1,-1,48,-1,50,52,54,56,58,60,62,64,66,68,70,72,74,-1,76,-1,-1,-1,-1,-1,-1,-1,-1,-1,-1,-1,-1,-1,-1,-1,-1,-1,-1,-1,-1,-1,-1,-1,-1,-1,-1,-1,-1,-1,-1,-1],"split_conditions":[2.0329896E-1,-7.499437E-1,1.0977054E0,9.6823335E-1,-2.4450079E-1,5.8416826E-1,1.6479197E0,-1.2349381E0,1.5971481E0,-4.622863E-1,-3.0932995E-4,4.1596708E-1,8.122331E-1,1.3305938E0,1.9896643E-1,3.9521852E-1,-7.35626E-1,-7.432378E-2,2.0513315E0,1.66833E0,-1.41623E-1,5.2297805E-2,2.9433265E-1,4.8662615E-1,6.717648E-1,6.5838054E-2,9.3851075E-2,1.223132E-1,1.4914766E-1,-1.582693E0,-1.1384417E-1,-9.626742E-1,-3.7559226E-1,-1.6112775E0,-1.346554E0,-3.599562E-1,7.9801655E-1,-1.49732E-1,-4.1254703E-2,6.43947E-2,1.4891061E-1,-6.7808455E-1,3.5730717E-1,4.2592353E-1,3.883067E-2,5.525357E-1,5.6284785E-2,-1.8559535E-1,-1.4737515E-1,-1.21362105E-1,-1.0019398E-1,-8.1243046E-2,-2.2804927E-2,-1.5715985E-2,-4.0217996E-2,4.9675056E-3,-5.6659104E-3,-7.1880214E-2,-4.4527944E-2,-2.2221586E-2,7.4159363E-3,-4.8069254E-2,-2.9388536E-2,-2.7526516E-2,-1.1024201E-2,-2.534166E-2,-3.9224396E-3,-9.353121E-3,3.148843E-3,1.3390821E-2,-3.093777E-3,1.1956808E-2,2.118112E-2,1.7721549E-2,3.3255022E-2,3.5012394E-2,4.7477134E-2],"split_indices":[35,35,35,2,35,35,35,35,2,35,35,35,35,35,0,2,0,0,2,2,0,0,0,0,0,0,0,0,0,35,0,35,0,48,1,0,54,1,0,1,0,32,0,1,0,1,0,0,0,0,0,0,0,0,0,0,0,0,0,0,0,0,0,0,0,0,0,0,0,0,0,0,0,0,0,0,0],"split_type":[0,0,0,0,0,0,0,0,0,0,0,0,0,0,0,0,0,0,0,0,0,0,0,0,0,0,0,0,0,0,0,0,0,0,0,0,0,0,0,0,0,0,0,0,0,0,0,0,0,0,0,0,0,0,0,0,0,0,0,0,0,0,0,0,0,0,0,0,0,0,0,0,0,0,0,0,0],"sum_hessian":[1.525E3,8.93E2,6.32E2,3.63E2,5.3E2,4.16E2,2.16E2,3.07E2,5.6E1,2.68E2,2.62E2,1.96E2,2.2E2,1.31E2,8.5E1,1.32E2,1.75E2,3.8E1,1.8E1,1.55E2,1.13E2,1.31E2,1.31E2,1.19E2,7.7E1,8.9E1,1.31E2,7.2E1,5.9E1,1.13E2,1.9E1,1.4E2,3.5E1,1.4E1,4E0,1.41E2,1.4E1,9.8E1,1.5E1,8.9E1,4.2E1,1.09E2,2.2E1,9E1,2.9E1,6.4E1,1.3E1,5.3E1,6E1,7.5E1,6.5E1,3.4E1,1E0,2E0,1.2E1,3E0,1E0,1.27E2,1.4E1,1.1E1,3E0,8.2E1,1.6E1,1.1E1,4E0,6.6E1,2.3E1,2.7E1,1.5E1,2.6E1,8.3E1,1E1,1.2E1,6.9E1,2.1E1,3.2E1,3.2E1],"tree_param":{"num_deleted":"0","num_feature":"92","num_nodes":"77","size_leaf_vector":"1"}},{"base_weights":[-1.860623E-4,-6.097326E-1,8.468836E-1,-1.0773989E0,-2.843226E-1,5.20146E-1,1.429601E0,-1.1717585E0,-5.486245E-1,-5.0212115E-1,-5.5248126E-2,2.9953253E-1,7.319373E-1,1.1755667E0,1.757182E0,-1.4439628E0,-9.594009E-1,-6.926607E-2,-3.055858E-1,-5.8385545E-1,-3.8586965E-1,-1.3687341E-1,3.0702557E-2,2.213995E-1,3.951729E-1,5.93274E-2,8.298354E-2,1.0549378E-1,1.2802117E-1,1.5275525E-1,1.9021265E-1,-1.5164665E0,-1.0872568E-1,-1.0073367E0,-7.026899E-2,-3.739273E-1,1.5229079E-2,-6.280104E-1,-1.5824884E-1,-4.1416144E-1,-2.4085543E-1,-1.6489907E-1,3.113347E-3,3.3233548E-3,1.469257E-1,1.7384286E-1,3.378308E-1,3.6626127E-1,4.9777813E-2,-1.7237568E-1,-1.3470207E-1,-1.0403776E-1,-7.8540616E-2,-3.997248E-2,-1.7725555E-2,4.594942E-3,-5.3826147E-3,-6.596788E-2,-4.5468166E-2,4.258611E-3,-2.2874266E-2,-4.4671286E-2,-2.8732447E-2,-2.676971E-2,-1.0142265E-2,-1.9438779E-2,-1.3432738E-3,-3.3325856E-3,7.5602583E-3,-5.290141E-3,8.624269E-3,9.49962E-3,1.7723275E-2,1.2656144E-2,2.5315467E-2,2.9100036E-2,4.2517524E-2,2.9592667E-2,4.251065E-2],"categories":[],"categories_nodes":[],"categories_segments":[],"categories_sizes":[],"default_left":[0,0,0,0,0,0,0,0,0,0,0,0,0,0,0,0,0,0,0,0,0,0,0,0,0,0,0,0,0,0,0,0,0,0,0,0,0,0,0,0,0,0,0,0,0,0,0,0,0,0,0,0,0,0,0,0,0,0,0,0,0,0,0,0,0,0,0,0,0,0,0,0,0,0,0,0,0,0,0],"id":1,"left_children":[1,3,5,7,9,11,13,15,17,19,21,23,25,27,29,31,33,-1,35,37,39,41,43,45,47,-1,-1,-1,-1,-1,-1,49,-1,51,-1,53,55,57,59,61,63,65,67,69,71,73,75,77,-1,-1,-1,-1,-1,-1,-1,-1,-1,-1,-1,-1,-1,-1,-1,-1,-1,-1,-1,-1,-1,-1,-1,-1,-1,-1,-1,-1,-1,-1,-1],"loss_changes":[7.8843353E2,1.3483246E2,1.2091928E2,1.751889E1,2.61656E1,1.8984337E1,1.6990967E1,1.6418488E1,1.7836971E0,2.3306808E0,1.8072498E0,1.4294624E0,2.3448257E0,3.157196E-1,3.5617065E-1,1.7909241E0,1.4579468E0,0E0,5.09969E-1,2.8322716E0,3.6795807E-1,5.183785E-1,4.0045595E-1,5.7249737E-1,8.466625E-2,0E0,0E0,0E0,0E0,0E0,0E0,1.4715118E0,0E0,2.5346375E-1,0E0,2.5545597E-2,1.3080281E-2,4.7401047E-1,2.3626325E-1,2.5974846E-1,5.1444173E-2,4.8870873E-1,6.327286E-2,4.8476064E-1,2.0935476E-2,2.7920842E-1,7.165909E-3,1.8047523E-1,0E0,0E0,0E0,0E0,0E0,0E0,0E0,0E0,0E0,0E0,0E0,0E0,0E0,0E0,0E0,0E0,0E0,0E0,0E0,0E0,0E0,0E0,0E0,0E0,0E0,0E0,0E0,0E0,0E0,0E0,0E0],"parents":[2147483647,0,0,1,1,2,2,3,3,4,4,5,5,6,6,7,7,8,8,9,9,10,10,11,11,12,12,13,13,14,14,15,15,16,16,18,18,19,19,20,20,21,21,22,22,23,23,24,24,31,31,33,33,35,35,36,36,37,37,38,38,39,39,40,40,41,41,42,42,43,43,44,44,45,45,46,46,47,47],"right_children":[2,4,6,8,10,12,14,16,18,20,22,24,26,28,30,32,34,-1,36,38,40,42,44,46,48,-1,-1,-1,-1,-1,-1,50,-1,52,-1,54,56,58,60,62,64,66,68,70,72,74,76,78,-1,-1,-1,-1,-1,-1,-1,-1,-1,-1,-1,-1,-1,-1,-1,-1,-1,-1,-1,-1,-1,-1,-1,-1,-1,-1,-1,-1,-1,-1,-1],"split_conditions":[1.9497952E-1,-7.499437E-1,1.0723109E0,9.6823335E-1,-2.4450079E-1,5.8416826E-1,1.6082336E0,-1.2349381E0,1.5324203E0,-4.622863E-1,-3.0932995E-4,3.9695296E-1,8.122331E-1,1.2755644E0,1.8330711E0,3.2719797E-1,-6.8038106E-1,-6.926607E-2,2.0513315E0,1.5971481E0,-1.7593516E-1,1.20648056E-1,2.587836E-1,4.4226968E-1,6.3720447E-1,5.93274E-2,8.298354E-2,1.0549378E-1,1.2802117E-1,1.5275525E-1,1.9021265E-1,-1.6085129E0,-1.0872568E-1,-7.118833E-1,-7.026899E-2,1.8633832E0,-1.346554E0,-4.0297884E-1,-4.7160304E-1,-1.847838E-1,-4.1254703E-2,1.0952958E-1,2.108674E-1,1.7520192E-1,3.491211E-1,3.7514195E-1,5.848797E-1,5.4151887E-1,4.9777813E-2,-1.7237568E-1,-1.3470207E-1,-1.0403776E-1,-7.8540616E-2,-3.997248E-2,-1.7725555E-2,4.594942E-3,-5.3826147E-3,-6.596788E-2,-4.5468166E-2,4.258611E-3,-2.2874266E-2,-4.4671286E-2,-2.8732447E-2,-2.676971E-2,-1.0142265E-2,-1.9438779E-2,-1.3432738E-3,-3.3325856E-3,7.5602583E-3,-5.290141E-3,8.624269E-3,9.49962E-3,1.7723275E-2,1.2656144E-2,2.5315467E-2,2.9100036E-2,4.2517524E-2,2.9592667E-2,4.251065E-2],"split_indices":[35,35,35,2,35,35,35,35,2,35,35,35,35,35,35,2,0,0,2,2,0,0,0,0,0,0,0,0,0,0,0,35,0,1,0,2,1,0,39,1,0,1,0,1,0,1,0,1,0,0,0,0,0,0,0,0,0,0,0,0,0,0,0,0,0,0,0,0,0,0,0,0,0,0,0,0,0,0,0],"split_type":[0,0,0,0,0,0,0,0,0,0,0,0,0,0,0,0,0,0,0,0,0,0,0,0,0,0,0,0,0,0,0,0,0,0,0,0,0,0,0,0,0,0,0,0,0,0,0,0,0,0,0,0,0,0,0,0,0,0,0,0,0,0,0,0,0,0,0,0,0,0,0,0,0,0,0,0,0,0,0],"sum_hessian":[1.525E3,8.87E2,6.38E2,3.63E2,5.24E2,4.1E2,2.28E2,3.07E2,5.6E1,2.68E2,2.56E2,2.02E2,2.08E2,1.31E2,9.7E1,1.32E2,1.75E2,3.4E1,2.2E1,1.55E2,1.13E2,1.31E2,1.25E2,1.13E2,8.9E1,8.9E1,1.19E2,6.6E1,6.5E1,4.2E1,5.5E1,1.07E2,2.5E1,1.45E2,3E1,1.8E1,4E0,1.4E2,1.5E1,9.3E1,2E1,1.09E2,2.2E1,1.02E2,2.3E1,8.2E1,3.1E1,7.3E1,1.6E1,4.4E1,6.3E1,1.23E2,2.2E1,1.5E1,3E0,3E0,1E0,1.16E2,2.4E1,4E0,1.1E1,7.2E1,2.1E1,1.6E1,4E0,9.1E1,1.8E1,1.5E1,7E0,6.1E1,4.1E1,1E1,1.3E1,5.3E1,2.9E1,2.3E1,8E0,3.6E1,3.7E1],"tree_param":{"num_deleted":"0","num_feature":"92","num_nodes":"79","size_leaf_vector":"1"}},{"base_weights":[-2.149736E-4,-5.454969E-1,7.6989913E-1,-9.7184694E-1,-2.52207E-1,4.7439238E-1,1.2891582E0,-1.0685056E0,-5.506162E-1,-4.528026E-1,-4.6076145E-2,2.7568123E-1,6.594245E-1,1.0346397E-1,1.5550953E0,-1.2802118E0,-8.3452266E-1,-6.840173E-2,-2.9855213E-1,-5.263036E-1,-3.4825036E-1,-1.2331148E-1,3.1508252E-2,2.2064692E-1,3.8157287E-1,5.465545E-1,7.599181E-2,1.3620152E-1,1.7169581E-1,-1.5021439E-1,-1.1768434E0,-8.65917E-2,-5.6840044E-2,-3.6439452E-2,-1.834512E-2,-5.6455845E-1,-1.2907033E-1,-3.735262E-1,-2.1852759E-1,-1.6392446E-1,-3.543988E-2,5.3667366E-3,1.3787878E-1,1.9037719E-1,3.4258626E-2,3.841536E-1,1.0691284E-2,5.1390994E-1,6.795474E-2,-1.2113392E-1,-8.799141E-2,-9.3361195E-3,4.2503215E-3,-6.037662E-2,-4.4552866E-2,-1.8540014E-2,7.2186664E-3,-3.9499305E-2,-2.2264471E-2,-2.4250207E-2,-9.330883E-3,-2.1670762E-2,-4.5425124E-3,1.067314E-2,-5.275825E-3,1.13121E-2,-3.061761E-3,1.0618304E-2,1.9592132E-2,1.614154E-2,2.9625446E-2,1.0691284E-2,3.86815E-2,4.694377E-2,6.371965E-2],"categories":[],"categories_nodes":[],"categories_segments":[],"categories_sizes":[],"default_left":[0,0,0,0,0,0,0,0,0,0,0,0,0,0,0,0,0,0,0,0,0,0,0,0,0,0,0,0,0,0,0,0,0,0,0,0,0,0,0,0,0,0,0,0,0,0,0,0,0,0,0,0,0,0,0,0,0,0,0,0,0,0,0,0,0,0,0,0,0,0,0,0,0,0,0],"id":2,"left_children":[1,3,5,7,9,11,13,15,17,19,21,23,25,-1,27,29,31,-1,33,35,37,39,41,43,45,47,-1,-1,-1,-1,49,-1,-1,-1,51,53,55,57,59,61,63,65,67,69,-1,71,-1,73,-1,-1,-1,-1,-1,-1,-1,-1,-1,-1,-1,-1,-1,-1,-1,-1,-1,-1,-1,-1,-1,-1,-1,-1,-1,-1,-1],"loss_changes":[6.412321E2,1.1154437E2,9.651883E1,1.4232147E1,2.1935425E1,1.47092285E1,1.3891113E1,1.3544617E1,2.14958E0,1.8838959E0,1.5798488E0,1.063859E0,1.9552917E0,0E0,1.0992737E0,1.7421722E0,7.0253754E-1,0E0,4.7300196E-1,2.2977257E0,2.921629E-1,4.652624E-1,3.6631066E-1,4.220004E-1,5.712509E-3,9.360695E-2,0E0,0E0,0E0,0E0,5.0567627E-2,0E0,0E0,0E0,3.1355772E-2,3.9370346E-1,1.8343495E-1,2.165184E-1,4.0415645E-2,5.530853E-1,1.1150449E-1,4.183524E-1,2.702877E-2,2.833507E-1,0E0,6.603241E-3,0E0,1.7239952E-1,0E0,0E0,0E0,0E0,0E0,0E0,0E0,0E0,0E0,0E0,0E0,0E0,0E0,0E0,0E0,0E0,0E0,0E0,0E0,0E0,0E0,0E0,0E0,0E0,0E0,0E0,0E0],"parents":[2147483647,0,0,1,1,2,2,3,3,4,4,5,5,6,6,7,7,8,8,9,9,10,10,11,11,12,12,14,14,15,15,16,16,18,18,19,19,20,20,21,21,22,22,23,23,24,24,25,25,30,30,34,34,35,35,36,36,37,37,38,38,39,39,40,40,41,41,42,42,43,43,45,45,47,47],"right_children":[2,4,6,8,10,12,14,16,18,20,22,24,26,-1,28,30,32,-1,34,36,38,40,42,44,46,48,-1,-1,-1,-1,50,-1,-1,-1,52,54,56,58,60,62,64,66,68,70,-1,72,-1,74,-1,-1,-1,-1,-1,-1,-1,-1,-1,-1,-1,-1,-1,-1,-1,-1,-1,-1,-1,-1,-1,-1,-1,-1,-1,-1,-1],"split_conditions":[2.0329896E-1,-7.499437E-1,1.0723109E0,8.122903E-1,-2.4450079E-1,5.8416826E-1,1.5013678E0,-1.1288567E0,1.4588851E0,-4.622863E-1,-3.0932995E-4,4.4201422E-1,8.477469E-1,1.0346397E-1,1.781774E0,-1.7739068E0,-6.351489E-1,-6.840173E-2,1.9775109E0,1.66833E0,-1.7593516E-1,5.2297805E-2,2.587836E-1,5.375728E-1,2.041869E0,9.2007077E-1,7.599181E-2,1.3620152E-1,1.7169581E-1,-1.5021439E-1,5.80795E-1,-8.65917E-2,-5.6840044E-2,-3.6439452E-2,2.171379E0,-4.4152796E-1,7.9801655E-1,-1.4052755E-1,-4.1254703E-2,3.27249E-2,-9.731855E-1,-6.7808455E-1,4.0456077E-1,4.6444732E-1,3.4258626E-2,-2.2898748E0,1.0691284E-2,8.196293E-1,6.795474E-2,-1.2113392E-1,-8.799141E-2,-9.3361195E-3,4.2503215E-3,-6.037662E-2,-4.4552866E-2,-1.8540014E-2,7.2186664E-3,-3.9499305E-2,-2.2264471E-2,-2.4250207E-2,-9.330883E-3,-2.1670762E-2,-4.5425124E-3,1.067314E-2,-5.275825E-3,1.13121E-2,-3.061761E-3,1.0618304E-2,1.9592132E-2,1.614154E-2,2.9625446E-2,1.0691284E-2,3.86815E-2,4.694377E-2,6.371965E-2],"split_indices":[35,35,35,2,35,35,35,35,2,35,35,35,35,0,1,37,0,0,2,2,0,0,0,0,47,0,0,0,0,0,2,0,0,0,2,0,54,1,0,1,49,32,0,1,0,60,0,1,0,0,0,0,0,0,0,0,0,0,0,0,0,0,0,0,0,0,0,0,0,0,0,0,0,0,0],"split_type":[0,0,0,0,0,0,0,0,0,0,0,0,0,0,0,0,0,0,0,0,0,0,0,0,0,0,0,0,0,0,0,0,0,0,0,0,0,0,0,0,0,0,0,0,0,0,0,0,0,0,0,0,0,0,0,0,0,0,0,0,0,0,0,0,0,0,0,0,0,0,0,0,0,0,0],"sum_hessian":[1.525E3,8.93E2,6.32E2,3.63E2,5.3E2,4.04E2,2.28E2,2.94E2,6.9E1,2.68E2,2.62E2,1.96E2,2.08E2,1.19E2,1.09E2,1.52E2,1.42E2,4.4E1,2.5E1,1.55E2,1.13E2,1.31E2,1.31E2,1.31E2,6.5E1,1.01E2,1.07E2,5.4E1,5.5E1,4.4E1,1.08E2,1.25E2,1.7E1,2E1,5E0,1.41E2,1.4E1,9.3E1,2E1,8.9E1,4.2E1,1.06E2,2.5E1,1.07E2,2.4E1,6.4E1,1E0,8.5E1,1.6E1,9.4E1,1.4E1,2E0,3E0,1.03E2,3.8E1,1.1E1,3E0,8E1,1.3E1,1.6E1,4E0,6.1E1,2.8E1,4E0,3.8E1,2.6E1,8E1,1.8E1,7E0,8.6E1,2.1E1,1E0,6.3E1,6.6E1,1.9E1],"tree_param":{"num_deleted":"0","num_feature":"92","num_nodes":"75","size_leaf_vector":"1"}},{"base_weights":[-1.9386383E-4,-5.039469E-1,6.776677E-1,-8.763455E-1,-2.3872855E-1,3.7475073E-1,1.1037292E0,-9.5315826E-1,-4.4591272E-1,-4.0830892E-1,-5.1561806E-2,2.153554E-1,5.313641E-1,8.9282334E-1,1.4023848E0,-1.176927E0,-7.7864456E-1,-5.377654E-1,-1.981556E-1,-4.5227915E-1,-2.6621446E-1,-1.1113803E-1,1.7873485E-2,1.4313753E-1,2.695308E-1,4.3933806E-1,5.9887197E-2,7.9229586E-2,9.896373E-2,1.2241595E-1,1.552385E-1,-1.2417529E0,-9.0162925E-2,-8.3051306E-1,-6.041637E-1,-6.0198285E-2,-3.9980162E-2,-2.640749E-2,1.2865668E-2,-5.0754476E-1,-3.111827E-1,-2.9020542E-1,-5.600447E-2,-1.4782326E-1,-3.177037E-2,-5.9311157E-3,1.17689595E-1,1.1336515E-1,2.839019E-2,2.496137E-1,3.5524894E-2,4.1053653E-1,5.672745E-2,-1.4333801E-1,-1.0912492E-1,-8.8173784E-2,-6.73775E-2,-6.248781E-2,-3.1761575E-2,3.9315475E-3,-4.646678E-3,-5.279882E-2,-9.1451835E-3,-3.3244073E-2,-1.7164847E-2,-3.4369405E-2,-2.1871107E-2,-1.2961066E-2,1.0987607E-2,-1.8693585E-2,-1.8432785E-3,-5.341827E-3,6.961646E-3,-4.897007E-3,7.0194416E-3,7.3613673E-3,1.5507338E-2,8.813538E-3,2.0168062E-2,2.1260558E-2,3.2140326E-2,3.5870675E-2,5.0140955E-2],"categories":[],"categories_nodes":[],"categories_segments":[],"categories_sizes":[],"default_left":[0,0,0,0,0,0,0,0,0,0,0,0,0,0,0,0,0,0,0,0,0,0,0,0,0,0,0,0,0,0,0,0,0,0,0,0,0,0,0,0,0,0,0,0,0,0,0,0,0,0,0,0,0,0,0,0,0,0,0,0,0,0,0,0,0,0,0,0,0,0,0,0,0,0,0,0,0,0,0,0,0,0,0],"id":3,"left_children":[1,3,5,7,9,11,13,15,17,19,21,23,25,27,29,31,33,35,37,39,41,43,45,47,49,51,-1,-1,-1,-1,-1,53,-1,55,57,-1,-1,-1,59,61,63,65,67,69,71,73,75,77,-1,79,-1,81,-1,-1,-1,-1,-1,-1,-1,-1,-1,-1,-1,-1,-1,-1,-1,-1,-1,-1,-1,-1,-1,-1,-1,-1,-1,-1,-1,-1,-1,-1,-1],"loss_changes":[5.214321E2,8.631064E1,8.3605225E1,1.1609802E1,1.6261469E1,9.421597E0,1.5754761E1,1.1111206E1,1.1905956E0,1.5602875E0,1.015476E0,7.0869446E-1,9.296913E-1,7.828369E-1,1.0403595E0,1.2539673E0,1.0910492E0,1.22574806E-1,2.3987383E-1,1.4328079E0,3.1659412E-1,3.7963772E-1,2.7157146E-1,3.198501E-1,9.570837E-2,8.031845E-2,0E0,0E0,0E0,0E0,0E0,1.4640808E0,0E0,4.7374725E-1,6.2698364E-2,0E0,0E0,0E0,9.673522E-3,1.1851425E0,1.20910645E-1,1.5045404E-1,1.11919776E-1,4.5202577E-1,9.80957E-2,3.0813915E-1,2.4834394E-2,1.4042562E-1,0E0,1.7343664E-1,0E0,1.6396618E-1,0E0,0E0,0E0,0E0,0E0,0E0,0E0,0E0,0E0,0E0,0E0,0E0,0E0,0E0,0E0,0E0,0E0,0E0,0E0,0E0,0E0,0E0,0E0,0E0,0E0,0E0,0E0,0E0,0E0,0E0,0E0],"parents":[2147483647,0,0,1,1,2,2,3,3,4,4,5,5,6,6,7,7,8,8,9,9,10,10,11,11,12,12,13,13,14,14,15,15,16,16,17,17,18,18,19,19,20,20,21,21,22,22,23,23,24,24,25,25,31,31,33,33,34,34,38,38,39,39,40,40,41,41,42,42,43,43,44,44,45,45,46,46,47,47,49,49,51,51],"right_children":[2,4,6,8,10,12,14,16,18,20,22,24,26,28,30,32,34,36,38,40,42,44,46,48,50,52,-1,-1,-1,-1,-1,54,-1,56,58,-1,-1,-1,60,62,64,66,68,70,72,74,76,78,-1,80,-1,82,-1,-1,-1,-1,-1,-1,-1,-1,-1,-1,-1,-1,-1,-1,-1,-1,-1,-1,-1,-1,-1,-1,-1,-1,-1,-1,-1,-1,-1,-1,-1],"split_conditions":[1.8149154E-1,-7.499437E-1,9.822112E-1,9.6823335E-1,-2.4450079E-1,5.301874E-1,1.5013678E0,-1.2349381E0,1.66833E0,-3.4049374E-1,-3.0932995E-4,3.1345633E-1,7.275309E-1,1.2031008E0,1.8330711E0,2.6134732E-1,-7.7912456E-1,1.3565772E0,2.0513315E0,-3.176383E-1,1.4111553E0,5.2297805E-2,2.522881E-1,4.4226968E-1,5.997886E-1,8.196607E-1,5.9887197E-2,7.9229586E-2,9.896373E-2,1.2241595E-1,1.552385E-1,-1.6085129E0,-9.0162925E-2,-7.6597136E-1,-4.5329815E-1,-6.0198285E-2,-3.9980162E-2,-2.640749E-2,-1.346554E0,1.785182E0,-1.0789492E-1,-2.1237348E-1,1.1002247E0,8.002967E-2,2.108674E-1,1.7520192E-1,3.491211E-1,3.7514195E-1,2.839019E-2,5.170673E-1,3.5524894E-2,7.21655E-1,5.672745E-2,-1.4333801E-1,-1.0912492E-1,-8.8173784E-2,-6.73775E-2,-6.248781E-2,-3.1761575E-2,3.9315475E-3,-4.646678E-3,-5.279882E-2,-9.1451835E-3,-3.3244073E-2,-1.7164847E-2,-3.4369405E-2,-2.1871107E-2,-1.2961066E-2,1.0987607E-2,-1.8693585E-2,-1.8432785E-3,-5.341827E-3,6.961646E-3,-4.897007E-3,7.0194416E-3,7.3613673E-3,1.5507338E-2,8.813538E-3,2.0168062E-2,2.1260558E-2,3.2140326E-2,3.5870675E-2,5.0140955E-2],"split_indices":[35,35,35,2,35,35,35,35,2,0,35,35,35,35,35,2,0,2,2,1,2,0,0,0,0,0,0,0,0,0,0,35,0,1,0,0,0,0,1,2,1,0,5,1,0,1,0,1,0,1,0,1,0,0,0,0,0,0,0,0,0,0,0,0,0,0,0,0,0,0,0,0,0,0,0,0,0,0,0,0,0,0,0],"split_type":[0,0,0,0,0,0,0,0,0,0,0,0,0,0,0,0,0,0,0,0,0,0,0,0,0,0,0,0,0,0,0,0,0,0,0,0,0,0,0,0,0,0,0,0,0,0,0,0,0,0,0,0,0,0,0,0,0,0,0,0,0,0,0,0,0,0,0,0,0,0,0,0,0,0,0,0,0,0,0,0,0,0,0],"sum_hessian":[1.525E3,8.75E2,6.5E2,3.63E2,5.12E2,3.81E2,2.69E2,3.07E2,5.6E1,2.68E2,2.44E2,1.9E2,1.91E2,1.6E2,1.09E2,1.32E2,1.75E2,4E1,1.6E1,2.03E2,6.5E1,1.31E2,1.13E2,8.3E1,1.07E2,8.4E1,1.07E2,8.3E1,7.7E1,5.4E1,5.5E1,1.04E2,2.8E1,1.32E2,4.3E1,2.5E1,1.5E1,1.2E1,4E0,1.44E2,5.9E1,5.8E1,7E0,8.9E1,4.2E1,9.2E1,2.1E1,7E1,1.3E1,9E1,1.7E1,7.2E1,1.2E1,4.2E1,6.2E1,9.6E1,3.6E1,3.9E1,4E0,3E0,1E0,1.37E2,7E0,5E1,9E0,3.1E1,2.7E1,5E0,2E0,6.8E1,2.1E1,3.5E1,7E0,5.9E1,3.3E1,1.1E1,1E1,5.6E1,1.4E1,6.2E1,2.8E1,4.9E1,2.3E1],"tree_param":{"num_deleted":"0","num_feature":"92","num_nodes":"83","size_leaf_vector":"1"}},{"base_weights":[-2.2654366E-4,-4.4012573E-1,6.3120806E-1,-7.512026E-1,-1.7000099E-1,3.9977482E-1,1.0666361E0,-9.9226916E-1,-6.2623286E-1,-3.2706365E-1,-2.3524491E-2,2.3813047E-1,5.5486584E-1,9.123283E-1,1.3524966E-1,-1.2246253E0,-8.7782073E-1,-6.849842E-1,-2.6991454E-1,-3.6853114E-1,-2.1655458E-1,-7.6398596E-2,4.0687356E-2,1.8439151E-1,3.218866E-1,4.5626703E-1,6.3302916E-1,8.09371E-2,1.021742E-1,-1.3372189E-1,-9.440104E-2,-9.225696E-1,-4.4002842E-2,-7.921215E-1,-5.914284E-1,-3.521703E-2,-8.612332E-2,-4.1980287E-1,-2.5251663E-1,-2.6332247E-1,-1.1104957E-1,-9.7654894E-2,5.3896334E-2,2.3379333E-2,1.2086608E-1,1.5517506E-1,2.7271166E-1,2.952446E-1,4.4381395E-2,4.258033E-1,5.646208E-2,5.920601E-1,7.489223E-2,-9.947827E-2,-6.448048E-2,-8.408221E-2,-5.9680264E-2,-6.232487E-2,-4.0544383E-2,-1.4240019E-2,4.3655103E-3,-4.3233886E-2,-5.754323E-3,-2.7021458E-2,-1.1697656E-2,-2.8248778E-2,-1.6799515E-2,-1.4970715E-2,5.032763E-3,-1.1637167E-2,3.987283E-3,2.096984E-3,1.2722986E-2,-4.8581764E-4,1.0711773E-2,7.4636447E-3,1.4001771E-2,1.2858981E-2,2.4526505E-2,2.363496E-2,3.5842273E-2,2.6494721E-2,3.8261242E-2,3.885516E-2,5.388065E-2,5.5503923E-2,7.162048E-2],"categories":[],"categories_nodes":[],"categories_segments":[],"categories_sizes":[],"default_left":[0,0,0,0,0,0,0,0,0,0,0,0,0,0,0,0,0,0,0,0,0,0,0,0,0,0,0,0,0,0,0,0,0,0,0,0,0,0,0,0,0,0,0,0,0,0,0,0,0,0,0,0,0,0,0,0,0,0,0,0,0,0,0,0,0,0,0,0,0,0,0,0,0,0,0,0,0,0,0,0,0,0,0,0,0,0,0],"id":4,"left_children":[1,3,5,7,9,11,13,15,17,19,21,23,25,27,-1,29,31,33,35,37,39,41,43,45,47,49,51,-1,-1,-1,-1,53,-1,55,57,-1,59,61,63,65,67,69,71,73,75,77,79,81,-1,83,-1,85,-1,-1,-1,-1,-1,-1,-1,-1,-1,-1,-1,-1,-1,-1,-1,-1,-1,-1,-1,-1,-1,-1,-1,-1,-1,-1,-1,-1,-1,-1,-1,-1,-1,-1,-1],"loss_changes":[4.2415115E2,7.54989E1,6.275795E1,1.1971283E1,1.11041975E1,1.0171471E1,8.338058E0,2.6745758E0,5.6348114E0,9.879246E-1,8.552896E-1,8.543434E-1,1.3218918E0,7.951889E-1,0E0,1.278534E-1,1.5139236E0,1.9170761E0,5.895035E-1,8.93301E-1,2.9641843E-1,3.8746643E-1,1.5537605E-1,2.828126E-1,1.223402E-1,7.64637E-2,9.786606E-2,0E0,0E0,0E0,0E0,1.1236954E0,0E0,5.2550507E-1,5.2257156E-1,0E0,1.0846585E-1,4.9736977E-1,9.792566E-2,3.4757853E-2,1.4478034E-1,3.109548E-1,4.562432E-2,2.2515394E-1,7.2570145E-3,2.0078278E-1,8.785963E-3,7.597828E-2,0E0,1.2320137E-1,0E0,1.1516571E-2,0E0,0E0,0E0,0E0,0E0,0E0,0E0,0E0,0E0,0E0,0E0,0E0,0E0,0E0,0E0,0E0,0E0,0E0,0E0,0E0,0E0,0E0,0E0,0E0,0E0,0E0,0E0,0E0,0E0,0E0,0E0,0E0,0E0,0E0,0E0],"parents":[2147483647,0,0,1,1,2,2,3,3,4,4,5,5,6,6,7,7,8,8,9,9,10,10,11,11,12,12,13,13,15,15,16,16,17,17,18,18,19,19,20,20,21,21,22,22,23,23,24,24,25,25,26,26,31,31,33,33,34,34,36,36,37,37,38,38,39,39,40,40,41,41,42,42,43,43,44,44,45,45,46,46,47,47,49,49,51,51],"right_children":[2,4,6,8,10,12,14,16,18,20,22,24,26,28,-1,30,32,34,36,38,40,42,44,46,48,50,52,-1,-1,-1,-1,54,-1,56,58,-1,60,62,64,66,68,70,72,74,76,78,80,82,-1,84,-1,86,-1,-1,-1,-1,-1,-1,-1,-1,-1,-1,-1,-1,-1,-1,-1,-1,-1,-1,-1,-1,-1,-1,-1,-1,-1,-1,-1,-1,-1,-1,-1,-1,-1,-1,-1],"split_conditions":[2.2308743E-1,-6.4360094E-1,1.0977054E0,-1.2898825E0,-1.9888411E-1,6.2023264E-1,1.7160078E0,-1.2440119E0,1.2558923E0,-2.9781148E-1,4.0374428E-2,4.4201422E-1,8.588329E-1,1.388689E0,1.3524966E-1,-1.5452794E0,8.7897897E-1,-9.626742E-1,1.785182E0,-2.7122816E-1,1.1045846E0,1.6055843E-1,3.1138474E-1,5.0362474E-1,7.432863E-1,9.2007077E-1,1.1060679E0,8.09371E-2,1.021742E-1,-1.3372189E-1,-9.440104E-2,-1.0958155E0,-4.4002842E-2,7.840225E-1,-5.465695E-1,-3.521703E-2,2.171379E0,1.785182E0,-5.933689E-2,-1.19653344E-1,4.885617E-1,1.5344304E-1,3.1138474E-1,2.3989329E-1,3.5730717E-1,4.6444732E-1,6.2785155E-1,6.3651997E-1,4.4381395E-2,8.716109E-1,5.646208E-2,1.1094811E0,7.489223E-2,-9.947827E-2,-6.448048E-2,-8.408221E-2,-5.9680264E-2,-6.232487E-2,-4.0544383E-2,-1.4240019E-2,4.3655103E-3,-4.3233886E-2,-5.754323E-3,-2.7021458E-2,-1.1697656E-2,-2.8248778E-2,-1.6799515E-2,-1.4970715E-2,5.032763E-3,-1.1637167E-2,3.987283E-3,2.096984E-3,1.2722986E-2,-4.8581764E-4,1.0711773E-2,7.4636447E-3,1.4001771E-2,1.2858981E-2,2.4526505E-2,2.363496E-2,3.5842273E-2,2.6494721E-2,3.8261242E-2,3.885516E-2,5.388065E-2,5.5503923E-2,7.162048E-2],"split_indices":[35,35,35,37,35,35,35,88,2,0,35,35,35,1,0,35,2,35,2,1,32,0,0,0,0,0,1,0,0,0,0,35,0,2,0,0,2,2,1,0,5,1,0,1,0,1,0,1,0,1,0,0,0,0,0,0,0,0,0,0,0,0,0,0,0,0,0,0,0,0,0,0,0,0,0,0,0,0,0,0,0,0,0,0,0,0,0],"split_type":[0,0,0,0,0,0,0,0,0,0,0,0,0,0,0,0,0,0,0,0,0,0,0,0,0,0,0,0,0,0,0,0,0,0,0,0,0,0,0,0,0,0,0,0,0,0,0,0,0,0,0,0,0,0,0,0,0,0,0,0,0,0,0,0,0,0,0,0,0,0,0,0,0,0,0,0,0,0,0,0,0,0,0,0,0,0,0],"sum_hessian":[1.525E3,8.99E2,6.26E2,4.17E2,4.82E2,4.1E2,2.16E2,1.4E2,2.77E2,2.32E2,2.5E2,2.02E2,2.08E2,1.43E2,7.3E1,4.3E1,9.7E1,2.37E2,4E1,1.67E2,6.5E1,1.37E2,1.13E2,1.25E2,7.7E1,9.5E1,1.13E2,7.8E1,6.5E1,2.8E1,1.5E1,8.7E1,1E1,1.07E2,1.3E2,2.7E1,1.3E1,1.14E2,5.3E1,4.4E1,2.1E1,1.18E2,1.9E1,9.4E1,1.9E1,9.6E1,2.9E1,6.6E1,1.1E1,7.8E1,1.7E1,8.8E1,2.5E1,6.7E1,2E1,8.3E1,2.4E1,1.09E2,2.1E1,9E0,4E0,1.1E2,4E0,4.6E1,7E0,3.5E1,9E0,1.7E1,4E0,1.04E2,1.4E1,1.4E1,5E0,7.1E1,2.3E1,7E0,1.2E1,7.6E1,2E1,2.3E1,6E0,5.2E1,1.4E1,6.2E1,1.6E1,7.2E1,1.6E1],"tree_param":{"num_deleted":"0","num_feature":"92","num_nodes":"87","size_leaf_vector":"1"}},{"base_weights":[-1.751015E-4,-4.0679067E-1,5.558483E-1,-7.137242E-1,-1.9073944E-1,3.0900252E-1,8.975452E-1,-7.92332E-1,-4.2930028E-1,-3.31709E-1,-3.8900577E-2,1.7912023E-1,4.3254015E-1,7.251784E-1,1.1416681E0,-9.437091E-1,-5.977657E-1,-5.3169306E-2,-2.3750941E-1,-4.1512093E-1,-2.7827704E-1,-1.4312617E-1,-9.604597E-3,1.1897435E-1,2.2090039E-1,4.0118474E-1,5.767801E-2,6.484794E-2,8.1098035E-2,1.0373572E-1,1.3635086E-1,-1.0831238E0,-8.3726585E-1,-6.1621594E-1,-3.4717962E-2,-2.8223103E-1,-1.1584401E-2,-4.4572115E-1,-1.4592576E-1,-2.9013735E-1,-3.782531E-2,-1.7271623E-1,-3.4241647E-2,-3.233803E-2,8.332413E-2,8.632255E-2,2.1582349E-1,2.0442227E-1,2.9193426E-2,3.55798E-1,5.1027507E-2,-1.197207E-1,-8.383483E-2,-8.526515E-2,-4.6950072E-2,-6.2077966E-2,-2.358692E-2,-2.968652E-2,-1.3118538E-2,-6.7292377E-3,3.3092678E-3,-4.8897605E-2,-3.448333E-2,-1.9067867E-2,-8.7502896E-4,-3.4602653E-2,-2.4111284E-2,-1.1377058E-2,8.554892E-3,-2.114203E-2,-7.7442075E-3,-6.0037645E-3,-1.0614443E-3,-7.3098885E-3,4.8272866E-3,5.5216597E-3,1.3529176E-2,4.986616E-3,1.4702605E-2,1.5146381E-2,2.4886109E-2,1.7694643E-2,2.7375286E-2,3.145709E-2,4.0475097E-2],"categories":[],"categories_nodes":[],"categories_segments":[],"categories_sizes":[],"default_left":[0,0,0,0,0,0,0,0,0,0,0,0,0,0,0,0,0,0,0,0,0,0,0,0,0,0,0,0,0,0,0,0,0,0,0,0,0,0,0,0,0,0,0,0,0,0,0,0,0,0,0,0,0,0,0,0,0,0,0,0,0,0,0,0,0,0,0,0,0,0,0,0,0,0,0,0,0,0,0,0,0,0,0,0,0],"id":5,"left_children":[1,3,5,7,9,11,13,15,17,19,21,23,25,27,29,31,33,-1,35,37,39,41,43,45,47,49,-1,-1,-1,-1,-1,51,53,55,-1,57,59,61,63,65,67,69,71,73,75,77,79,81,-1,83,-1,-1,-1,-1,-1,-1,-1,-1,-1,-1,-1,-1,-1,-1,-1,-1,-1,-1,-1,-1,-1,-1,-1,-1,-1,-1,-1,-1,-1,-1,-1,-1,-1,-1,-1],"loss_changes":[3.4523602E2,5.835225E1,5.4126114E1,7.7981415E0,1.1096115E1,5.955574E0,1.053334E1,7.8004913E0,1.4643946E0,1.0833759E0,7.6502633E-1,4.3860626E-1,6.369629E-1,5.3362274E-1,1.1309814E0,1.4378204E0,3.732338E-1,0E0,2.9984248E-1,7.8341293E-1,4.6528053E-1,1.712904E-1,4.1887453E-1,2.2802877E-1,6.67367E-2,6.1559486E-1,0E0,0E0,0E0,0E0,0E0,8.114395E-1,1.3156128E-1,5.6663513E-2,0E0,1.6316414E-2,1.7160105E-2,2.3286247E-1,7.199952E-2,3.5221958E-1,9.4060145E-2,1.4218962E-1,7.286068E-3,5.259659E-1,4.9496263E-2,1.2545022E-1,2.7060509E-3,1.2490773E-1,0E0,1.0880566E-1,0E0,0E0,0E0,0E0,0E0,0E0,0E0,0E0,0E0,0E0,0E0,0E0,0E0,0E0,0E0,0E0,0E0,0E0,0E0,0E0,0E0,0E0,0E0,0E0,0E0,0E0,0E0,0E0,0E0,0E0,0E0,0E0,0E0,0E0,0E0],"parents":[2147483647,0,0,1,1,2,2,3,3,4,4,5,5,6,6,7,7,8,8,9,9,10,10,11,11,12,12,13,13,14,14,15,15,16,16,18,18,19,19,20,20,21,21,22,22,23,23,24,24,25,25,31,31,32,32,33,33,35,35,36,36,37,37,38,38,39,39,40,40,41,41,42,42,43,43,44,44,45,45,46,46,47,47,49,49],"right_children":[2,4,6,8,10,12,14,16,18,20,22,24,26,28,30,32,34,-1,36,38,40,42,44,46,48,50,-1,-1,-1,-1,-1,52,54,56,-1,58,60,62,64,66,68,70,72,74,76,78,80,82,-1,84,-1,-1,-1,-1,-1,-1,-1,-1,-1,-1,-1,-1,-1,-1,-1,-1,-1,-1,-1,-1,-1,-1,-1,-1,-1,-1,-1,-1,-1,-1,-1,-1,-1,-1,-1],"split_conditions":[1.8714431E-1,-7.499437E-1,9.822112E-1,7.4601746E-1,-2.4450079E-1,5.301874E-1,1.5013678E0,-1.0958155E0,1.3757918E0,-5.5854315E-1,-1.1718882E-1,3.1345633E-1,1.0114897E0,1.2189131E0,2.027919E0,-1.5452794E0,-5.9234375E-1,-5.3169306E-2,1.9775109E0,1.4111553E0,1.66833E0,2.327623E-2,2.108674E-1,4.0456077E-1,5.997886E-1,8.716109E-1,5.767801E-2,6.484794E-2,8.1098035E-2,1.0373572E-1,1.3635086E-1,-1.5580139E-1,-9.277788E-1,-5.8599216E-1,-3.4717962E-2,1.785182E0,2.171379E0,-4.9957484E-1,2.1088238E0,-4.126532E-1,-2.5554838E-2,-2.7071424E-2,1.20648056E-1,1.5344304E-1,3.491211E-1,3.2812473E-1,6.872706E-1,5.4151887E-1,2.9193426E-2,7.7588195E-1,5.1027507E-2,-1.197207E-1,-8.383483E-2,-8.526515E-2,-4.6950072E-2,-6.2077966E-2,-2.358692E-2,-2.968652E-2,-1.3118538E-2,-6.7292377E-3,3.3092678E-3,-4.8897605E-2,-3.448333E-2,-1.9067867E-2,-8.7502896E-4,-3.4602653E-2,-2.4111284E-2,-1.1377058E-2,8.554892E-3,-2.114203E-2,-7.7442075E-3,-6.0037645E-3,-1.0614443E-3,-7.3098885E-3,4.8272866E-3,5.5216597E-3,1.3529176E-2,4.986616E-3,1.4702605E-2,1.5146381E-2,2.4886109E-2,1.7694643E-2,2.7375286E-2,3.145709E-2,4.0475097E-2],"split_indices":[35,35,35,2,35,35,35,35,2,35,35,35,0,35,35,35,0,0,2,2,2,0,0,0,0,1,0,0,0,0,0,2,0,1,0,2,2,0,2,35,48,1,0,1,0,1,32,1,0,0,0,0,0,0,0,0,0,0,0,0,0,0,0,0,0,0,0,0,0,0,0,0,0,0,0,0,0,0,0,0,0,0,0,0,0],"split_type":[0,0,0,0,0,0,0,0,0,0,0,0,0,0,0,0,0,0,0,0,0,0,0,0,0,0,0,0,0,0,0,0,0,0,0,0,0,0,0,0,0,0,0,0,0,0,0,0,0,0,0,0,0,0,0,0,0,0,0,0,0,0,0,0,0,0,0,0,0,0,0,0,0,0,0,0,0,0,0,0,0,0,0,0,0],"sum_hessian":[1.525E3,8.81E2,6.44E2,3.63E2,5.18E2,3.75E2,2.69E2,2.83E2,8E1,2.68E2,2.5E2,1.84E2,1.91E2,1.6E2,1.09E2,1.57E2,1.26E2,5.1E1,2.9E1,1.02E2,1.66E2,5.4E1,1.96E2,7.7E1,1.07E2,1.6E2,3.1E1,8.9E1,7.1E1,7.8E1,3.1E1,6.4E1,9.3E1,1.16E2,1E1,2.4E1,5E0,9.1E1,1.1E1,1.58E2,8E0,4.2E1,1.2E1,1.58E2,3.8E1,5.9E1,1.8E1,9E1,1.7E1,1.16E2,4.4E1,4.1E1,2.3E1,8.8E1,5E0,1.14E2,2E0,2.1E1,3E0,2E0,3E0,6.1E1,3E1,8E0,3E0,7.1E1,8.7E1,5E0,3E0,2.9E1,1.3E1,5E0,7E0,1.05E2,5.3E1,2.6E1,1.2E1,3.8E1,2.1E1,8E0,1E1,6.7E1,2.3E1,6.7E1,4.9E1],"tree_param":{"num_deleted":"0","num_feature":"92","num_nodes":"85","size_leaf_vector":"1"}},{"base_weights":[-1.8323927E-4,-3.6695036E-1,5.0134975E-1,-6.117185E-1,-1.4613311E-1,2.7893904E-1,8.0922043E-1,-8.088854E-1,-5.095161E-1,-2.656624E-1,-2.5976626E-2,1.6193245E-1,3.9022693E-1,6.324566E-1,1.0032738E0,-1.003725E0,-7.1315247E-1,-5.573359E-1,-2.1950093E-1,-2.866934E-1,-1.13796316E-1,-4.6476487E-2,7.409713E-2,1.0784258E-1,1.9949798E-1,3.64697E-1,5.391989E-2,5.7475038E-2,6.9019735E-2,8.9598484E-2,1.18529655E-1,-1.1078002E-1,-7.918497E-2,-7.422719E-1,-2.9277487E-2,-6.4349014E-1,-4.769689E-1,-2.680351E-1,-1.7153276E-2,-3.3599117E-1,-2.2302662E-1,1.4196545E-2,-1.2751105E-1,-8.1779726E-2,4.1981135E-2,5.528187E-2,1.4244792E-2,7.801846E-2,1.963481E-1,1.8714797E-1,2.8270228E-2,3.358843E-1,5.0165612E-2,-7.878056E-2,-4.977247E-2,-6.90539E-2,-5.099326E-2,-5.0623536E-2,-3.438094E-2,-2.9486245E-2,-1.6373303E-2,-6.9228034E-3,3.8352136E-3,-3.4601506E-2,-5.0272746E-3,-2.3712385E-2,-1.1911854E-2,-1.7365117E-2,-4.7674975E-3,-1.1137295E-2,-3.8531057E-3,2.6245716E-3,1.972333E-2,3.5077487E-3,6.6660843E-3,4.5007407E-3,1.3299175E-2,1.6349098E-2,2.7868962E-2,1.639216E-2,2.442692E-2,3.072001E-2,3.9213814E-2],"categories":[],"categories_nodes":[],"categories_segments":[],"categories_sizes":[],"default_left":[0,0,0,0,0,0,0,0,0,0,0,0,0,0,0,0,0,0,0,0,0,0,0,0,0,0,0,0,0,0,0,0,0,0,0,0,0,0,0,0,0,0,0,0,0,0,0,0,0,0,0,0,0,0,0,0,0,0,0,0,0,0,0,0,0,0,0,0,0,0,0,0,0,0,0,0,0,0,0,0,0,0,0],"id":6,"left_children":[1,3,5,7,9,11,13,15,17,19,21,23,25,27,29,31,33,35,37,39,41,43,45,47,49,51,-1,-1,-1,-1,-1,-1,-1,53,-1,55,57,59,61,63,65,-1,67,69,71,73,-1,75,77,79,-1,81,-1,-1,-1,-1,-1,-1,-1,-1,-1,-1,-1,-1,-1,-1,-1,-1,-1,-1,-1,-1,-1,-1,-1,-1,-1,-1,-1,-1,-1,-1,-1],"loss_changes":[2.8088528E2,4.758184E1,4.393985E1,8.010941E0,6.6715317E0,4.832861E0,8.626907E0,1.9142151E0,3.733101E0,7.115536E-1,4.8144284E-1,3.5438967E-1,5.335789E-1,8.311844E-2,1.4181747E0,9.302902E-2,9.8231506E-1,1.3409653E0,3.9805436E-1,5.6534386E-1,1.23333305E-1,6.092644E-1,4.3566704E-2,1.9057006E-1,5.807066E-2,4.9051094E-1,0E0,0E0,0E0,0E0,0E0,0E0,0E0,6.211853E-1,0E0,3.5165405E-1,3.208866E-1,4.405999E-2,2.866892E-2,3.0623722E-1,1.06517315E-1,0E0,9.854683E-2,1.7361027E-1,1.3162914E-1,5.2485764E-3,0E0,1.0289794E-1,5.8413744E-3,8.86507E-2,0E0,1.0705185E-1,0E0,0E0,0E0,0E0,0E0,0E0,0E0,0E0,0E0,0E0,0E0,0E0,0E0,0E0,0E0,0E0,0E0,0E0,0E0,0E0,0E0,0E0,0E0,0E0,0E0,0E0,0E0,0E0,0E0,0E0,0E0],"parents":[2147483647,0,0,1,1,2,2,3,3,4,4,5,5,6,6,7,7,8,8,9,9,10,10,11,11,12,12,13,13,14,14,15,15,16,16,17,17,18,18,19,19,20,20,21,21,22,22,23,23,24,24,25,25,33,33,35,35,36,36,37,37,38,38,39,39,40,40,42,42,43,43,44,44,45,45,47,47,48,48,49,49,51,51],"right_children":[2,4,6,8,10,12,14,16,18,20,22,24,26,28,30,32,34,36,38,40,42,44,46,48,50,52,-1,-1,-1,-1,-1,-1,-1,54,-1,56,58,60,62,64,66,-1,68,70,72,74,-1,76,78,80,-1,82,-1,-1,-1,-1,-1,-1,-1,-1,-1,-1,-1,-1,-1,-1,-1,-1,-1,-1,-1,-1,-1,-1,-1,-1,-1,-1,-1,-1,-1,-1,-1],"split_conditions":[1.8714431E-1,-6.4360094E-1,9.822112E-1,-1.2898825E0,-1.9888411E-1,5.301874E-1,1.4207588E0,-1.2440119E0,1.2558923E0,8.9589393E-1,2.108674E-1,3.1345633E-1,1.0379962E0,1.1916715E0,1.906424E0,-4.0936637E-1,1.1235485E0,-9.5036715E-1,1.9775109E0,-4.126532E-1,-1.3781432E0,1.5344304E-1,4.0456077E-1,4.0456077E-1,6.3720447E-1,9.438521E-1,5.391989E-2,5.7475038E-2,6.9019735E-2,8.9598484E-2,1.18529655E-1,-1.1078002E-1,-7.918497E-2,-1.0140519E0,-2.9277487E-2,6.901846E-1,-5.708816E-1,1.728851E0,2.171379E0,1.785182E0,-1.0789492E-1,1.4196545E-2,-8.4215425E-2,4.560881E-2,1.5969635E0,2.522881E-1,1.4244792E-2,3.2812473E-1,5.848797E-1,5.249508E-1,2.8270228E-2,8.60727E-1,5.0165612E-2,-7.878056E-2,-4.977247E-2,-6.90539E-2,-5.099326E-2,-5.0623536E-2,-3.438094E-2,-2.9486245E-2,-1.6373303E-2,-6.9228034E-3,3.8352136E-3,-3.4601506E-2,-5.0272746E-3,-2.3712385E-2,-1.1911854E-2,-1.7365117E-2,-4.7674975E-3,-1.1137295E-2,-3.8531057E-3,2.6245716E-3,1.972333E-2,3.5077487E-3,6.6660843E-3,4.5007407E-3,1.3299175E-2,1.6349098E-2,2.7868962E-2,1.639216E-2,2.442692E-2,3.072001E-2,3.9213814E-2],"split_indices":[35,35,35,37,35,35,35,88,2,32,0,35,0,35,1,44,2,35,2,35,76,1,0,0,0,1,0,0,0,0,0,0,0,35,0,2,0,2,2,2,1,0,0,0,47,0,0,1,0,1,0,0,0,0,0,0,0,0,0,0,0,0,0,0,0,0,0,0,0,0,0,0,0,0,0,0,0,0,0,0,0,0,0],"split_type":[0,0,0,0,0,0,0,0,0,0,0,0,0,0,0,0,0,0,0,0,0,0,0,0,0,0,0,0,0,0,0,0,0,0,0,0,0,0,0,0,0,0,0,0,0,0,0,0,0,0,0,0,0,0,0,0,0,0,0,0,0,0,0,0,0,0,0,0,0,0,0,0,0,0,0,0,0,0,0,0,0,0,0],"sum_hessian":[1.525E3,8.81E2,6.44E2,4.17E2,4.64E2,3.75E2,2.69E2,1.4E2,2.77E2,2.32E2,2.32E2,1.84E2,1.91E2,1.43E2,1.26E2,4.3E1,9.7E1,2.37E2,4E1,2.03E2,2.9E1,1.93E2,3.9E1,7.7E1,1.07E2,1.66E2,2.5E1,7.7E1,6.6E1,8.3E1,4.3E1,2.6E1,1.7E1,9E1,7E0,1.11E2,1.26E2,3.2E1,8E0,1.12E2,9.1E1,1E0,2.8E1,1.38E2,5.5E1,3.2E1,7E0,5.9E1,1.8E1,9.6E1,1.1E1,1.4E2,2.6E1,7.4E1,1.6E1,7.9E1,3.2E1,1.01E2,2.5E1,2.4E1,8E0,4E0,4E0,1.08E2,4E0,7.9E1,1.2E1,1.7E1,1.1E1,8.1E1,5.7E1,5.1E1,4E0,1.3E1,1.9E1,3.8E1,2.1E1,1.5E1,3E0,7.1E1,2.5E1,9.7E1,4.3E1],"tree_param":{"num_deleted":"0","num_feature":"92","num_nodes":"83","size_leaf_vector":"1"}},{"base_weights":[-1.7373689E-4,-3.3366755E-1,4.485832E-1,-5.811917E-1,-1.5738595E-1,2.4882843E-1,7.295377E-1,-6.527136E-1,-3.688128E-1,-2.6962927E-1,-3.3504967E-2,1.4370276E-1,3.521106E-1,6.001505E-1,9.5050156E-1,-8.3139247E-1,-5.273593E-1,-4.4389284E-1,-1.9384564E-1,-2.9789665E-1,-1.6396743E-1,-1.181322E-1,-8.960451E-3,1.0060306E-1,1.8530555E-1,3.2894647E-1,4.8735287E-2,5.3869944E-2,6.916137E-2,8.648359E-2,1.1544665E-1,-8.781928E-1,-6.46415E-2,-5.678643E-1,-4.020579E-1,-4.4825396E-1,-8.238986E-3,-2.3006934E-1,-1.0605962E-2,-3.345265E-1,-2.0233922E-1,-1.7760499E-1,-3.7287742E-2,-1.4598687E-1,-3.4120627E-2,-2.791397E-2,6.808698E-2,7.723955E-2,1.9755384E-2,1.7087498E-1,2.4231385E-2,2.9213813E-1,4.167095E-2,-9.3575306E-2,-6.823454E-2,-6.1923094E-2,-4.537865E-2,-4.1003015E-2,-1.5908426E-2,-4.6901207E-2,-3.3074044E-2,-2.385591E-2,-8.8291345E-3,-5.819102E-3,2.7734318E-3,-3.540789E-2,-9.973367E-3,-2.2899928E-2,-1.4466918E-2,-1.8625591E-2,-2.5067336E-3,1.3486718E-2,-8.845809E-3,-1.8288419E-2,-6.176458E-3,-5.7084756E-3,-6.891421E-4,-5.4564336E-3,5.2069514E-3,4.9917283E-3,1.2998372E-2,5.6435573E-3,1.44606605E-2,1.4689745E-2,2.2391072E-2,2.5330812E-2,3.3562522E-2],"categories":[],"categories_nodes":[],"categories_segments":[],"categories_sizes":[],"default_left":[0,0,0,0,0,0,0,0,0,0,0,0,0,0,0,0,0,0,0,0,0,0,0,0,0,0,0,0,0,0,0,0,0,0,0,0,0,0,0,0,0,0,0,0,0,0,0,0,0,0,0,0,0,0,0,0,0,0,0,0,0,0,0,0,0,0,0,0,0,0,0,0,0,0,0,0,0,0,0,0,0,0,0,0,0,0,0],"id":7,"left_children":[1,3,5,7,9,11,13,15,17,19,21,23,25,27,29,31,33,35,37,39,41,43,45,47,49,51,-1,-1,-1,-1,-1,53,-1,55,57,59,-1,61,63,65,67,69,71,73,75,77,79,81,-1,83,-1,85,-1,-1,-1,-1,-1,-1,-1,-1,-1,-1,-1,-1,-1,-1,-1,-1,-1,-1,-1,-1,-1,-1,-1,-1,-1,-1,-1,-1,-1,-1,-1,-1,-1,-1,-1],"loss_changes":[2.2852727E2,3.8131874E1,3.6353912E1,5.28833E0,7.124134E0,4.097006E0,7.148834E0,5.6314545E0,1.1487875E0,7.545986E-1,5.0783944E-1,3.238337E-1,4.4117737E-1,5.997734E-1,7.1390533E-1,3.8459015E-1,5.9389114E-1,6.5546036E-2,1.9668841E-1,6.708641E-1,9.530592E-2,1.23725116E-1,2.8082174E-1,2.0219165E-1,3.7570477E-2,4.1774178E-1,0E0,0E0,0E0,0E0,0E0,3.1970978E-1,0E0,4.2217636E-1,1.8063545E-2,9.975433E-4,0E0,9.028912E-3,1.2560434E-2,6.578922E-1,6.065774E-2,6.526947E-2,7.3594674E-2,1.16114974E-1,8.986028E-3,3.311058E-1,3.6248088E-2,1.0255772E-1,0E0,6.884122E-2,0E0,1.1930466E-1,0E0,0E0,0E0,0E0,0E0,0E0,0E0,0E0,0E0,0E0,0E0,0E0,0E0,0E0,0E0,0E0,0E0,0E0,0E0,0E0,0E0,0E0,0E0,0E0,0E0,0E0,0E0,0E0,0E0,0E0,0E0,0E0,0E0,0E0,0E0],"parents":[2147483647,0,0,1,1,2,2,3,3,4,4,5,5,6,6,7,7,8,8,9,9,10,10,11,11,12,12,13,13,14,14,15,15,16,16,17,17,18,18,19,19,20,20,21,21,22,22,23,23,24,24,25,25,31,31,33,33,34,34,35,35,37,37,38,38,39,39,40,40,41,41,42,42,43,43,44,44,45,45,46,46,47,47,49,49,51,51],"right_children":[2,4,6,8,10,12,14,16,18,20,22,24,26,28,30,32,34,36,38,40,42,44,46,48,50,52,-1,-1,-1,-1,-1,54,-1,56,58,60,-1,62,64,66,68,70,72,74,76,78,80,82,-1,84,-1,86,-1,-1,-1,-1,-1,-1,-1,-1,-1,-1,-1,-1,-1,-1,-1,-1,-1,-1,-1,-1,-1,-1,-1,-1,-1,-1,-1,-1,-1,-1,-1,-1,-1,-1,-1],"split_conditions":[1.8149154E-1,-7.499437E-1,9.822112E-1,6.4085823E-1,-2.4450079E-1,5.301874E-1,1.6082336E0,-1.2637503E0,1.3757918E0,-3.1237292E-1,-1.1718882E-1,3.4291035E-1,1.0379962E0,1.2755644E0,2.084533E0,-1.3119589E0,-8.256767E-1,-5.056021E-1,1.9775109E0,-3.176383E-1,1.4111553E0,-2.4321763E-2,2.108674E-1,4.4226968E-1,5.997886E-1,8.716109E-1,4.8735287E-2,5.3869944E-2,6.916137E-2,8.648359E-2,1.1544665E-1,3.5599638E-2,-6.46415E-2,-7.998191E-1,-4.4152796E-1,1.2014263E0,-8.238986E-3,1.8633832E0,2.171379E0,1.5570161E0,-1.847838E-1,-4.1254703E-2,1.7155921E0,-2.7071424E-2,1.20648056E-1,1.7520192E-1,4.0456077E-1,3.7514195E-1,1.9755384E-2,5.4151887E-1,2.4231385E-2,7.7588195E-1,4.167095E-2,-9.3575306E-2,-6.823454E-2,-6.1923094E-2,-4.537865E-2,-4.1003015E-2,-1.5908426E-2,-4.6901207E-2,-3.3074044E-2,-2.385591E-2,-8.8291345E-3,-5.819102E-3,2.7734318E-3,-3.540789E-2,-9.973367E-3,-2.2899928E-2,-1.4466918E-2,-1.8625591E-2,-2.5067336E-3,1.3486718E-2,-8.845809E-3,-1.8288419E-2,-6.176458E-3,-5.7084756E-3,-6.891421E-4,-5.4564336E-3,5.2069514E-3,4.9917283E-3,1.2998372E-2,5.6435573E-3,1.44606605E-2,1.4689745E-2,2.2391072E-2,2.5330812E-2,3.3562522E-2],"split_indices":[35,35,35,2,35,35,35,35,2,0,35,35,0,35,35,0,0,0,2,1,2,0,0,0,0,1,0,0,0,0,0,2,0,1,0,2,0,2,2,2,1,0,2,1,0,1,0,1,0,1,0,0,0,0,0,0,0,0,0,0,0,0,0,0,0,0,0,0,0,0,0,0,0,0,0,0,0,0,0,0,0,0,0,0,0,0,0],"split_type":[0,0,0,0,0,0,0,0,0,0,0,0,0,0,0,0,0,0,0,0,0,0,0,0,0,0,0,0,0,0,0,0,0,0,0,0,0,0,0,0,0,0,0,0,0,0,0,0,0,0,0,0,0,0,0,0,0,0,0,0,0,0,0,0,0,0,0,0,0,0,0,0,0,0,0,0,0,0,0,0,0,0,0,0,0,0,0],"sum_hessian":[1.525E3,8.75E2,6.5E2,3.63E2,5.12E2,3.81E2,2.69E2,2.7E2,9.3E1,2.68E2,2.44E2,1.9E2,1.91E2,1.72E2,9.7E1,1.09E2,1.61E2,6.4E1,2.9E1,2.1E2,5.8E1,5.4E1,1.9E2,9.5E1,9.5E1,1.66E2,2.5E1,1.07E2,6.5E1,7.2E1,2.5E1,8.4E1,2.5E1,1.19E2,4.2E1,6.3E1,1E0,2.4E1,5E0,1.5E2,6E1,5.2E1,6E0,4E1,1.4E1,1.53E2,3.7E1,7.8E1,1.7E1,7.9E1,1.6E1,1.2E2,4.6E1,6.2E1,2.2E1,7.9E1,4E1,4E1,2E0,5.1E1,1.2E1,2.2E1,2E0,2E0,3E0,1.38E2,1.2E1,3.9E1,2.1E1,4.9E1,3E0,1E0,5E0,2.7E1,1.3E1,7E0,7E0,1.15E2,3.8E1,3E1,7E0,6.1E1,1.7E1,5.7E1,2.2E1,6.7E1,5.3E1],"tree_param":{"num_deleted":"0","num_feature":"92","num_nodes":"87","size_leaf_vector":"1"}},{"base_weights":[-1.9013521E-4,-2.9385477E-1,4.1455927E-1,-4.776799E-1,-9.349026E-2,2.6182252E-1,7.061568E-1,-6.5472645E-1,-3.9239705E-1,-1.8469933E-1,-6.8106935E-3,1.5522732E-1,3.67165E-1,6.0582864E-1,9.1708414E-2,-7.327869E-1,-3.6685014E-1,-4.260672E-1,-1.9482757E-1,-2.0659032E-1,-9.5385455E-2,-2.4809591E-2,6.413632E-2,1.4009945E-1,3.0796751E-2,3.360569E-1,4.730689E-2,5.2661773E-2,6.7219496E-2,-7.791713E-1,-4.141038E-1,-4.233419E-2,-1.889357E-1,-4.9036542E-1,-3.5409912E-1,-2.4406216E-1,-7.024065E-2,-2.2469048E-1,-8.93814E-2,-1.1134859E-1,2.6176202E-3,-5.3093653E-2,4.420197E-2,4.309201E-2,1.07656434E-1,1.2251875E-1,2.4763325E-2,3.0915076E-1,4.8124906E-2,-8.997803E-2,-7.1809575E-2,-4.284216E-2,-9.250966E-3,-2.1554282E-2,2.5264267E-3,-5.2539732E-2,-3.608561E-2,-3.8417064E-2,-2.6064103E-2,-2.676006E-2,-1.7051809E-2,-1.1866573E-2,2.0545597E-4,-2.2840029E-2,-3.7747615E-3,-1.0998271E-2,-2.3637803E-3,-1.5165314E-2,-5.5010705E-3,-3.9654053E-3,1.2812383E-2,-6.6926475E-3,-2.2885528E-4,1.2268044E-2,1.7591419E-3,2.759089E-3,5.224589E-3,6.736091E-3,1.225583E-2,9.726944E-3,1.6064428E-2,3.103507E-2,6.998113E-3],"categories":[],"categories_nodes":[],"categories_segments":[],"categories_sizes":[],"default_left":[0,0,0,0,0,0,0,0,0,0,0,0,0,0,0,0,0,0,0,0,0,0,0,0,0,0,0,0,0,0,0,0,0,0,0,0,0,0,0,0,0,0,0,0,0,0,0,0,0,0,0,0,0,0,0,0,0,0,0,0,0,0,0,0,0,0,0,0,0,0,0,0,0,0,0,0,0,0,0,0,0,0,0],"id":8,"left_children":[1,3,5,7,9,11,13,15,17,19,21,23,25,27,-1,29,31,33,35,37,39,41,43,45,-1,47,-1,-1,-1,49,51,-1,53,55,57,59,61,63,65,67,69,71,73,75,77,79,-1,81,-1,-1,-1,-1,-1,-1,-1,-1,-1,-1,-1,-1,-1,-1,-1,-1,-1,-1,-1,-1,-1,-1,-1,-1,-1,-1,-1,-1,-1,-1,-1,-1,-1,-1,-1],"loss_changes":[1.8598438E2,3.288318E1,2.8007446E1,6.779236E0,3.3903995E0,4.625498E0,4.036545E0,3.101944E0,2.025734E0,3.8892508E-1,2.8380114E-1,4.3977594E-1,5.295677E-1,4.3455124E-1,0E0,1.406826E0,2.6173973E-1,1.0757637E0,2.7728832E-1,3.3420753E-1,6.756222E-2,3.4783798E-1,3.6574155E-2,3.326404E-1,0E0,4.9580383E-1,0E0,0E0,0E0,9.786224E-2,3.864336E-2,0E0,6.243798E-2,4.4557953E-1,2.680359E-1,1.3227224E-2,5.275733E-2,9.124565E-2,2.990596E-2,7.567233E-2,4.2218126E-2,8.839682E-2,1.0643635E-1,3.0991435E-3,1.5106797E-4,1.4513564E-1,0E0,1.9033432E-2,0E0,0E0,0E0,0E0,0E0,0E0,0E0,0E0,0E0,0E0,0E0,0E0,0E0,0E0,0E0,0E0,0E0,0E0,0E0,0E0,0E0,0E0,0E0,0E0,0E0,0E0,0E0,0E0,0E0,0E0,0E0,0E0,0E0,0E0,0E0],"parents":[2147483647,0,0,1,1,2,2,3,3,4,4,5,5,6,6,7,7,8,8,9,9,10,10,11,11,12,12,13,13,15,15,16,16,17,17,18,18,19,19,20,20,21,21,22,22,23,23,25,25,29,29,30,30,32,32,33,33,34,34,35,35,36,36,37,37,38,38,39,39,40,40,41,41,42,42,43,43,44,44,45,45,47,47],"right_children":[2,4,6,8,10,12,14,16,18,20,22,24,26,28,-1,30,32,34,36,38,40,42,44,46,-1,48,-1,-1,-1,50,52,-1,54,56,58,60,62,64,66,68,70,72,74,76,78,80,-1,82,-1,-1,-1,-1,-1,-1,-1,-1,-1,-1,-1,-1,-1,-1,-1,-1,-1,-1,-1,-1,-1,-1,-1,-1,-1,-1,-1,-1,-1,-1,-1,-1,-1,-1,-1],"split_conditions":[2.0329896E-1,-5.5854315E-1,1.0977054E0,-1.2537768E0,-1.4335853E-1,6.2023264E-1,1.7376412E0,4.7061735E-1,1.1715883E0,5.9030074E-1,2.108674E-1,6.9593495E-1,1.0363952E0,1.3305938E0,9.1708414E-2,-9.929894E-1,1.3565772E0,-8.6491543E-1,1.785182E0,-1.0789492E-1,1.9152015E-1,1.7520192E-1,3.5730717E-1,5.9508836E-1,3.0796751E-2,1.1028364E0,4.730689E-2,5.2661773E-2,6.7219496E-2,-1.7669984E0,-6.2610894E-1,-4.233419E-2,-1.2815009E0,-8.440342E-1,-5.465695E-1,1.5971481E0,2.1088238E0,1.7512807E0,3.27249E-2,-8.4215425E-2,1.9546858E0,1.20648056E-1,-6.4516866E-1,2.522881E-1,4.0456077E-1,4.5353225E-1,2.4763325E-2,2.5995176E0,4.8124906E-2,-8.997803E-2,-7.1809575E-2,-4.284216E-2,-9.250966E-3,-2.1554282E-2,2.5264267E-3,-5.2539732E-2,-3.608561E-2,-3.8417064E-2,-2.6064103E-2,-2.676006E-2,-1.7051809E-2,-1.1866573E-2,2.0545597E-4,-2.2840029E-2,-3.7747615E-3,-1.0998271E-2,-2.3637803E-3,-1.5165314E-2,-5.5010705E-3,-3.9654053E-3,1.2812383E-2,-6.6926475E-3,-2.2885528E-4,1.2268044E-2,1.7591419E-3,2.759089E-3,5.224589E-3,6.736091E-3,1.225583E-2,9.726944E-3,1.6064428E-2,3.103507E-2,6.998113E-3],"split_indices":[35,35,35,0,35,35,35,2,2,32,0,0,1,35,0,1,2,35,2,1,37,1,0,1,0,0,0,0,0,35,1,0,0,0,0,2,2,2,1,0,21,0,83,0,0,0,0,80,0,0,0,0,0,0,0,0,0,0,0,0,0,0,0,0,0,0,0,0,0,0,0,0,0,0,0,0,0,0,0,0,0,0,0],"split_type":[0,0,0,0,0,0,0,0,0,0,0,0,0,0,0,0,0,0,0,0,0,0,0,0,0,0,0,0,0,0,0,0,0,0,0,0,0,0,0,0,0,0,0,0,0,0,0,0,0,0,0,0,0,0,0,0,0,0,0,0,0,0,0,0,0,0,0,0,0,0,0,0,0,0,0,0,0,0,0,0,0,0,0],"sum_hessian":[1.525E3,8.93E2,6.32E2,4.65E2,4.28E2,4.16E2,2.16E2,1.49E2,3.16E2,2.08E2,2.2E2,2.08E2,2.08E2,1.49E2,6.7E1,1.16E2,3.3E1,2.69E2,4.7E1,1.66E2,4.2E1,1.76E2,4.4E1,1.91E2,1.7E1,1.64E2,4.4E1,7.2E1,7.7E1,1E2,1.6E1,2.4E1,9E0,1.39E2,1.3E2,3.3E1,1.4E1,1.43E2,2.3E1,3.6E1,6E0,1.25E2,5.1E1,3.1E1,1.3E1,1.66E2,2.5E1,1.41E2,2.3E1,2.9E1,7.1E1,1.5E1,1E0,8E0,1E0,1.07E2,3.2E1,9.6E1,3.4E1,2.3E1,1E1,8E0,6E0,1.4E2,3E0,1.7E1,6E0,2E1,1.6E1,5E0,1E0,9.8E1,2.7E1,1.2E1,3.9E1,1.3E1,1.8E1,5E0,8E0,1.02E2,6.4E1,1.4E2,1E0],"tree_param":{"num_deleted":"0","num_feature":"92","num_nodes":"83","size_leaf_vector":"1"}},{"base_weights":[-2.2035853E-4,-2.6290268E-1,3.7683594E-1,-4.500934E-1,-1.0035895E-1,2.5006574E-1,6.60609E-1,-5.910888E-1,-3.6979818E-1,-1.8695322E-1,-6.644265E-3,1.5533134E-1,3.5756844E-1,5.776341E-1,8.532864E-1,-6.6133624E-1,-3.3196986E-1,-4.0060046E-1,-1.5931123E-1,-2.058977E-1,-8.1873626E-2,-2.1170305E-2,6.61563E-2,1.1074084E-1,2.0591533E-1,4.9187634E-2,3.3681276E-1,5.0513875E-2,6.370723E-2,2.4152959E-2,8.600178E-1,-7.2098523E-1,-4.459883E-1,-3.827011E-2,-1.719449E-1,-4.333889E-1,-3.0472413E-1,-1.8705225E-1,1.0569238E-2,-2.3165664E-1,-1.3678078E-1,-9.982874E-2,-8.936122E-3,-3.7905503E-2,7.5931355E-2,4.7606762E-2,1.0392553E-2,9.309136E-2,1.8573236E-1,1.86837E-1,2.9092714E-2,3.088289E-1,4.358637E-2,7.402189E-2,9.741677E-2,-7.611361E-2,-5.5281635E-2,-4.5599647E-2,-8.788419E-3,-1.9638347E-2,2.4001056E-3,-4.5456912E-2,-3.0822754E-2,-3.249261E-2,-1.9178856E-2,-2.0953942E-2,-1.0880149E-2,-1.5539527E-3,4.1857846E-3,-2.4207812E-2,-3.801553E-3,-1.548482E-2,-6.63558E-3,-1.0263618E-2,-6.3991325E-4,-2.03406E-3,1.0404624E-3,-5.756649E-3,-7.701541E-4,3.9429176E-3,1.2435703E-2,3.5573267E-3,5.709931E-3,7.5911335E-3,1.5737854E-2,1.6034244E-2,3.0155102E-2,1.5481914E-2,2.7476722E-2,2.8091028E-2,3.692781E-2],"categories":[],"categories_nodes":[],"categories_segments":[],"categories_sizes":[],"default_left":[0,0,0,0,0,0,0,0,0,0,0,0,0,0,0,0,0,0,0,0,0,0,0,0,0,0,0,0,0,0,0,0,0,0,0,0,0,0,0,0,0,0,0,0,0,0,0,0,0,0,0,0,0,0,0,0,0,0,0,0,0,0,0,0,0,0,0,0,0,0,0,0,0,0,0,0,0,0,0,0,0,0,0,0,0,0,0,0,0,0,0],"id":9,"left_children":[1,3,5,7,9,11,13,15,17,19,21,23,25,27,29,31,33,35,37,39,41,43,45,47,49,-1,51,-1,-1,-1,53,55,57,-1,59,61,63,65,67,69,71,73,75,77,79,81,-1,83,85,87,-1,89,-1,-1,-1,-1,-1,-1,-1,-1,-1,-1,-1,-1,-1,-1,-1,-1,-1,-1,-1,-1,-1,-1,-1,-1,-1,-1,-1,-1,-1,-1,-1,-1,-1,-1,-1,-1,-1,-1,-1],"loss_changes":[1.512433E2,2.7338844E1,2.239048E1,4.513695E0,3.9183779E0,4.374592E0,2.592682E0,2.510826E0,1.680233E0,4.8280144E-1,2.4779893E-1,5.0274277E-1,4.0022087E-1,2.7283096E-1,2.2888184E-2,1.1813469E0,2.1021724E-1,6.0354614E-1,1.7163259E-1,3.4575462E-1,5.1491976E-2,3.1975627E-1,2.2375911E-2,1.4947867E-1,1.2080765E-1,0E0,3.6154938E-1,0E0,0E0,0E0,3.1032562E-2,1.8692398E-1,6.027603E-2,0E0,5.2599788E-2,3.158493E-1,8.141899E-2,3.175056E-2,5.551893E-3,2.9955387E-1,6.606877E-2,7.7367425E-3,2.1967762E-3,9.872788E-2,4.6358347E-2,1.1671856E-3,0E0,1.0291648E-1,1.9282997E-2,2.1365643E-1,0E0,1.376009E-1,0E0,0E0,0E0,0E0,0E0,0E0,0E0,0E0,0E0,0E0,0E0,0E0,0E0,0E0,0E0,0E0,0E0,0E0,0E0,0E0,0E0,0E0,0E0,0E0,0E0,0E0,0E0,0E0,0E0,0E0,0E0,0E0,0E0,0E0,0E0,0E0,0E0,0E0,0E0],"parents":[2147483647,0,0,1,1,2,2,3,3,4,4,5,5,6,6,7,7,8,8,9,9,10,10,11,11,12,12,13,13,14,14,15,15,16,16,17,17,18,18,19,19,20,20,21,21,22,22,23,23,24,24,26,26,30,30,31,31,32,32,34,34,35,35,36,36,37,37,38,38,39,39,40,40,41,41,42,42,43,43,44,44,45,45,47,47,48,48,49,49,51,51],"right_children":[2,4,6,8,10,12,14,16,18,20,22,24,26,28,30,32,34,36,38,40,42,44,46,48,50,-1,52,-1,-1,-1,54,56,58,-1,60,62,64,66,68,70,72,74,76,78,80,82,-1,84,86,88,-1,90,-1,-1,-1,-1,-1,-1,-1,-1,-1,-1,-1,-1,-1,-1,-1,-1,-1,-1,-1,-1,-1,-1,-1,-1,-1,-1,-1,-1,-1,-1,-1,-1,-1,-1,-1,-1,-1,-1,-1],"split_conditions":[2.2308743E-1,-6.4360094E-1,1.1916715E0,-1.2537768E0,-1.5494147E-1,6.8366575E-1,1.781774E0,4.7061735E-1,1.2558923E0,-1.7593516E-1,2.3955452E-1,4.4201422E-1,-9.2032295E-1,1.4207588E0,-1.5002886E0,-1.137586E0,1.3565772E0,-7.35626E-1,2.1088238E0,-2.329668E-1,5.2297805E-2,2.3989329E-1,3.7899065E-1,5.4981345E-1,7.62263E-1,4.9187634E-2,1.1094811E0,5.0513875E-2,6.370723E-2,2.4152959E-2,2.084533E0,3.5599638E-2,-6.2610894E-1,-3.827011E-2,-1.2815009E0,-6.570351E-1,-4.700916E-1,1.7512807E0,2.4297786E0,1.66833E0,-5.933689E-2,2.171379E0,6.3691124E-2,9.279137E-2,3.3973256E-1,3.1138474E-1,1.0392553E-2,4.6444732E-1,6.9593495E-1,6.8297094E-1,2.9092714E-2,9.9560076E-1,4.358637E-2,7.402189E-2,9.741677E-2,-7.611361E-2,-5.5281635E-2,-4.5599647E-2,-8.788419E-3,-1.9638347E-2,2.4001056E-3,-4.5456912E-2,-3.0822754E-2,-3.249261E-2,-1.9178856E-2,-2.0953942E-2,-1.0880149E-2,-1.5539527E-3,4.1857846E-3,-2.4207812E-2,-3.801553E-3,-1.548482E-2,-6.63558E-3,-1.0263618E-2,-6.3991325E-4,-2.03406E-3,1.0404624E-3,-5.756649E-3,-7.701541E-4,3.9429176E-3,1.2435703E-2,3.5573267E-3,5.709931E-3,7.5911335E-3,1.5737854E-2,1.6034244E-2,3.0155102E-2,1.5481914E-2,2.7476722E-2,2.8091028E-2,3.692781E-2],"split_indices":[35,35,35,0,35,35,1,2,2,0,0,35,32,35,57,1,2,0,2,1,0,1,0,0,0,0,0,0,0,0,35,2,1,0,0,1,0,2,2,2,1,2,50,1,1,0,0,1,0,1,0,1,0,0,0,0,0,0,0,0,0,0,0,0,0,0,0,0,0,0,0,0,0,0,0,0,0,0,0,0,0,0,0,0,0,0,0,0,0,0,0],"split_type":[0,0,0,0,0,0,0,0,0,0,0,0,0,0,0,0,0,0,0,0,0,0,0,0,0,0,0,0,0,0,0,0,0,0,0,0,0,0,0,0,0,0,0,0,0,0,0,0,0,0,0,0,0,0,0,0,0,0,0,0,0,0,0,0,0,0,0,0,0,0,0,0,0,0,0,0,0,0,0,0,0,0,0,0,0,0,0,0,0,0,0],"sum_hessian":[1.525E3,8.99E2,6.26E2,4.17E2,4.82E2,4.34E2,1.92E2,1.49E2,2.68E2,2.5E2,2.32E2,2.32E2,2.02E2,1.37E2,5.5E1,1.16E2,3.3E1,2.33E2,3.5E1,2.11E2,3.9E1,1.94E2,3.8E1,1.25E2,1.07E2,2.4E1,1.78E2,6.6E1,7.1E1,1E0,5.4E1,8.9E1,2.7E1,2.4E1,9E0,1.71E2,6.2E1,3E1,5E0,1.52E2,5.9E1,3.1E1,8E0,1.66E2,2.8E1,2.7E1,1.1E1,1.03E2,2.2E1,9E1,1.7E1,1.42E2,3.6E1,3E1,2.4E1,6.9E1,2E1,2.6E1,1E0,8E0,1E0,1.44E2,2.7E1,5.1E1,1.1E1,2.2E1,8E0,3E0,2E0,1.44E2,8E0,4.6E1,1.3E1,3E1,1E0,5E0,3E0,1E2,6.6E1,1.7E1,1.1E1,1.4E1,1.3E1,8.3E1,2E1,2E1,2E0,6.8E1,2.2E1,1.01E2,4.1E1],"tree_param":{"num_deleted":"0","num_feature":"92","num_nodes":"91","size_leaf_vector":"1"}},{"base_weights":[-8.154194E-5,-2.3709126E-1,3.4012392E-1,-3.9124948E-1,-7.575366E-2,2.2825637E-1,6.0212106E-1,-5.335885E-1,-3.213392E-1,-1.5149412E-1,-3.6833812E-3,1.4040579E-1,3.2510293E-1,5.195625E-1,7.6018965E-1,-5.9679055E-1,-3.0040547E-1,-3.4976497E-1,-1.583028E-1,-1.694566E-1,-7.5703345E-2,-1.9195838E-2,5.161463E-2,1.2565456E-1,2.696277E-2,3.0591527E-1,4.4838857E-2,4.5982655E-2,5.6690086E-2,6.663963E-2,8.644268E-1,-6.349445E-1,-3.350058E-1,-3.7571102E-2,-2.0299928E-1,-3.7179247E-1,-2.0897532E-1,-1.8339314E-1,-9.926933E-3,-1.838263E-1,-7.2585285E-2,-8.948518E-2,7.958267E-3,-3.610031E-2,6.8903E-2,3.3108473E-2,8.5590795E-2,1.1004209E-1,2.4848515E-2,2.7772632E-1,3.9460814E-1,2.2945309E-2,8.806476E-2,-7.4269705E-2,-5.8122892E-2,-3.455074E-2,-8.348999E-3,-2.1853687E-2,2.2801002E-3,-4.3033566E-2,-3.3371847E-2,-2.207928E-2,-8.682136E-3,-2.1649214E-2,-1.2907264E-2,2.2586589E-3,-4.8087104E-3,-2.2240644E-2,-1.591493E-2,-8.993598E-3,-1.7599901E-3,-1.15643805E-2,-3.229667E-3,-3.1921489E-3,1.2361839E-2,-5.401795E-3,-2.2884457E-4,3.1070206E-3,1.0721884E-2,3.5485912E-3,-2.2673497E-3,6.1124163E-3,1.0547523E-2,6.2098163E-3,1.2503035E-2,2.2922002E-2,3.1864915E-2,3.0852089E-2,4.4080663E-2],"categories":[],"categories_nodes":[],"categories_segments":[],"categories_sizes":[],"default_left":[0,0,0,0,0,0,0,0,0,0,0,0,0,0,0,0,0,0,0,0,0,0,0,0,0,0,0,0,0,0,0,0,0,0,0,0,0,0,0,0,0,0,0,0,0,0,0,0,0,0,0,0,0,0,0,0,0,0,0,0,0,0,0,0,0,0,0,0,0,0,0,0,0,0,0,0,0,0,0,0,0,0,0,0,0,0,0,0,0],"id":10,"left_children":[1,3,5,7,9,11,13,15,17,19,21,23,25,27,29,31,33,35,37,39,41,43,45,47,-1,49,-1,-1,-1,-1,51,53,55,-1,57,59,61,63,65,67,69,71,73,75,77,79,81,83,-1,85,87,-1,-1,-1,-1,-1,-1,-1,-1,-1,-1,-1,-1,-1,-1,-1,-1,-1,-1,-1,-1,-1,-1,-1,-1,-1,-1,-1,-1,-1,-1,-1,-1,-1,-1,-1,-1,-1,-1],"loss_changes":[1.2312507E2,2.2354725E1,1.8239288E1,4.405983E0,2.4067006E0,3.7063904E0,2.0453796E0,2.0313606E0,1.3859406E0,2.798705E-1,1.957132E-1,4.102602E-1,3.5723495E-1,9.562302E-2,3.010559E-2,9.559021E-1,1.731286E-1,7.4103546E-1,1.7687392E-1,2.2747517E-1,5.0291598E-2,2.6757646E-1,2.8604627E-2,3.7728882E-1,0E0,3.5043526E-1,0E0,0E0,0E0,0E0,6.5727234E-2,1.5290833E-1,1.605606E-2,0E0,6.462544E-2,3.6236572E-1,3.568542E-2,4.577291E-2,1.1011897E-2,1.0741043E-1,2.131395E-2,5.1616073E-2,3.6233563E-2,9.075068E-2,3.8706943E-2,5.313609E-3,1.8234923E-3,1.2805057E-1,0E0,2.1081734E-1,3.1040192E-2,0E0,0E0,0E0,0E0,0E0,0E0,0E0,0E0,0E0,0E0,0E0,0E0,0E0,0E0,0E0,0E0,0E0,0E0,0E0,0E0,0E0,0E0,0E0,0E0,0E0,0E0,0E0,0E0,0E0,0E0,0E0,0E0,0E0,0E0,0E0,0E0,0E0,0E0],"parents":[2147483647,0,0,1,1,2,2,3,3,4,4,5,5,6,6,7,7,8,8,9,9,10,10,11,11,12,12,13,13,14,14,15,15,16,16,17,17,18,18,19,19,20,20,21,21,22,22,23,23,25,25,30,30,31,31,32,32,34,34,35,35,36,36,37,37,38,38,39,39,40,40,41,41,42,42,43,43,44,44,45,45,46,46,47,47,49,49,50,50],"right_children":[2,4,6,8,10,12,14,16,18,20,22,24,26,28,30,32,34,36,38,40,42,44,46,48,-1,50,-1,-1,-1,-1,52,54,56,-1,58,60,62,64,66,68,70,72,74,76,78,80,82,84,-1,86,88,-1,-1,-1,-1,-1,-1,-1,-1,-1,-1,-1,-1,-1,-1,-1,-1,-1,-1,-1,-1,-1,-1,-1,-1,-1,-1,-1,-1,-1,-1,-1,-1,-1,-1,-1,-1,-1,-1],"split_conditions":[2.2308743E-1,-5.672673E-1,1.2031008E0,-1.2537768E0,-1.4335853E-1,6.8366575E-1,1.7776241E0,4.7061735E-1,1.1715883E0,5.9030074E-1,2.035261E-1,7.297967E-1,1.1504589E0,1.4207588E0,2.084533E0,-9.929894E-1,1.1235485E0,-5.465695E-1,2.0513315E0,-1.0789492E-1,1.9152015E-1,2.3989329E-1,3.491211E-1,6.8297094E-1,2.696277E-2,1.783943E-1,4.4838857E-2,4.5982655E-2,5.6690086E-2,6.663963E-2,-1.5002886E0,-1.7669984E0,-6.2610894E-1,-3.7571102E-2,-1.2668424E0,-9.9356335E-1,-2.9781148E-1,1.5971481E0,9.384902E-1,-3.7495834E-1,3.27249E-2,-2.4321763E-2,1.9546858E0,1.22203596E-1,3.2812473E-1,1.4013709E-1,4.1691074E-1,2.8949586E-1,2.4848515E-2,9.0888655E-1,1.1332084E0,2.2945309E-2,8.806476E-2,-7.4269705E-2,-5.8122892E-2,-3.455074E-2,-8.348999E-3,-2.1853687E-2,2.2801002E-3,-4.3033566E-2,-3.3371847E-2,-2.207928E-2,-8.682136E-3,-2.1649214E-2,-1.2907264E-2,2.2586589E-3,-4.8087104E-3,-2.2240644E-2,-1.591493E-2,-8.993598E-3,-1.7599901E-3,-1.15643805E-2,-3.229667E-3,-3.1921489E-3,1.2361839E-2,-5.401795E-3,-2.2884457E-4,3.1070206E-3,1.0721884E-2,3.5485912E-3,-2.2673497E-3,6.1124163E-3,1.0547523E-2,6.2098163E-3,1.2503035E-2,2.2922002E-2,3.1864915E-2,3.0852089E-2,4.4080663E-2],"split_indices":[35,35,35,0,35,35,35,2,2,32,0,0,1,35,35,1,2,0,2,1,37,1,0,1,0,32,0,0,0,0,57,35,1,0,0,35,0,2,6,1,1,0,21,1,1,1,0,35,0,1,0,0,0,0,0,0,0,0,0,0,0,0,0,0,0,0,0,0,0,0,0,0,0,0,0,0,0,0,0,0,0,0,0,0,0,0,0,0,0],"split_type":[0,0,0,0,0,0,0,0,0,0,0,0,0,0,0,0,0,0,0,0,0,0,0,0,0,0,0,0,0,0,0,0,0,0,0,0,0,0,0,0,0,0,0,0,0,0,0,0,0,0,0,0,0,0,0,0,0,0,0,0,0,0,0,0,0,0,0,0,0,0,0,0,0,0,0,0,0,0,0,0,0,0,0,0,0,0,0,0,0],"sum_hessian":[1.525E3,8.99E2,6.26E2,4.59E2,4.4E2,4.4E2,1.86E2,1.49E2,3.1E2,2.14E2,2.26E2,2.32E2,2.08E2,1.25E2,6.1E1,1.16E2,3.3E1,2.63E2,4.7E1,1.72E2,4.2E1,1.77E2,4.9E1,2.1E2,2.2E1,1.83E2,2.5E1,6E1,6.5E1,3.6E1,2.5E1,1E2,1.6E1,1.7E1,1.6E1,2.26E2,3.7E1,4E1,7E0,1.49E2,2.3E1,3.6E1,6E0,1.49E2,2.8E1,3.3E1,1.6E1,1.88E2,2.2E1,1.42E2,4.1E1,1E0,2.4E1,2.9E1,7.1E1,1.5E1,1E0,1.5E1,1E0,8.5E1,1.41E2,3.3E1,4E0,2.3E1,1.7E1,4E0,3E0,5.5E1,9.4E1,1.7E1,6E0,2.4E1,1.2E1,5E0,1E0,9.7E1,5.2E1,1.5E1,1.3E1,3.2E1,1E0,9E0,7E0,4.6E1,1.42E2,6.8E1,7.4E1,1.7E1,2.4E1],"tree_param":{"num_deleted":"0","num_feature":"92","num_nodes":"89","size_leaf_vector":"1"}},{"base_weights":[5.4422553E-6,-2.1383224E-1,3.069495E-1,-3.5294348E-1,-6.824268E-2,2.0598647E-1,5.43408E-1,-4.8177928E-1,-2.8966916E-1,-1.3659836E-1,-3.1998905E-3,1.3288064E-1,3.0097905E-1,4.7350007E-1,6.9848716E-2,-5.3527284E-1,-2.5916603E-1,-3.151944E-1,-1.4324556E-1,-1.5017417E-1,-5.4268725E-2,-1.8015994E-2,4.4600144E-2,9.353642E-2,1.7934223E-1,3.9027046E-2,2.798595E-1,4.293306E-1,5.4674454E-2,-5.838072E-1,-3.628442E-1,-2.8776506E-1,-9.20425E-2,-3.382088E-1,-2.0458372E-1,-1.7916688E-1,-5.2274205E-2,-1.6182268E-1,-6.577483E-2,-7.0374385E-2,-5.2904314E-3,-5.091487E-2,2.127662E-2,2.8479174E-2,7.8011714E-2,7.752311E-2,1.5953518E-1,1.621938E-1,2.4756175E-2,2.5081357E-1,3.5927466E-1,5.0947495E-2,3.847744E-2,-6.425321E-2,-4.7460925E-2,-3.701375E-2,-7.931548E-3,-3.272456E-2,-2.1443397E-2,-1.1911538E-2,2.1660952E-3,-3.5902154E-2,-2.57451E-2,-2.1410547E-2,-7.987565E-3,-6.689825E-3,-1.840931E-2,-8.8659655E-3,1.9748298E-4,-1.6851706E-2,-1.272778E-3,-8.144203E-3,-1.6091338E-3,-7.455751E-3,-1.6240033E-3,-1.595416E-3,1.2027769E-3,-7.1182153E-3,-1.4137177E-3,2.061618E-4,8.73471E-3,3.1239118E-3,-1.4133224E-3,5.562299E-3,9.624615E-3,5.9062405E-3,1.3145517E-2,1.3989572E-2,2.6347244E-2,1.3905706E-2,2.5215685E-2,2.1213217E-2,2.7866183E-2,2.86867E-2,4.054779E-2],"categories":[],"categories_nodes":[],"categories_segments":[],"categories_sizes":[],"default_left":[0,0,0,0,0,0,0,0,0,0,0,0,0,0,0,0,0,0,0,0,0,0,0,0,0,0,0,0,0,0,0,0,0,0,0,0,0,0,0,0,0,0,0,0,0,0,0,0,0,0,0,0,0,0,0,0,0,0,0,0,0,0,0,0,0,0,0,0,0,0,0,0,0,0,0,0,0,0,0,0,0,0,0,0,0,0,0,0,0,0,0,0,0,0,0],"id":11,"left_children":[1,3,5,7,9,11,13,15,17,19,21,23,25,27,-1,29,31,33,35,37,39,41,43,45,47,-1,49,51,-1,53,55,57,59,61,63,65,67,69,71,73,75,77,79,81,83,85,87,89,-1,91,93,-1,-1,-1,-1,-1,-1,-1,-1,-1,-1,-1,-1,-1,-1,-1,-1,-1,-1,-1,-1,-1,-1,-1,-1,-1,-1,-1,-1,-1,-1,-1,-1,-1,-1,-1,-1,-1,-1,-1,-1,-1,-1,-1,-1],"loss_changes":[1.0022649E2,1.8203747E1,1.4856785E1,3.6103592E0,1.960268E0,3.0225372E0,1.6965828E0,1.6475296E0,1.1172123E0,2.3215389E-1,1.6156723E-1,4.420514E-1,2.5096512E-1,1.9230843E-1,0E0,7.924156E-1,1.2168026E-1,6.028557E-1,1.4748907E-1,1.7025185E-1,2.4870187E-2,2.260101E-1,2.6864134E-2,1.3347876E-1,9.32107E-2,0E0,2.7434635E-1,1.1463928E-1,0E0,2.850132E-1,3.0610561E-2,5.1014423E-3,2.1049835E-2,2.7230072E-1,3.9895296E-2,6.488681E-3,2.978322E-2,1.5854883E-1,1.737111E-2,4.223995E-3,1.8539821E-3,6.9805145E-2,1.0138347E-1,4.910607E-3,1.5866831E-3,1.04741395E-1,1.621437E-2,1.6059256E-1,0E0,6.9074154E-2,1.7500877E-2,0E0,0E0,0E0,0E0,0E0,0E0,0E0,0E0,0E0,0E0,0E0,0E0,0E0,0E0,0E0,0E0,0E0,0E0,0E0,0E0,0E0,0E0,0E0,0E0,0E0,0E0,0E0,0E0,0E0,0E0,0E0,0E0,0E0,0E0,0E0,0E0,0E0,0E0,0E0,0E0,0E0,0E0,0E0,0E0],"parents":[2147483647,0,0,1,1,2,2,3,3,4,4,5,5,6,6,7,7,8,8,9,9,10,10,11,11,12,12,13,13,15,15,16,16,17,17,18,18,19,19,20,20,21,21,22,22,23,23,24,24,26,26,27,27,29,29,30,30,31,31,32,32,33,33,34,34,35,35,36,36,37,37,38,38,39,39,40,40,41,41,42,42,43,43,44,44,45,45,46,46,47,47,49,49,50,50],"right_children":[2,4,6,8,10,12,14,16,18,20,22,24,26,28,-1,30,32,34,36,38,40,42,44,46,48,-1,50,52,-1,54,56,58,60,62,64,66,68,70,72,74,76,78,80,82,84,86,88,90,-1,92,94,-1,-1,-1,-1,-1,-1,-1,-1,-1,-1,-1,-1,-1,-1,-1,-1,-1,-1,-1,-1,-1,-1,-1,-1,-1,-1,-1,-1,-1,-1,-1,-1,-1,-1,-1,-1,-1,-1,-1,-1,-1,-1,-1,-1],"split_conditions":[2.2308743E-1,-5.672673E-1,1.2031008E0,-1.2537768E0,-1.4335853E-1,7.275309E-1,1.781774E0,6.4085823E-1,1.1715883E0,-1.19653344E-1,1.895045E-1,4.6353263E-1,-7.7081096E-1,1.653896E0,6.9848716E-2,-1.137586E0,1.5324203E0,-5.825356E-1,1.785182E0,-1.0789492E-1,6.01626E-2,1.22203596E-1,3.491211E-1,5.4981345E-1,7.376908E-1,3.9027046E-2,1.783943E-1,-6.7808455E-1,5.4674454E-2,-3.052322E-1,-6.2610894E-1,1.1235485E0,-1.5569521E0,-6.570351E-1,-2.9781148E-1,-1.4154037E0,2.1088238E0,1.66833E0,3.27249E-2,1.2225869E0,6.3691124E-2,1.0321098E-1,2.7866215E-1,1.4013709E-1,4.1691074E-1,4.6444732E-1,7.62263E-1,4.388523E-1,2.4756175E-2,9.0888655E-1,1.2031461E0,5.0947495E-2,3.847744E-2,-6.425321E-2,-4.7460925E-2,-3.701375E-2,-7.931548E-3,-3.272456E-2,-2.1443397E-2,-1.1911538E-2,2.1660952E-3,-3.5902154E-2,-2.57451E-2,-2.1410547E-2,-7.987565E-3,-6.689825E-3,-1.840931E-2,-8.8659655E-3,1.9748298E-4,-1.6851706E-2,-1.272778E-3,-8.144203E-3,-1.6091338E-3,-7.455751E-3,-1.6240033E-3,-1.595416E-3,1.2027769E-3,-7.1182153E-3,-1.4137177E-3,2.061618E-4,8.73471E-3,3.1239118E-3,-1.4133224E-3,5.562299E-3,9.624615E-3,5.9062405E-3,1.3145517E-2,1.3989572E-2,2.6347244E-2,1.3905706E-2,2.5215685E-2,2.1213217E-2,2.7866183E-2,2.86867E-2,4.054779E-2],"split_indices":[35,35,35,0,35,35,1,2,2,0,0,35,32,0,0,1,2,0,2,1,0,1,0,0,1,0,32,32,0,2,1,2,0,1,0,77,2,2,1,24,50,32,1,1,0,1,0,32,0,1,0,0,0,0,0,0,0,0,0,0,0,0,0,0,0,0,0,0,0,0,0,0,0,0,0,0,0,0,0,0,0,0,0,0,0,0,0,0,0,0,0,0,0,0,0],"split_type":[0,0,0,0,0,0,0,0,0,0,0,0,0,0,0,0,0,0,0,0,0,0,0,0,0,0,0,0,0,0,0,0,0,0,0,0,0,0,0,0,0,0,0,0,0,0,0,0,0,0,0,0,0,0,0,0,0,0,0,0,0,0,0,0,0,0,0,0,0,0,0,0,0,0,0,0,0,0,0,0,0,0,0,0,0,0,0,0,0,0,0,0,0,0,0],"sum_hessian":[1.525E3,8.99E2,6.26E2,4.59E2,4.4E2,4.4E2,1.86E2,1.49E2,3.1E2,2.14E2,2.26E2,2.5E2,1.9E2,1.31E2,5.5E1,1.19E2,3E1,2.63E2,4.7E1,1.83E2,3.1E1,1.73E2,5.3E1,1.37E2,1.13E2,3.3E1,1.57E2,8.6E1,4.5E1,9.1E1,2.8E1,2.5E1,5E0,2.16E2,4.7E1,3.3E1,1.4E1,1.6E2,2.3E1,2.3E1,8E0,9.4E1,7.9E1,3.7E1,1.6E1,1.12E2,2.5E1,9.3E1,2E1,1.18E2,3.9E1,2.7E1,5.9E1,5.6E1,3.5E1,2.7E1,1E0,1.4E1,1.1E1,4E0,1E0,1.69E2,4.7E1,4.3E1,4E0,2E0,3.1E1,8E0,6E0,1.53E2,7E0,1.7E1,6E0,2.1E1,2E0,5E0,3E0,6E1,3.4E1,6.2E1,1.7E1,3.5E1,2E0,9E0,7E0,8.5E1,2.7E1,2.3E1,2E0,7.6E1,1.7E1,5.3E1,6.5E1,1.8E1,2.1E1],"tree_param":{"num_deleted":"0","num_feature":"92","num_nodes":"95","size_leaf_vector":"1"}},{"base_weights":[8.951E-5,-1.9285506E-1,2.7704328E-1,-3.16742E-1,-5.9696034E-2,1.8602413E-1,4.9021128E-1,-4.7107002E-1,-2.722021E-1,-1.1802028E-1,5.3352583E-4,1.14239946E-1,2.651614E-1,4.2196137E-1,6.21006E-1,-5.568108E-1,-2.8857905E-1,-2.9481342E-1,-1.308647E-1,-1.2950197E-1,-3.425364E-2,-6.6113616E-3,7.909764E-2,1.0281536E-1,2.3077106E-1,2.4886039E-1,3.703239E-2,3.7323582E-1,4.6060227E-2,5.512736E-2,7.398805E-1,-5.823742E-1,-3.4774926E-2,-3.491967E-2,-1.8447576E-1,-3.648312E-1,-2.4817993E-1,-1.5241686E-1,6.72434E-3,-1.3866948E-1,-4.2811092E-2,-5.028462E-2,5.1767305E-3,-2.3834592E-2,4.0958505E-2,1.2068229E-2,5.859616E-2,8.865417E-2,1.937199E-1,1.6686454E-2,2.678887E-2,2.2529711E-1,3.231625E-1,3.7598804E-2,1.0405103E-2,1.8305613E-2,7.595526E-2,-6.8050705E-2,-5.0765242E-2,-1.9573657E-2,-7.418698E-3,-3.9696418E-2,-2.5198689E-2,-2.655377E-2,-1.7130418E-2,-1.8528376E-2,-1.0603166E-2,-2.5025762E-3,3.0779555E-3,-1.4389433E-2,-1.1614099E-3,-5.8142333E-3,-1.2546441E-3,-5.3939386E-3,-1.1594509E-3,-4.2967807E-4,1.3614896E-3,-4.317196E-3,9.269296E-5,2.600094E-3,7.1103885E-3,6.1192955E-3,1.2418929E-3,4.876386E-3,1.0132219E-2,2.2153448E-2,1.3059421E-2,1.8663445E-2,2.578628E-2,2.5248263E-2,3.6112547E-2],"categories":[],"categories_nodes":[],"categories_segments":[],"categories_sizes":[],"default_left":[0,0,0,0,0,0,0,0,0,0,0,0,0,0,0,0,0,0,0,0,0,0,0,0,0,0,0,0,0,0,0,0,0,0,0,0,0,0,0,0,0,0,0,0,0,0,0,0,0,0,0,0,0,0,0,0,0,0,0,0,0,0,0,0,0,0,0,0,0,0,0,0,0,0,0,0,0,0,0,0,0,0,0,0,0,0,0,0,0,0,0],"id":12,"left_children":[1,3,5,7,9,11,13,15,17,19,21,23,25,27,29,31,33,35,37,39,41,43,45,47,49,51,-1,53,-1,-1,55,57,-1,-1,59,61,63,65,67,69,71,73,75,77,79,-1,81,83,85,-1,-1,87,89,-1,-1,-1,-1,-1,-1,-1,-1,-1,-1,-1,-1,-1,-1,-1,-1,-1,-1,-1,-1,-1,-1,-1,-1,-1,-1,-1,-1,-1,-1,-1,-1,-1,-1,-1,-1,-1,-1],"loss_changes":[8.159788E1,1.48280945E1,1.2074097E1,3.0749435E0,1.5281502E0,2.4749422E0,1.4072533E0,1.4509487E0,1.1246986E0,2.0811772E-1,1.2120928E-1,2.864709E-1,2.661209E-1,6.531906E-2,1.0606766E-1,1.6623878E-1,1.5644932E-1,9.314537E-1,1.552226E-1,1.4824319E-1,1.7959315E-2,1.6319898E-1,8.274332E-3,2.583115E-1,2.7401447E-3,2.4933815E-1,0E0,6.070137E-3,0E0,0E0,8.003712E-2,9.449959E-2,0E0,0E0,4.1080117E-3,3.4597206E-1,2.0938206E-1,4.89583E-2,6.880326E-3,1.1450124E-1,8.550409E-3,2.2026636E-3,7.779516E-4,6.994812E-2,2.204901E-2,0E0,9.1882795E-4,8.955598E-2,2.0231724E-2,0E0,0E0,1.3192225E-1,2.1517277E-2,0E0,0E0,0E0,0E0,0E0,0E0,0E0,0E0,0E0,0E0,0E0,0E0,0E0,0E0,0E0,0E0,0E0,0E0,0E0,0E0,0E0,0E0,0E0,0E0,0E0,0E0,0E0,0E0,0E0,0E0,0E0,0E0,0E0,0E0,0E0,0E0,0E0,0E0],"parents":[2147483647,0,0,1,1,2,2,3,3,4,4,5,5,6,6,7,7,8,8,9,9,10,10,11,11,12,12,13,13,14,14,15,15,16,16,17,17,18,18,19,19,20,20,21,21,22,22,23,23,24,24,25,25,27,27,30,30,31,31,34,34,35,35,36,36,37,37,38,38,39,39,40,40,41,41,42,42,43,43,44,44,46,46,47,47,48,48,51,51,52,52],"right_children":[2,4,6,8,10,12,14,16,18,20,22,24,26,28,30,32,34,36,38,40,42,44,46,48,50,52,-1,54,-1,-1,56,58,-1,-1,60,62,64,66,68,70,72,74,76,78,80,-1,82,84,86,-1,-1,88,90,-1,-1,-1,-1,-1,-1,-1,-1,-1,-1,-1,-1,-1,-1,-1,-1,-1,-1,-1,-1,-1,-1,-1,-1,-1,-1,-1,-1,-1,-1,-1,-1,-1,-1,-1,-1,-1,-1],"split_conditions":[2.2308743E-1,-5.5854315E-1,1.2031008E0,-1.4145414E0,-1.1718882E-1,6.8366575E-1,1.7776241E0,2.6134732E-1,1.1715883E0,-8.4215425E-2,2.7866215E-1,7.62263E-1,1.1504589E0,1.4207588E0,2.1529198E0,-1.3840411E0,8.122903E-1,-9.9356335E-1,2.1088238E0,-5.933689E-2,1.20648056E-1,1.895045E-1,-1.4723985E0,6.705074E-1,8.463106E-1,1.783943E-1,3.703239E-2,1.8122722E0,4.6060227E-2,5.512736E-2,-1.5002886E0,-6.855523E-1,-3.4774926E-2,-3.491967E-2,1.6308892E0,-9.8066884E-1,-5.465695E-1,1.5708325E0,2.171379E0,1.7000028E0,3.27249E-2,9.1096157E-1,-1.2018548E-1,1.1177107E-1,3.491211E-1,1.2068229E-2,-7.943778E-2,2.8949586E-1,-8.575729E-1,1.6686454E-2,2.678887E-2,9.0888655E-1,1.1332084E0,3.7598804E-2,1.0405103E-2,1.8305613E-2,7.595526E-2,-6.8050705E-2,-5.0765242E-2,-1.9573657E-2,-7.418698E-3,-3.9696418E-2,-2.5198689E-2,-2.655377E-2,-1.7130418E-2,-1.8528376E-2,-1.0603166E-2,-2.5025762E-3,3.0779555E-3,-1.4389433E-2,-1.1614099E-3,-5.8142333E-3,-1.2546441E-3,-5.3939386E-3,-1.1594509E-3,-4.2967807E-4,1.3614896E-3,-4.317196E-3,9.269296E-5,2.600094E-3,7.1103885E-3,6.1192955E-3,1.2418929E-3,4.876386E-3,1.0132219E-2,2.2153448E-2,1.3059421E-2,1.8663445E-2,2.578628E-2,2.5248263E-2,3.6112547E-2],"split_indices":[35,35,35,35,35,35,35,2,2,0,1,0,1,35,35,0,2,35,2,1,0,0,32,1,0,32,0,3,0,0,57,2,0,0,2,0,0,2,2,2,1,67,66,1,0,0,0,35,32,0,0,1,0,0,0,0,0,0,0,0,0,0,0,0,0,0,0,0,0,0,0,0,0,0,0,0,0,0,0,0,0,0,0,0,0,0,0,0,0,0,0],"split_type":[0,0,0,0,0,0,0,0,0,0,0,0,0,0,0,0,0,0,0,0,0,0,0,0,0,0,0,0,0,0,0,0,0,0,0,0,0,0,0,0,0,0,0,0,0,0,0,0,0,0,0,0,0,0,0,0,0,0,0,0,0,0,0,0,0,0,0,0,0,0,0,0,0,0,0,0,0,0,0,0,0,0,0,0,0,0,0,0,0,0,0],"sum_hessian":[1.525E3,8.99E2,6.26E2,4.65E2,4.34E2,4.4E2,1.86E2,1.02E2,3.63E2,2.2E2,2.14E2,2.32E2,2.08E2,1.25E2,6.1E1,6.8E1,3.4E1,3.12E2,5.1E1,1.93E2,2.7E1,1.97E2,1.7E1,2.13E2,1.9E1,1.83E2,2.5E1,6E1,6.5E1,4.2E1,1.9E1,5.9E1,9E0,2E1,1.4E1,1.22E2,1.9E2,4.4E1,7E0,1.74E2,1.9E1,1.9E1,8E0,1.45E2,5.2E1,4E0,1.3E1,1.86E2,2.7E1,9E0,1E1,1.42E2,4.1E1,5.9E1,1E0,1E0,1.8E1,2.2E1,3.7E1,1.2E1,2E0,9.3E1,2.9E1,1.53E2,3.7E1,2.4E1,2E1,3E0,4E0,1.67E2,7E0,1.2E1,7E0,1.7E1,2E0,4E0,4E0,8.1E1,6.4E1,3.6E1,1.6E1,1.2E1,1E0,4.6E1,1.4E2,1.7E1,1E1,6.8E1,7.4E1,1.7E1,2.4E1],"tree_param":{"num_deleted":"0","num_feature":"92","num_nodes":"91","size_leaf_vector":"1"}},{"base_weights":[1.6183304E-4,-1.7396507E-1,2.501045E-1,-2.986262E-1,-6.572009E-2,1.7165099E-1,4.5175785E-1,-4.2605528E-1,-2.5614578E-1,-1.2136376E-1,-2.433115E-3,1.08361304E-1,2.4906017E-1,4.0974373E-1,6.267039E-1,-5.033557E-1,-2.6149008E-1,-2.7636737E-1,-1.0543434E-1,-1.5427582E-1,-8.902828E-2,-2.1100633E-2,2.3260068E-2,7.27739E-2,1.430887E-1,3.5606246E-2,2.3340954E-1,3.7691534E-1,5.128644E-2,1.739033E-2,6.357007E-2,-5.533443E-1,-3.932419E-2,-3.159399E-2,-1.678277E-1,-3.3108938E-1,-2.3801269E-1,-1.3156988E-1,-3.6970153E-3,-1.6738917E-1,-3.7412655E-2,-9.901502E-2,-2.815176E-2,-3.7676893E-2,2.778614E-2,1.7087819E-2,1.3217744E-1,5.4148115E-2,1.215805E-1,2.1363253E-2,1.3088566E-1,2.1884984E-1,3.2328002E-2,2.9154578E-2,4.1796762E-2,-6.066084E-2,-3.920732E-2,-1.7766861E-2,-6.924119E-3,-3.6852002E-2,-2.5157765E-2,-2.5693966E-2,-1.7556483E-2,-1.566664E-2,-9.435585E-3,3.605291E-3,-2.9580796E-3,-6.946551E-3,-1.762219E-2,-6.6401176E-3,9.101232E-3,-1.0849923E-2,-3.907483E-3,-4.1659265E-3,2.8849297E-4,3.7810018E-3,-4.65834E-3,1.39222E-3,5.9667374E-3,6.6391737E-3,8.8623347E-4,2.7001241E-2,3.021559E-3,3.3099332E-3,9.945924E-3,1.0596164E-2,2.1223154E-2,1.13676535E-2,2.0264288E-2,1.9918898E-2,2.4764279E-2],"categories":[],"categories_nodes":[],"categories_segments":[],"categories_sizes":[],"default_left":[0,0,0,0,0,0,0,0,0,0,0,0,0,0,0,0,0,0,0,0,0,0,0,0,0,0,0,0,0,0,0,0,0,0,0,0,0,0,0,0,0,0,0,0,0,0,0,0,0,0,0,0,0,0,0,0,0,0,0,0,0,0,0,0,0,0,0,0,0,0,0,0,0,0,0,0,0,0,0,0,0,0,0,0,0,0,0,0,0,0,0],"id":13,"left_children":[1,3,5,7,9,11,13,15,17,19,21,23,25,27,29,31,33,35,37,39,41,43,45,47,49,-1,51,53,-1,-1,-1,55,-1,-1,57,59,61,63,65,67,69,71,73,75,77,79,81,83,85,-1,87,89,-1,-1,-1,-1,-1,-1,-1,-1,-1,-1,-1,-1,-1,-1,-1,-1,-1,-1,-1,-1,-1,-1,-1,-1,-1,-1,-1,-1,-1,-1,-1,-1,-1,-1,-1,-1,-1,-1,-1],"loss_changes":[6.6457695E1,1.2124924E1,9.841854E0,2.1536026E0,1.7005985E0,2.1923513E0,1.029499E0,1.1786366E0,9.3391037E-1,2.597716E-1,1.0936634E-1,2.9978704E-1,2.5684738E-1,2.941761E-1,1.980877E-2,1.6220856E-1,1.2547278E-1,5.046768E-1,1.0321298E-1,1.8682837E-1,7.746303E-2,1.0801438E-1,6.2278837E-2,1.0795838E-1,8.050561E-2,0E0,1.647768E-1,2.741642E-1,0E0,0E0,0E0,1.4871407E-1,0E0,0E0,2.250731E-3,2.4061966E-1,1.5227509E-1,1.4169872E-2,1.0326379E-2,8.549595E-2,5.8163226E-2,5.9999228E-2,8.50475E-3,6.832147E-2,1.4197281E-2,3.6722083E-2,6.211096E-2,8.5406214E-2,2.5651038E-2,0E0,1.12800956E-1,4.0115356E-2,0E0,0E0,0E0,0E0,0E0,0E0,0E0,0E0,0E0,0E0,0E0,0E0,0E0,0E0,0E0,0E0,0E0,0E0,0E0,0E0,0E0,0E0,0E0,0E0,0E0,0E0,0E0,0E0,0E0,0E0,0E0,0E0,0E0,0E0,0E0,0E0,0E0,0E0,0E0],"parents":[2147483647,0,0,1,1,2,2,3,3,4,4,5,5,6,6,7,7,8,8,9,9,10,10,11,11,12,12,13,13,14,14,15,15,16,16,17,17,18,18,19,19,20,20,21,21,22,22,23,23,24,24,26,26,27,27,31,31,34,34,35,35,36,36,37,37,38,38,39,39,40,40,41,41,42,42,43,43,44,44,45,45,46,46,47,47,48,48,50,50,51,51],"right_children":[2,4,6,8,10,12,14,16,18,20,22,24,26,28,30,32,34,36,38,40,42,44,46,48,50,-1,52,54,-1,-1,-1,56,-1,-1,58,60,62,64,66,68,70,72,74,76,78,80,82,84,86,-1,88,90,-1,-1,-1,-1,-1,-1,-1,-1,-1,-1,-1,-1,-1,-1,-1,-1,-1,-1,-1,-1,-1,-1,-1,-1,-1,-1,-1,-1,-1,-1,-1,-1,-1,-1,-1,-1,-1,-1,-1],"split_conditions":[2.2308743E-1,-6.4360094E-1,1.2379187E0,-1.4145414E0,-1.4335853E-1,7.275309E-1,2.0090106E0,2.6134732E-1,1.2558923E0,-4.126532E-1,7.1490295E-2,4.4201422E-1,-9.5289874E-1,1.1350895E-1,-1.2244676E0,-1.5569521E0,8.122903E-1,-1.027628E0,1.9775109E0,1.2014263E0,-6.0948573E-2,1.20648056E-1,1.3775812E0,4.8662615E-1,-9.8322237E-1,3.5606246E-2,1.2566864E0,1.4738214E0,5.128644E-2,1.739033E-2,6.357007E-2,-3.3115464E-1,-3.932419E-2,-3.159399E-2,1.6308892E0,7.708405E-1,9.1667205E-1,1.5971481E0,-8.025064E-1,-1.1699771E0,1.1002247E0,-5.933689E-2,8.3756596E-2,-3.9704663E-1,3.1138474E-1,-9.721539E-1,1.8102026E-1,4.2592353E-1,1.0375245E0,2.1363253E-2,4.388523E-1,9.9560076E-1,3.2328002E-2,2.9154578E-2,4.1796762E-2,-6.066084E-2,-3.920732E-2,-1.7766861E-2,-6.924119E-3,-3.6852002E-2,-2.5157765E-2,-2.5693966E-2,-1.7556483E-2,-1.566664E-2,-9.435585E-3,3.605291E-3,-2.9580796E-3,-6.946551E-3,-1.762219E-2,-6.6401176E-3,9.101232E-3,-1.0849923E-2,-3.907483E-3,-4.1659265E-3,2.8849297E-4,3.7810018E-3,-4.65834E-3,1.39222E-3,5.9667374E-3,6.6391737E-3,8.8623347E-4,2.7001241E-2,3.021559E-3,3.3099332E-3,9.945924E-3,1.0596164E-2,2.1223154E-2,1.13676535E-2,2.0264288E-2,1.9918898E-2,2.4764279E-2],"split_indices":[35,35,35,35,35,35,1,2,2,35,35,35,32,32,25,0,2,35,2,2,0,0,73,0,32,0,0,1,0,0,0,2,0,0,2,32,32,2,5,32,5,1,0,0,0,32,1,1,32,0,32,1,0,0,0,0,0,0,0,0,0,0,0,0,0,0,0,0,0,0,0,0,0,0,0,0,0,0,0,0,0,0,0,0,0,0,0,0,0,0,0],"split_type":[0,0,0,0,0,0,0,0,0,0,0,0,0,0,0,0,0,0,0,0,0,0,0,0,0,0,0,0,0,0,0,0,0,0,0,0,0,0,0,0,0,0,0,0,0,0,0,0,0,0,0,0,0,0,0,0,0,0,0,0,0,0,0,0,0,0,0,0,0,0,0,0,0,0,0,0,0,0,0,0,0,0,0,0,0,0,0,0,0,0,0],"sum_hessian":[1.525E3,8.99E2,6.26E2,4.17E2,4.82E2,4.52E2,1.74E2,1.02E2,3.15E2,2.56E2,2.26E2,2.5E2,2.02E2,1.43E2,3.1E1,6.8E1,3.4E1,2.77E2,3.8E1,1.25E2,1.31E2,1.31E2,9.5E1,1.25E2,1.25E2,2.3E1,1.79E2,1.12E2,3.1E1,1E0,3E1,4.4E1,2.4E1,2E1,1.4E1,1.11E2,1.66E2,3E1,8E0,1.12E2,1.3E1,1.12E2,1.9E1,9.8E1,3.3E1,9.1E1,4E0,9.2E1,3.3E1,1.6E1,1.09E2,1.57E2,2.2E1,3.9E1,7.3E1,3.1E1,1.3E1,1.2E1,2E0,7.3E1,3.8E1,1.25E2,4.1E1,1.6E1,1.4E1,3E0,5E0,1E1,1.02E2,1.1E1,2E0,9.6E1,1.6E1,1.3E1,6E0,1E1,8.8E1,2.4E1,9E0,1.2E1,7.9E1,1E0,3E0,6.4E1,2.8E1,3E1,3E0,9E1,1.9E1,9.8E1,5.9E1],"tree_param":{"num_deleted":"0","num_feature":"92","num_nodes":"91","size_leaf_vector":"1"}},{"base_weights":[2.0592188E-4,-1.6209869E-1,2.186063E-1,-2.774551E-1,-7.023699E-2,1.24784775E-1,3.610368E-1,-3.8534757E-1,-2.3762856E-1,-1.2736133E-1,-1.8173924E-2,7.343E-2,1.7843182E-1,3.0625543E-1,4.9311137E-1,-4.550374E-1,-2.369492E-1,-2.5905088E-1,-1.10543154E-1,-1.4413753E-1,-6.466707E-2,-4.8447654E-2,3.744321E-3,6.451188E-2,1.6720988E-1,1.6284339E-1,2.4370445E-2,2.6650816E-1,3.5736375E-2,4.305832E-2,5.9198713E-1,-5.002291E-1,-3.554907E-2,-2.8280962E-2,-1.4795794E-2,-2.866982E-1,-1.8764688E-1,-1.357356E-1,-1.3834499E-2,-9.255256E-2,-1.6336693E-1,-8.439743E-2,-2.3805987E-2,-6.622759E-2,4.7174525E-3,-2.2716913E-3,6.731858E-2,5.39267E-2,1.2269464E-1,1.3222526E-2,2.478536E-2,1.4212698E-1,2.31586E-1,2.4201158E-2,4.2690534E-2,1.6520811E-2,6.0244996E-2,-5.450469E-2,-3.4798194E-2,-3.1205375E-2,-2.1363875E-2,-1.9560436E-2,-6.8840147E-3,-1.4973248E-2,-8.716986E-3,-4.5345523E-3,2.6745633E-3,-5.3913817E-3,-1.0977956E-2,-1.7016064E-2,-1.77422E-3,-1.194385E-2,-6.4820386E-3,1.1410396E-2,-3.8630336E-3,-7.865061E-3,-1.4832091E-3,-2.8592613E-4,5.0892555E-3,-1.752661E-3,3.183863E-3,4.4637793E-3,1.0719091E-2,3.375991E-3,8.213758E-3,1.2870203E-2,6.9320276E-3,1.3057399E-2,1.677739E-2,2.372737E-2,9.182588E-3],"categories":[],"categories_nodes":[],"categories_segments":[],"categories_sizes":[],"default_left":[0,0,0,0,0,0,0,0,0,0,0,0,0,0,0,0,0,0,0,0,0,0,0,0,0,0,0,0,0,0,0,0,0,0,0,0,0,0,0,0,0,0,0,0,0,0,0,0,0,0,0,0,0,0,0,0,0,0,0,0,0,0,0,0,0,0,0,0,0,0,0,0,0,0,0,0,0,0,0,0,0,0,0,0,0,0,0,0,0,0,0],"id":14,"left_children":[1,3,5,7,9,11,13,15,17,19,21,23,25,27,29,31,33,35,37,39,41,43,45,47,49,51,-1,53,-1,-1,55,57,-1,-1,-1,59,61,63,65,67,69,71,73,75,77,79,81,83,85,-1,-1,87,89,-1,-1,-1,-1,-1,-1,-1,-1,-1,-1,-1,-1,-1,-1,-1,-1,-1,-1,-1,-1,-1,-1,-1,-1,-1,-1,-1,-1,-1,-1,-1,-1,-1,-1,-1,-1,-1,-1],"loss_changes":[5.4128147E1,9.26334E0,8.654291E0,1.5756588E0,1.4520047E0,1.0723805E0,1.7156715E0,9.573889E-1,7.4998856E-1,2.3574209E-1,1.7071298E-1,1.5899003E-1,1.556735E-1,2.8056908E-1,2.0260811E-1,1.3258266E-1,1.0099745E-1,4.2789078E-1,1.0288423E-1,1.6640615E-1,3.9107233E-2,1.0240188E-1,5.7522457E-2,1.0855216E-1,1.5189409E-2,1.9209337E-1,0E0,3.2103586E-1,0E0,0E0,1.6568184E-2,1.1738491E-1,0E0,0E0,0E0,2.55661E-1,5.365801E-2,1.0060012E-2,1.4000011E-2,2.8694093E-2,1.2757277E-1,1.5581936E-2,4.1207522E-2,5.0550908E-2,9.94147E-3,7.236634E-2,6.971594E-3,8.825472E-2,5.6236982E-5,0E0,0E0,1.4834166E-2,6.034136E-3,0E0,0E0,0E0,0E0,0E0,0E0,0E0,0E0,0E0,0E0,0E0,0E0,0E0,0E0,0E0,0E0,0E0,0E0,0E0,0E0,0E0,0E0,0E0,0E0,0E0,0E0,0E0,0E0,0E0,0E0,0E0,0E0,0E0,0E0,0E0,0E0,0E0,0E0],"parents":[2147483647,0,0,1,1,2,2,3,3,4,4,5,5,6,6,7,7,8,8,9,9,10,10,11,11,12,12,13,13,14,14,15,15,16,16,17,17,18,18,19,19,20,20,21,21,22,22,23,23,24,24,25,25,27,27,30,30,31,31,35,35,36,36,37,37,38,38,39,39,40,40,41,41,42,42,43,43,44,44,45,45,46,46,47,47,48,48,51,51,52,52],"right_children":[2,4,6,8,10,12,14,16,18,20,22,24,26,28,30,32,34,36,38,40,42,44,46,48,50,52,-1,54,-1,-1,56,58,-1,-1,-1,60,62,64,66,68,70,72,74,76,78,80,82,84,86,-1,-1,88,90,-1,-1,-1,-1,-1,-1,-1,-1,-1,-1,-1,-1,-1,-1,-1,-1,-1,-1,-1,-1,-1,-1,-1,-1,-1,-1,-1,-1,-1,-1,-1,-1,-1,-1,-1,-1,-1,-1],"split_conditions":[1.8149154E-1,-7.007267E-1,1.0156993E0,-1.4145414E0,-2.654659E-1,5.601515E-1,1.7160078E0,2.6134732E-1,1.1143346E0,-2.9781148E-1,-5.0545216E-2,6.3720447E-1,1.0114897E0,1.3304509E0,2.084533E0,-1.5569521E0,8.7897897E-1,-8.256767E-1,1.8633832E0,-7.891664E-1,1.1045846E0,6.288578E-2,2.7866215E-1,5.588577E-1,7.9847527E-1,9.438521E-1,2.4370445E-2,1.5405436E0,3.5736375E-2,4.305832E-2,-1.5002886E0,-3.052322E-1,-3.554907E-2,-2.8280962E-2,-1.4795794E-2,-7.998191E-1,-4.194885E-1,1.5971481E0,2.171379E0,-1.2823782E0,1.9775109E0,-2.5414297E-1,-2.8203207E-1,2.4069188E-2,2.3955452E-1,1.6055843E-1,3.7514195E-1,4.0456077E-1,8.4209114E-1,1.3222526E-2,2.478536E-2,8.846056E-1,9.4494635E-1,2.4201158E-2,4.2690534E-2,1.6520811E-2,6.0244996E-2,-5.450469E-2,-3.4798194E-2,-3.1205375E-2,-2.1363875E-2,-1.9560436E-2,-6.8840147E-3,-1.4973248E-2,-8.716986E-3,-4.5345523E-3,2.6745633E-3,-5.3913817E-3,-1.0977956E-2,-1.7016064E-2,-1.77422E-3,-1.194385E-2,-6.4820386E-3,1.1410396E-2,-3.8630336E-3,-7.865061E-3,-1.4832091E-3,-2.8592613E-4,5.0892555E-3,-1.752661E-3,3.183863E-3,4.4637793E-3,1.0719091E-2,3.375991E-3,8.213758E-3,1.2870203E-2,6.9320276E-3,1.3057399E-2,1.677739E-2,2.372737E-2,9.182588E-3],"split_indices":[35,35,35,35,35,35,35,2,2,0,35,0,0,1,35,0,2,0,2,32,32,0,1,1,0,1,0,0,0,0,57,2,0,0,0,1,0,2,2,32,2,0,0,1,0,0,1,0,55,0,0,0,0,0,0,0,0,0,0,0,0,0,0,0,0,0,0,0,0,0,0,0,0,0,0,0,0,0,0,0,0,0,0,0,0,0,0,0,0,0,0],"split_type":[0,0,0,0,0,0,0,0,0,0,0,0,0,0,0,0,0,0,0,0,0,0,0,0,0,0,0,0,0,0,0,0,0,0,0,0,0,0,0,0,0,0,0,0,0,0,0,0,0,0,0,0,0,0,0,0,0,0,0,0,0,0,0,0,0,0,0,0,0,0,0,0,0,0,0,0,0,0,0,0,0,0,0,0,0,0,0,0,0,0,0],"sum_hessian":[1.525E3,8.75E2,6.5E2,3.87E2,4.88E2,3.93E2,2.57E2,1.02E2,2.85E2,2.32E2,2.56E2,2.02E2,1.91E2,1.84E2,7.3E1,6.8E1,3.4E1,2.43E2,4.2E1,1.82E2,5E1,1.07E2,1.49E2,1.86E2,1.6E1,1.57E2,3.4E1,1.07E2,7.7E1,4.8E1,2.5E1,4.4E1,2.4E1,2.1E1,1.3E1,1.73E2,7E1,3.3E1,9E0,5.1E1,1.31E2,3.3E1,1.7E1,8E1,2.7E1,1.37E2,1.2E1,1.59E2,2.7E1,1.3E1,3E0,1.23E2,3.4E1,9.5E1,1.2E1,1E0,2.4E1,3.2E1,1.2E1,1.26E2,4.7E1,6.5E1,5E0,2.4E1,9E0,5E0,4E0,1.7E1,3.4E1,1.25E2,6E0,1E1,2.3E1,1E0,1.6E1,6.4E1,1.6E1,2.4E1,3E0,9.5E1,4.2E1,9E0,3E0,9.4E1,6.5E1,2.3E1,4E0,8.9E1,3.4E1,3.2E1,2E0],"tree_param":{"num_deleted":"0","num_feature":"92","num_nodes":"91","size_leaf_vector":"1"}},{"base_weights":[2.3284434E-4,-1.4506733E-1,1.9892202E-1,-2.4761264E-1,-5.984334E-2,1.3077226E-1,3.578491E-1,-3.4844324E-1,-2.1193089E-1,-1.12526976E-1,-1.5345516E-2,7.575756E-2,1.8818246E-1,3.1029785E-1,4.6863878E-1,-4.1134313E-1,-2.1448505E-1,-2.3152183E-1,-1.023809E-1,-1.2830855E-1,-5.8769375E-2,-4.3644972E-2,4.344783E-3,6.457332E-2,1.5869759E-1,1.6848072E-1,2.9531714E-1,2.901111E-1,3.940969E-1,4.0602393E-2,5.610443E-1,-4.676035E-1,-3.39675E-1,-2.5891608E-2,-1.3798259E-1,-2.5232944E-1,-1.52405E-1,-1.2953143E-1,-2.9130992E-2,-1.5072067E-1,-8.683711E-2,4.988986E-2,-6.411354E-2,-5.9720248E-2,4.4172546E-3,-8.912304E-4,6.725121E-2,1.1662316E-1,5.061746E-2,1.3146437E-2,2.3210315E-2,2.10717E-2,1.560945E-1,2.0235341E-2,3.3260114E-2,3.3707246E-2,2.5626078E-1,4.127254E-2,1.9777318E-2,1.5694767E-2,5.740521E-2,-3.4270596E-2,-5.3150624E-2,-3.4415215E-2,-9.596455E-3,-1.5019483E-2,-6.685023E-3,-1.7105116E-2,-2.669671E-2,-1.6276209E-2,-8.138402E-3,-2.8173015E-3,-1.3174917E-2,-5.308638E-3,2.460598E-3,-1.5599516E-2,2.6733617E-3,-6.1494447E-3,-1.1019609E-2,1.0839876E-2,-3.3563972E-3,-9.5428E-3,-4.184249E-3,-7.429056E-3,-2.202032E-3,-4.415375E-5,6.780232E-3,-6.4741395E-4,6.1525526E-3,2.0381873E-2,-9.178145E-5,6.866774E-3,1.30961975E-2,1.958748E-3,7.21685E-3,1.2008897E-2,1.7876389E-2,2.5918925E-2,1.0348572E-2],"categories":[],"categories_nodes":[],"categories_segments":[],"categories_sizes":[],"default_left":[0,0,0,0,0,0,0,0,0,0,0,0,0,0,0,0,0,0,0,0,0,0,0,0,0,0,0,0,0,0,0,0,0,0,0,0,0,0,0,0,0,0,0,0,0,0,0,0,0,0,0,0,0,0,0,0,0,0,0,0,0,0,0,0,0,0,0,0,0,0,0,0,0,0,0,0,0,0,0,0,0,0,0,0,0,0,0,0,0,0,0,0,0,0,0,0,0,0,0],"id":15,"left_children":[1,3,5,7,9,11,13,15,17,19,21,23,25,27,29,31,33,35,37,39,41,43,45,47,49,51,53,55,57,-1,59,61,63,-1,65,67,69,71,73,75,77,79,81,83,85,87,89,91,93,-1,-1,-1,95,-1,-1,-1,97,-1,-1,-1,-1,-1,-1,-1,-1,-1,-1,-1,-1,-1,-1,-1,-1,-1,-1,-1,-1,-1,-1,-1,-1,-1,-1,-1,-1,-1,-1,-1,-1,-1,-1,-1,-1,-1,-1,-1,-1,-1,-1],"loss_changes":[4.4083824E1,7.693262E0,6.9390984E0,1.3652802E0,1.1305736E0,1.4165015E0,8.713417E-1,7.796459E-1,6.1586094E-1,1.7995119E-1,1.4673972E-1,2.0588815E-1,4.1671753E-1,1.19112015E-1,9.621525E-2,1.1938095E-1,8.324194E-2,3.7639427E-1,8.969897E-2,1.4492035E-1,3.3394665E-2,8.3706066E-2,5.1443048E-2,1.4446169E-1,2.346158E-2,6.5983295E-2,4.707718E-2,9.6432686E-2,6.147146E-3,0E0,1.5032291E-2,1.0517645E-1,4.071951E-3,0E0,2.9897392E-3,1.8989944E-1,2.7210236E-2,3.930986E-3,1.9328304E-2,1.0619211E-1,2.992624E-2,1.8286668E-2,3.0877352E-2,4.285738E-2,8.653233E-3,5.0926052E-2,1.1190316E-1,2.0574927E-2,1.08926564E-1,0E0,0E0,0E0,1.0096574E-1,0E0,0E0,0E0,4.942417E-3,0E0,0E0,0E0,0E0,0E0,0E0,0E0,0E0,0E0,0E0,0E0,0E0,0E0,0E0,0E0,0E0,0E0,0E0,0E0,0E0,0E0,0E0,0E0,0E0,0E0,0E0,0E0,0E0,0E0,0E0,0E0,0E0,0E0,0E0,0E0,0E0,0E0,0E0,0E0,0E0,0E0,0E0],"parents":[2147483647,0,0,1,1,2,2,3,3,4,4,5,5,6,6,7,7,8,8,9,9,10,10,11,11,12,12,13,13,14,14,15,15,16,16,17,17,18,18,19,19,20,20,21,21,22,22,23,23,24,24,25,25,26,26,27,27,28,28,30,30,31,31,32,32,34,34,35,35,36,36,37,37,38,38,39,39,40,40,41,41,42,42,43,43,44,44,45,45,46,46,47,47,48,48,52,52,56,56],"right_children":[2,4,6,8,10,12,14,16,18,20,22,24,26,28,30,32,34,36,38,40,42,44,46,48,50,52,54,56,58,-1,60,62,64,-1,66,68,70,72,74,76,78,80,82,84,86,88,90,92,94,-1,-1,-1,96,-1,-1,-1,98,-1,-1,-1,-1,-1,-1,-1,-1,-1,-1,-1,-1,-1,-1,-1,-1,-1,-1,-1,-1,-1,-1,-1,-1,-1,-1,-1,-1,-1,-1,-1,-1,-1,-1,-1,-1,-1,-1,-1,-1,-1,-1],"split_conditions":[1.8714431E-1,-6.765868E-1,1.1838678E0,-1.4145414E0,-2.654659E-1,6.4824295E-1,1.781774E0,2.6134732E-1,1.0934173E0,-3.1237292E-1,-5.0545216E-2,6.8138766E-1,1.2566864E0,1.7805989E0,2.1228194E0,-1.2252581E0,8.122903E-1,-7.35626E-1,1.728851E0,-3.634373E-1,-1.3781432E0,6.288578E-2,1.66833E0,-8.1397766E-1,1.0375245E0,-6.4790857E-1,2.7398163E-1,-6.7808455E-1,1.9295765E0,4.0602393E-2,-1.2244676E0,-3.2791322E-1,-1.346554E0,-2.5891608E-2,1.5570161E0,-1.0811796E0,-4.5329815E-1,-2.3245037E0,2.171379E0,2.0513315E0,-8.6707085E-1,-2.8203207E-1,-2.2418861E-1,2.3876028E-3,2.8591067E-1,2.7866215E-1,1.2924175E0,5.061382E-1,3.660477E-1,1.3146437E-2,2.3210315E-2,2.10717E-2,9.0629864E-1,2.0235341E-2,3.3260114E-2,3.3707246E-2,1.5324203E0,4.127254E-2,1.9777318E-2,1.5694767E-2,5.740521E-2,-3.4270596E-2,-5.3150624E-2,-3.4415215E-2,-9.596455E-3,-1.5019483E-2,-6.685023E-3,-1.7105116E-2,-2.669671E-2,-1.6276209E-2,-8.138402E-3,-2.8173015E-3,-1.3174917E-2,-5.308638E-3,2.460598E-3,-1.5599516E-2,2.6733617E-3,-6.1494447E-3,-1.1019609E-2,1.0839876E-2,-3.3563972E-3,-9.5428E-3,-4.184249E-3,-7.429056E-3,-2.202032E-3,-4.415375E-5,6.780232E-3,-6.4741395E-4,6.1525526E-3,2.0381873E-2,-9.178145E-5,6.866774E-3,1.30961975E-2,1.958748E-3,7.21685E-3,1.2008897E-2,1.7876389E-2,2.5918925E-2,1.0348572E-2],"split_indices":[35,35,1,35,35,35,1,2,2,0,35,0,0,0,1,87,2,0,2,1,76,0,2,32,32,32,32,32,35,0,25,62,1,0,2,32,0,3,2,2,32,0,0,1,0,1,23,1,0,0,0,0,0,0,0,0,2,0,0,0,0,0,0,0,0,0,0,0,0,0,0,0,0,0,0,0,0,0,0,0,0,0,0,0,0,0,0,0,0,0,0,0,0,0,0,0,0,0,0],"split_type":[0,0,0,0,0,0,0,0,0,0,0,0,0,0,0,0,0,0,0,0,0,0,0,0,0,0,0,0,0,0,0,0,0,0,0,0,0,0,0,0,0,0,0,0,0,0,0,0,0,0,0,0,0,0,0,0,0,0,0,0,0,0,0,0,0,0,0,0,0,0,0,0,0,0,0,0,0,0,0,0,0,0,0,0,0,0,0,0,0,0,0,0,0,0,0,0,0,0,0],"sum_hessian":[1.525E3,8.81E2,6.44E2,3.99E2,4.82E2,4.52E2,1.92E2,1.02E2,2.97E2,2.2E2,2.62E2,2.32E2,2.2E2,1.37E2,5.5E1,6.8E1,3.4E1,2.51E2,4.6E1,1.69E2,5.1E1,1.07E2,1.55E2,2.06E2,2.6E1,1.88E2,3.2E1,1.14E2,2.3E1,3.6E1,1.9E1,3.5E1,3.3E1,2E1,1.4E1,1.97E2,5.4E1,3.3E1,1.3E1,1.08E2,6.1E1,2E0,4.9E1,8E1,2.7E1,1.44E2,1.1E1,4.2E1,1.64E2,2.1E1,5E0,3.9E1,1.49E2,1.1E1,2.1E1,4.4E1,7E1,2E1,3E0,1E0,1.8E1,1.4E1,2.1E1,3.2E1,1E0,1.1E1,3E0,3.2E1,1.65E2,4.6E1,8E0,1E0,3.2E1,9E0,4E0,1.05E2,3E0,3.1E1,3E1,1E0,1E0,1.9E1,3E1,5.7E1,2.3E1,2.6E1,1E0,1.33E2,1.1E1,3E0,8E0,1.1E1,3.1E1,6.8E1,9.6E1,6E1,8.9E1,6.8E1,2E0],"tree_param":{"num_deleted":"0","num_feature":"92","num_nodes":"99","size_leaf_vector":"1"}},{"base_weights":[2.9811935E-4,-1.2468738E-1,1.8869942E-1,-2.1052697E-1,-3.6109157E-2,1.3282019E-1,3.4078112E-1,-2.8245646E-1,-1.6468087E-1,-7.721522E-2,3.0348294E-3,7.973793E-2,1.8123163E-1,3.1058154E-1,4.8796415E-1,-3.2025266E-1,-1.5064384E-1,-1.7556125E-1,-6.562018E-2,-9.124354E-2,-3.7150256E-2,-4.4994946E-3,7.930988E-2,7.175775E-2,1.4323522E-1,1.624081E-1,2.8307885E-1,2.7929118E-1,3.4550067E-2,4.9649072E-1,1.3740021E-2,-3.4851512E-1,-1.7030695E-1,-1.7611922E-1,-6.2838696E-2,-1.8900429E-1,-1.077308E-1,-8.09088E-2,9.01909E-3,-1.17987506E-1,-6.338686E-2,4.5301747E-2,-4.2376287E-2,-1.0045269E-2,6.0030922E-2,6.2221944E-2,1.6109688E-2,1.1870447E-1,5.7508323E-2,1.12003395E-2,1.7263627E-2,2.0464888E-1,1.5015164E-1,2.1239081E-2,3.380403E-2,3.1875778E-2,2.3975424E-2,2.7891943E-2,5.24651E-1,-4.174228E-2,-3.160889E-2,-5.683132E-3,-1.7803969E-2,-2.0035869E-2,-1.3935736E-2,-8.128478E-3,-1.0236864E-3,-9.887404E-3,-1.977864E-2,-1.1531835E-2,-3.9192024E-3,-3.0377666E-3,-8.398204E-3,-8.634583E-4,2.9550956E-3,-1.204103E-2,3.912952E-3,-7.402847E-3,-2.6696434E-3,1.0297882E-2,-8.250217E-4,-6.2613836E-3,-1.6617042E-3,-2.0679224E-3,1.2376528E-3,9.593695E-3,4.1603143E-3,4.280474E-3,8.357001E-3,8.675734E-3,1.495629E-2,3.1618145E-3,6.830299E-3,1.3498679E-2,2.1472452E-2,1.2248561E-2,1.7022435E-2,5.3578377E-2,1.5099788E-2],"categories":[],"categories_nodes":[],"categories_segments":[],"categories_sizes":[],"default_left":[0,0,0,0,0,0,0,0,0,0,0,0,0,0,0,0,0,0,0,0,0,0,0,0,0,0,0,0,0,0,0,0,0,0,0,0,0,0,0,0,0,0,0,0,0,0,0,0,0,0,0,0,0,0,0,0,0,0,0,0,0,0,0,0,0,0,0,0,0,0,0,0,0,0,0,0,0,0,0,0,0,0,0,0,0,0,0,0,0,0,0,0,0,0,0,0,0,0,0],"id":16,"left_children":[1,3,5,7,9,11,13,15,17,19,21,23,25,27,29,31,33,35,37,39,41,43,45,47,49,51,53,55,-1,57,-1,59,61,63,65,67,69,71,73,75,77,79,81,83,85,87,-1,89,91,-1,-1,93,95,-1,-1,-1,-1,-1,97,-1,-1,-1,-1,-1,-1,-1,-1,-1,-1,-1,-1,-1,-1,-1,-1,-1,-1,-1,-1,-1,-1,-1,-1,-1,-1,-1,-1,-1,-1,-1,-1,-1,-1,-1,-1,-1,-1,-1,-1],"loss_changes":[3.5956905E1,6.9724283E0,5.130146E0,1.4902058E0,7.291362E-1,1.1342454E0,5.729599E-1,8.485203E-1,2.978139E-1,1.2082207E-1,1.3425751E-1,9.866655E-2,4.0071535E-1,5.4288864E-2,9.499073E-3,5.2970314E-1,8.288151E-2,2.148943E-1,3.4963652E-2,1.13955975E-1,2.7342625E-2,7.6829575E-2,1.9325241E-2,1.2228346E-1,1.7838776E-3,7.229853E-2,6.418228E-2,4.5287132E-2,0E0,6.8359375E-3,0E0,1.2724972E-1,1.0941267E-2,5.9336424E-4,9.841174E-3,1.4983225E-1,1.8882334E-2,1.3311952E-3,2.4299375E-3,3.5925865E-2,3.0040205E-2,1.3204479E-2,2.8152585E-2,4.722711E-2,7.2570816E-3,4.298687E-3,0E0,3.040123E-2,3.9761752E-2,0E0,0E0,4.9448013E-4,6.6892624E-2,0E0,0E0,0E0,0E0,0E0,6.453991E-3,0E0,0E0,0E0,0E0,0E0,0E0,0E0,0E0,0E0,0E0,0E0,0E0,0E0,0E0,0E0,0E0,0E0,0E0,0E0,0E0,0E0,0E0,0E0,0E0,0E0,0E0,0E0,0E0,0E0,0E0,0E0,0E0,0E0,0E0,0E0,0E0,0E0,0E0,0E0,0E0],"parents":[2147483647,0,0,1,1,2,2,3,3,4,4,5,5,6,6,7,7,8,8,9,9,10,10,11,11,12,12,13,13,14,14,15,15,16,16,17,17,18,18,19,19,20,20,21,21,22,22,23,23,24,24,25,25,26,26,27,27,29,29,31,31,32,32,33,33,34,34,35,35,36,36,37,37,38,38,39,39,40,40,41,41,42,42,43,43,44,44,45,45,47,47,48,48,51,51,52,52,58,58],"right_children":[2,4,6,8,10,12,14,16,18,20,22,24,26,28,30,32,34,36,38,40,42,44,46,48,50,52,54,56,-1,58,-1,60,62,64,66,68,70,72,74,76,78,80,82,84,86,88,-1,90,92,-1,-1,94,96,-1,-1,-1,-1,-1,98,-1,-1,-1,-1,-1,-1,-1,-1,-1,-1,-1,-1,-1,-1,-1,-1,-1,-1,-1,-1,-1,-1,-1,-1,-1,-1,-1,-1,-1,-1,-1,-1,-1,-1,-1,-1,-1,-1,-1,-1],"split_conditions":[2.480999E-1,-5.5854315E-1,1.2882458E0,-1.1722506E0,-1.1718882E-1,6.8366575E-1,2.084533E0,4.7061735E-1,1.3757918E0,3.8568124E-1,3.5730717E-1,7.104455E-1,1.311814E0,1.6479197E0,2.0414264E0,-9.6643513E-1,1.4588851E0,-5.465695E-1,2.1088238E0,-2.6178083E-1,-7.0666623E-1,3.181739E-1,1.6443697E0,-8.1397766E-1,8.463106E-1,-6.6672385E-1,3.301721E-1,-6.7808455E-1,3.4550067E-2,-1.1245598E0,1.3740021E-2,-6.855523E-1,-1.291125E0,9.464679E-1,1.8633832E0,-9.8322237E-1,-2.9781148E-1,-1.8120583E0,2.4297786E0,2.0513315E0,-5.933689E-2,-2.8203207E-1,-3.4618655E-1,1.1350895E-1,-1.4723985E0,4.5353225E-1,1.6109688E-2,6.3651997E-1,3.660477E-1,1.12003395E-2,1.7263627E-2,9.7750634E-1,9.7483736E-1,2.1239081E-2,3.380403E-2,3.1875778E-2,2.3975424E-2,2.7891943E-2,1.9855709E0,-4.174228E-2,-3.160889E-2,-5.683132E-3,-1.7803969E-2,-2.0035869E-2,-1.3935736E-2,-8.128478E-3,-1.0236864E-3,-9.887404E-3,-1.977864E-2,-1.1531835E-2,-3.9192024E-3,-3.0377666E-3,-8.398204E-3,-8.634583E-4,2.9550956E-3,-1.204103E-2,3.912952E-3,-7.402847E-3,-2.6696434E-3,1.0297882E-2,-8.250217E-4,-6.2613836E-3,-1.6617042E-3,-2.0679224E-3,1.2376528E-3,9.593695E-3,4.1603143E-3,4.280474E-3,8.357001E-3,8.675734E-3,1.495629E-2,3.1618145E-3,6.830299E-3,1.3498679E-2,2.1472452E-2,1.2248561E-2,1.7022435E-2,5.3578377E-2,1.5099788E-2],"split_indices":[35,35,1,0,35,35,35,2,2,32,0,0,0,35,67,1,2,0,2,1,1,1,32,32,0,32,32,32,0,5,0,2,50,2,2,32,0,45,2,2,1,0,35,32,32,0,0,1,0,0,0,1,0,0,0,0,0,0,57,0,0,0,0,0,0,0,0,0,0,0,0,0,0,0,0,0,0,0,0,0,0,0,0,0,0,0,0,0,0,0,0,0,0,0,0,0,0,0,0],"split_type":[0,0,0,0,0,0,0,0,0,0,0,0,0,0,0,0,0,0,0,0,0,0,0,0,0,0,0,0,0,0,0,0,0,0,0,0,0,0,0,0,0,0,0,0,0,0,0,0,0,0,0,0,0,0,0,0,0,0,0,0,0,0,0,0,0,0,0,0,0,0,0,0,0,0,0,0,0,0,0,0,0,0,0,0,0,0,0,0,0,0,0,0,0,0,0,0,0,0,0],"sum_hessian":[1.525E3,9.17E2,6.08E2,4.65E2,4.52E2,4.46E2,1.62E2,1.79E2,2.86E2,2.2E2,2.32E2,2.14E2,2.32E2,1.37E2,2.5E1,1.38E2,4.1E1,2.57E2,2.9E1,1.62E2,5.8E1,2.12E2,2E1,1.92E2,2.2E1,1.98E2,3.4E1,7.7E1,6E1,2.4E1,1E0,1.15E2,2.3E1,3.1E1,1E1,2.13E2,4.4E1,2.4E1,5E0,8.1E1,8.1E1,3E0,5.5E1,1.96E2,1.6E1,1.8E1,2E0,4.3E1,1.49E2,1.3E1,9E0,4.1E1,1.57E2,1.7E1,1.7E1,3.5E1,4.2E1,4E0,2E1,3.3E1,8.2E1,2E0,2.1E1,1.6E1,1.5E1,7E0,3E0,2E1,1.93E2,3.9E1,5E0,2E0,2.2E1,3E0,2E0,8E1,1E0,6.2E1,1.9E1,1E0,2E0,3E1,2.5E1,1.33E2,6.3E1,4E0,1.2E1,1.1E1,7E0,2.3E1,2E1,4.5E1,1.04E2,7E0,3.4E1,6.9E1,8.8E1,1.9E1,1E0],"tree_param":{"num_deleted":"0","num_feature":"92","num_nodes":"99","size_leaf_vector":"1"}},{"base_weights":[4.0768308E-4,-1.3093676E-1,1.4685072E-1,-2.1800363E-1,-7.2440825E-2,7.786021E-2,2.6205757E-1,-2.4742673E-1,-1.1741222E-1,-1.0825851E-1,-2.9488375E-2,3.739895E-2,1.20166145E-1,2.2394882E-1,3.7196958E-1,-3.0846447E-1,-2.0297563E-1,-1.3712357E-1,-4.2095657E-2,-1.20455176E-1,-4.810344E-2,-4.01054E-2,1.9556291E-2,2.7061764E-2,8.659933E-2,1.08341806E-1,1.8661797E-1,1.9315465E-1,2.6527444E-1,3.2665062E-1,4.644026E-1,-3.6866763E-1,-2.5731856E-1,-2.2956298E-1,-1.3551973E-1,-1.55520085E-2,-1.1120169E-2,-5.5068254E-2,1.3832357E-2,-7.799285E-2,-1.3430448E-1,4.8062712E-2,-5.3566966E-2,-4.8823226E-2,5.6923665E-3,1.0137227E-2,4.679976E-2,6.252475E-2,1.3288268E-2,7.767471E-2,1.7077802E-2,9.7379185E-2,1.7091691E-2,1.4399051E-2,2.117732E-2,1.750874E-1,3.283937E-2,2.6669738E-1,7.3586106E-3,3.2954696E-1,9.381342E-3,1.35154305E-2,4.7461804E-2,-4.2834915E-2,-2.7264832E-2,-2.6165983E-2,-8.906142E-3,-1.725379E-2,-2.5363749E-2,-1.4768533E-2,-7.179951E-3,-6.048374E-3,-2.6408618E-3,-1.9696541E-4,1.9756246E-3,-4.3636374E-3,-9.184986E-3,-1.4073195E-2,-4.1697784E-3,9.782988E-3,-2.5735812E-3,-7.5712465E-3,-3.8208372E-3,-5.072722E-3,1.2029208E-2,-3.6494556E-4,9.098525E-3,-3.282622E-5,1.379167E-3,6.5618395E-3,3.3892803E-3,2.4823114E-2,5.4337247E-3,-1.5939596E-4,3.399906E-3,1.3204142E-3,7.90603E-3,8.283004E-3,1.1438113E-2,2.0576363E-2,1.6006498E-2,7.681978E-3,2.6807612E-2,3.0033905E-2,4.3804415E-2],"categories":[],"categories_nodes":[],"categories_segments":[],"categories_sizes":[],"default_left":[0,0,0,0,0,0,0,0,0,0,0,0,0,0,0,0,0,0,0,0,0,0,0,0,0,0,0,0,0,0,0,0,0,0,0,0,0,0,0,0,0,0,0,0,0,0,0,0,0,0,0,0,0,0,0,0,0,0,0,0,0,0,0,0,0,0,0,0,0,0,0,0,0,0,0,0,0,0,0,0,0,0,0,0,0,0,0,0,0,0,0,0,0,0,0,0,0,0,0,0,0,0,0,0,0],"id":17,"left_children":[1,3,5,7,9,11,13,15,17,19,21,23,25,27,29,31,33,35,37,39,41,43,45,47,49,51,53,55,57,59,61,63,65,67,69,-1,-1,71,73,75,77,79,81,83,85,87,89,91,93,95,-1,97,-1,-1,-1,99,-1,101,-1,103,-1,-1,-1,-1,-1,-1,-1,-1,-1,-1,-1,-1,-1,-1,-1,-1,-1,-1,-1,-1,-1,-1,-1,-1,-1,-1,-1,-1,-1,-1,-1,-1,-1,-1,-1,-1,-1,-1,-1,-1,-1,-1,-1,-1,-1],"loss_changes":[2.9371042E1,4.0841208E0,5.7181807E0,9.2693615E-1,7.3988247E-1,7.7092934E-1,1.0476246E0,6.1297417E-1,1.05571985E-1,1.8716669E-1,1.15860894E-1,1.16158724E-1,1.5343189E-1,2.070961E-1,1.3315105E-1,2.2228622E-1,2.325306E-1,1.084137E-2,1.3095761E-2,1.17725134E-1,2.6743248E-2,7.2942704E-2,9.789901E-3,9.392832E-2,1.6785383E-2,1.1369395E-1,3.8203E-3,2.3571014E-1,3.2863617E-3,2.128601E-3,3.1218529E-3,1.4108801E-1,1.9792795E-2,9.901428E-2,2.3504913E-2,0E0,0E0,5.755909E-4,4.1335035E-4,2.2652388E-2,9.115362E-2,1.353596E-2,1.2072593E-2,5.536729E-2,2.4235774E-2,1.1901385E-3,2.0492077E-4,6.8617254E-2,4.351359E-2,2.3505837E-3,0E0,3.1093359E-2,0E0,0E0,0E0,1.683402E-2,0E0,1.1358261E-3,0E0,2.054882E-2,0E0,0E0,0E0,0E0,0E0,0E0,0E0,0E0,0E0,0E0,0E0,0E0,0E0,0E0,0E0,0E0,0E0,0E0,0E0,0E0,0E0,0E0,0E0,0E0,0E0,0E0,0E0,0E0,0E0,0E0,0E0,0E0,0E0,0E0,0E0,0E0,0E0,0E0,0E0,0E0,0E0,0E0,0E0,0E0,0E0],"parents":[2147483647,0,0,1,1,2,2,3,3,4,4,5,5,6,6,7,7,8,8,9,9,10,10,11,11,12,12,13,13,14,14,15,15,16,16,17,17,18,18,19,19,20,20,21,21,22,22,23,23,24,24,25,25,26,26,27,27,28,28,29,29,30,30,31,31,32,32,33,33,34,34,37,37,38,38,39,39,40,40,41,41,42,42,43,43,44,44,45,45,46,46,47,47,48,48,49,49,51,51,55,55,57,57,59,59],"right_children":[2,4,6,8,10,12,14,16,18,20,22,24,26,28,30,32,34,36,38,40,42,44,46,48,50,52,54,56,58,60,62,64,66,68,70,-1,-1,72,74,76,78,80,82,84,86,88,90,92,94,96,-1,98,-1,-1,-1,100,-1,102,-1,104,-1,-1,-1,-1,-1,-1,-1,-1,-1,-1,-1,-1,-1,-1,-1,-1,-1,-1,-1,-1,-1,-1,-1,-1,-1,-1,-1,-1,-1,-1,-1,-1,-1,-1,-1,-1,-1,-1,-1,-1,-1,-1,-1,-1,-1],"split_conditions":[7.1490295E-2,-8.379383E-1,9.822112E-1,7.37668E-1,-3.291415E-1,4.6353263E-1,1.7376412E0,-1.2923896E0,1.66833E0,-3.599562E-1,1.20648056E-1,4.8662615E-1,1.0114897E0,1.3304509E0,2.1228194E0,-1.1573157E0,-9.277788E-1,1.1235485E0,2.171379E0,-7.9515326E-1,-1.3658174E0,9.888428E-2,3.1138474E-1,-6.7808455E-1,7.62263E-1,9.438521E-1,4.0176243E-1,1.5405436E0,2.814508E0,2.2925453E0,-1.2244676E0,-4.1020942E-1,-1.2176276E0,-8.972003E-1,2.2720299E0,-1.55520085E-2,-1.1120169E-2,7.9362303E-1,-1.4827254E0,-1.3559208E0,1.4729898E0,-2.8203207E-1,-2.5414297E-1,2.0513315E0,2.5308466E-1,1.4891061E-1,-2.6178083E-1,1.8102026E-1,2.8591067E-1,-2.3163729E0,1.7077802E-2,7.1188927E-1,1.7091691E-2,1.4399051E-2,2.117732E-2,-5.2574337E-1,3.283937E-2,-1.6728055E0,7.3586106E-3,1.9578668E0,9.381342E-3,1.35154305E-2,4.7461804E-2,-4.2834915E-2,-2.7264832E-2,-2.6165983E-2,-8.906142E-3,-1.725379E-2,-2.5363749E-2,-1.4768533E-2,-7.179951E-3,-6.048374E-3,-2.6408618E-3,-1.9696541E-4,1.9756246E-3,-4.3636374E-3,-9.184986E-3,-1.4073195E-2,-4.1697784E-3,9.782988E-3,-2.5735812E-3,-7.5712465E-3,-3.8208372E-3,-5.072722E-3,1.2029208E-2,-3.6494556E-4,9.098525E-3,-3.282622E-5,1.379167E-3,6.5618395E-3,3.3892803E-3,2.4823114E-2,5.4337247E-3,-1.5939596E-4,3.399906E-3,1.3204142E-3,7.90603E-3,8.283004E-3,1.1438113E-2,2.0576363E-2,1.6006498E-2,7.681978E-3,2.6807612E-2,3.0033905E-2,4.3804415E-2],"split_indices":[35,35,35,2,35,35,35,35,2,0,0,0,0,1,1,88,0,2,2,32,25,1,0,32,0,1,32,0,39,41,25,2,1,32,32,0,0,75,1,32,2,0,0,2,1,0,1,1,0,5,0,1,0,0,0,32,0,10,0,41,0,0,0,0,0,0,0,0,0,0,0,0,0,0,0,0,0,0,0,0,0,0,0,0,0,0,0,0,0,0,0,0,0,0,0,0,0,0,0,0,0,0,0,0,0],"split_type":[0,0,0,0,0,0,0,0,0,0,0,0,0,0,0,0,0,0,0,0,0,0,0,0,0,0,0,0,0,0,0,0,0,0,0,0,0,0,0,0,0,0,0,0,0,0,0,0,0,0,0,0,0,0,0,0,0,0,0,0,0,0,0,0,0,0,0,0,0,0,0,0,0,0,0,0,0,0,0,0,0,0,0,0,0,0,0,0,0,0,0,0,0,0,0,0,0,0,0,0,0,0,0,0,0],"sum_hessian":[1.525E3,8.04E2,7.21E2,3.22E2,4.82E2,4.52E2,2.69E2,2.48E2,7.4E1,2.62E2,2.2E2,2.32E2,2.2E2,2.02E2,6.7E1,1.02E2,1.46E2,5.8E1,1.6E1,2.17E2,4.5E1,1.81E2,3.9E1,1.93E2,3.9E1,1.89E2,3.1E1,1.19E2,8.3E1,4.8E1,1.9E1,4.4E1,5.8E1,1.03E2,4.3E1,3.1E1,2.7E1,1.3E1,3E0,5.5E1,1.62E2,2E0,4.3E1,1.52E2,2.9E1,3E1,9E0,5.3E1,1.4E2,3.7E1,2E0,1.63E2,2.6E1,1.4E1,1.7E1,1.07E2,1.2E1,8.2E1,1E0,4.7E1,1E0,1E0,1.8E1,2.5E1,1.9E1,5.6E1,2E0,3.3E1,7E1,3.5E1,8E0,1E1,3E0,1E0,2E0,1.7E1,3.8E1,1.51E2,1.1E1,1E0,1E0,1.6E1,2.7E1,1.51E2,1E0,2.7E1,2E0,8E0,2.2E1,2E0,7E0,1E0,5.2E1,8.2E1,5.8E1,1E0,3.6E1,9.1E1,7.2E1,3.1E1,7.6E1,1E0,8.1E1,4E1,7E0],"tree_param":{"num_deleted":"0","num_feature":"92","num_nodes":"105","size_leaf_vector":"1"}},{"base_weights":[4.818205E-4,-1.1810682E-1,1.3270256E-1,-1.9683275E-1,-6.521535E-2,7.0365995E-2,2.3679797E-1,-2.2961585E-1,-1.2250139E-1,-9.7569436E-2,-2.6417425E-2,3.3915713E-2,1.0847708E-1,2.0397104E-1,3.4363717E-1,-2.9061878E-1,-1.8845503E-1,-1.4243594E-1,-5.2609902E-2,-1.13981515E-1,-6.0603715E-2,-3.6008652E-2,1.7883098E-2,2.4111284E-2,7.667689E-2,9.5481426E-2,1.5858501E-1,1.8257378E-1,2.7582282E-1,3.2127666E-1,5.3429134E-2,-5.1724266E-2,-2.765351E-1,-2.1028398E-1,-1.1945482E-1,-1.59177E-1,-1.1191956E-1,-6.258156E-2,1.2893786E-2,-1.322971E-1,-6.7251466E-2,-6.828817E-2,1.0167128E-2,-4.389544E-2,5.4142484E-3,9.1669345E-3,4.3114893E-2,5.683258E-2,1.1132577E-2,6.875434E-2,1.5939284E-2,1.2927775E-1,7.441147E-2,1.255882E-2,1.8874398E-2,2.3593485E-1,1.6985285E-1,2.8886413E-2,1.4073658E-2,2.7494011E-2,3.7546434E-2,-2.8193926E-2,-9.661565E-3,-1.5259835E-2,-2.333214E-2,-1.289226E-2,-7.1385778E-3,-1.7227938E-2,-9.216005E-3,-3.2040149E-3,-1.1351421E-2,-6.87946E-3,-2.8940921E-3,-1.8711705E-4,1.8439161E-3,-1.3993114E-2,-4.620423E-3,-3.5157565E-3,-8.017971E-3,-8.443667E-3,-3.9761714E-3,7.5988173E-3,-3.5408088E-3,-4.5687878E-3,1.1427748E-2,-3.2975446E-4,8.491957E-3,-2.9908246E-5,1.2472466E-3,2.682788E-3,5.4036337E-3,2.3581957E-2,4.900604E-3,-1.4364829E-4,2.9562924E-3,1.2543931E-3,6.9846E-3,9.15575E-3,1.4955034E-2,5.504067E-3,9.650123E-3,6.9470257E-3,2.3939893E-2,1.5116207E-2,2.3654725E-2],"categories":[],"categories_nodes":[],"categories_segments":[],"categories_sizes":[],"default_left":[0,0,0,0,0,0,0,0,0,0,0,0,0,0,0,0,0,0,0,0,0,0,0,0,0,0,0,0,0,0,0,0,0,0,0,0,0,0,0,0,0,0,0,0,0,0,0,0,0,0,0,0,0,0,0,0,0,0,0,0,0,0,0,0,0,0,0,0,0,0,0,0,0,0,0,0,0,0,0,0,0,0,0,0,0,0,0,0,0,0,0,0,0,0,0,0,0,0,0,0,0,0,0,0,0],"id":18,"left_children":[1,3,5,7,9,11,13,15,17,19,21,23,25,27,29,31,33,35,37,39,41,43,45,47,49,51,53,55,57,59,-1,-1,61,63,65,67,69,71,73,75,77,79,81,83,85,87,89,91,93,95,-1,97,99,-1,-1,101,103,-1,-1,-1,-1,-1,-1,-1,-1,-1,-1,-1,-1,-1,-1,-1,-1,-1,-1,-1,-1,-1,-1,-1,-1,-1,-1,-1,-1,-1,-1,-1,-1,-1,-1,-1,-1,-1,-1,-1,-1,-1,-1,-1,-1,-1,-1,-1,-1],"loss_changes":[2.3943165E1,3.3391266E0,4.6683598E0,7.5896263E-1,6.037185E-1,6.256101E-1,8.7685204E-1,5.0516987E-1,1.332252E-1,1.5265036E-1,9.454605E-2,9.583625E-2,1.2877011E-1,2.7096462E-1,9.265804E-2,1.3783455E-1,1.7972422E-1,2.2033334E-2,1.6483247E-2,1.460185E-1,4.5832634E-2,5.9695914E-2,8.401748E-3,8.048122E-2,1.7219871E-2,1.1713183E-1,2.0082593E-2,7.1249485E-2,4.038453E-2,4.240036E-2,0E0,0E0,5.5407047E-2,9.994602E-2,6.7255497E-3,2.6270509E-2,3.117621E-4,2.3982376E-3,3.6201178E-4,7.831812E-2,1.9171715E-2,3.1192094E-2,2.9688867E-2,4.8598915E-2,2.1059042E-2,9.737271E-4,3.2909587E-4,6.4089224E-2,3.2010466E-2,1.6397387E-3,0E0,3.7541628E-2,4.261285E-2,0E0,0E0,9.1671944E-5,1.3377666E-1,0E0,0E0,0E0,0E0,0E0,0E0,0E0,0E0,0E0,0E0,0E0,0E0,0E0,0E0,0E0,0E0,0E0,0E0,0E0,0E0,0E0,0E0,0E0,0E0,0E0,0E0,0E0,0E0,0E0,0E0,0E0,0E0,0E0,0E0,0E0,0E0,0E0,0E0,0E0,0E0,0E0,0E0,0E0,0E0,0E0,0E0,0E0,0E0],"parents":[2147483647,0,0,1,1,2,2,3,3,4,4,5,5,6,6,7,7,8,8,9,9,10,10,11,11,12,12,13,13,14,14,15,15,16,16,17,17,18,18,19,19,20,20,21,21,22,22,23,23,24,24,25,25,26,26,27,27,28,28,29,29,32,32,33,33,34,34,35,35,36,36,37,37,38,38,39,39,40,40,41,41,42,42,43,43,44,44,45,45,46,46,47,47,48,48,49,49,51,51,52,52,55,55,56,56],"right_children":[2,4,6,8,10,12,14,16,18,20,22,24,26,28,30,32,34,36,38,40,42,44,46,48,50,52,54,56,58,60,-1,-1,62,64,66,68,70,72,74,76,78,80,82,84,86,88,90,92,94,96,-1,98,100,-1,-1,102,104,-1,-1,-1,-1,-1,-1,-1,-1,-1,-1,-1,-1,-1,-1,-1,-1,-1,-1,-1,-1,-1,-1,-1,-1,-1,-1,-1,-1,-1,-1,-1,-1,-1,-1,-1,-1,-1,-1,-1,-1,-1,-1,-1,-1,-1,-1,-1,-1],"split_conditions":[7.1490295E-2,-8.379383E-1,9.822112E-1,4.4648555E-1,-3.291415E-1,4.6353263E-1,1.7805989E0,-1.3394111E0,1.4588851E0,-4.5329815E-1,1.20648056E-1,4.7257763E-1,9.7483736E-1,1.5603392E0,2.5171452E0,-2.3345408E0,7.9647064E-1,9.464679E-1,2.171379E0,-4.2742994E-1,1.5971481E0,9.888428E-2,3.1138474E-1,-6.7808455E-1,7.62263E-1,-5.372476E-1,4.0176243E-1,-8.1397766E-1,-2.7497625E-1,2.084533E0,5.3429134E-2,-5.1724266E-2,-1.1079756E0,-8.972003E-1,1.9589641E0,-7.873986E-1,-6.3858354E-1,1.8633832E0,-1.4827254E0,1.3757918E0,-1.1699771E0,-2.7182758E-1,-1.188799E0,2.0513315E0,2.5308466E-1,1.4891061E-1,-1.424641E-1,1.8102026E-1,2.8591067E-1,-2.3163729E0,1.5939284E-2,7.8471816E-1,7.7588195E-1,1.255882E-2,1.8874398E-2,-9.0324706E-1,1.623438E-1,2.8886413E-2,1.4073658E-2,2.7494011E-2,3.7546434E-2,-2.8193926E-2,-9.661565E-3,-1.5259835E-2,-2.333214E-2,-1.289226E-2,-7.1385778E-3,-1.7227938E-2,-9.216005E-3,-3.2040149E-3,-1.1351421E-2,-6.87946E-3,-2.8940921E-3,-1.8711705E-4,1.8439161E-3,-1.3993114E-2,-4.620423E-3,-3.5157565E-3,-8.017971E-3,-8.443667E-3,-3.9761714E-3,7.5988173E-3,-3.5408088E-3,-4.5687878E-3,1.1427748E-2,-3.2975446E-4,8.491957E-3,-2.9908246E-5,1.2472466E-3,2.682788E-3,5.4036337E-3,2.3581957E-2,4.900604E-3,-1.4364829E-4,2.9562924E-3,1.2543931E-3,6.9846E-3,9.15575E-3,1.4955034E-2,5.504067E-3,9.650123E-3,6.9470257E-3,2.3939893E-2,1.5116207E-2,2.3654725E-2],"split_indices":[35,35,35,2,35,35,0,35,2,0,0,0,0,1,87,86,32,2,2,1,2,1,0,32,0,32,32,32,32,35,0,0,0,32,32,0,43,2,1,2,32,0,74,2,1,0,3,1,0,5,0,1,0,0,0,38,32,0,0,0,0,0,0,0,0,0,0,0,0,0,0,0,0,0,0,0,0,0,0,0,0,0,0,0,0,0,0,0,0,0,0,0,0,0,0,0,0,0,0,0,0,0,0,0,0],"split_type":[0,0,0,0,0,0,